key,f1,f2,f3,f4,f5,f6,f7,f8,f9,f10,f11,f12,f13,f14,f15,f16,f17,f18,f19,f20,f21,f22,f23,f24,f25,f26,f27,f28,f29,f30,f31,f32,f33,f34,f35,f36,f37,f38,f39,f40,f41,f42,f43,f44,f45,f46,f47,f48,f49,f50,f51,f52,f53,f54,f55,f56,f57,f58,f59,f60,f61,f62,f63,f64,f65,f66,f67,f68,f69,f70,f71,f72,f73,f74,f75,f76,f77,f78,f79,f80,f81,f82,f83,f84,f85,f86,f87,f88,f89,f90,f91,f92,f93,f94,f95,f96,f97,f98,f99,f100,f101,f102,f103,f104,f105,f106,f107,f108,f109,f110,f111,f112,f113,f114,f115,f116,f117,f118,f119,f120,f121,f122,f123,f124,f125,f126,f127,f128
space,-1.9954529,-0.36497584,1.2706292,-0.6105706,-1.0640451,-1.4563658,-0.7114678,-0.12827644,-3.672664,-1.1703826,-0.64294016,-1.2097871,-0.7010175,-0.5027045,-0.4683903,0.701322,-0.16017477,0.009563714,-0.8541903,-0.012924343,-0.11545284,-0.5423585,-0.8827171,-0.5749346,0.32259884,0.65434957,0.0374541,-0.44879213,0.4982822,-0.7755463,-0.3236641,-0.40643597,0.33803266,0.46734875,0.35101935,-0.5887821,-0.9855378,-1.4999009,-1.9738811,0.20782071,0.8338257,-1.4949878,0.4834887,-0.6337373,0.3680692,-0.65765274,0.40056437,0.19703454,0.12799275,0.48550442,-0.6096531,-1.322631,-1.2920581,-1.3147296,0.4258793,-0.7531131,0.38055062,0.14858827,-0.44057372,-0.32167873,0.35388407,-0.8755138,-0.7151808,-1.8154482,-0.14512952,-0.14081874,-0.8821072,0.7568689,-0.41325945,-0.74699354,0.08855653,-0.7633588,0.28517127,-1.432039,0.04951307,0.20540111,-1.1562127,0.47745952,-0.27969882,0.8786168,-0.5246879,1.715251,-0.101344496,-1.5641979,0.6032336,0.48259845,-0.07943353,0.15233758,-0.69112575,0.54025817,-1.2031507,0.948709,-1.3208159,0.5878253,0.07511243,0.6257437,-1.0912294,-1.1887435,0.13967709,-0.56352603,-0.71877956,0.38645816,-0.5135513,-0.045624375,-1.4837663,-1.6582947,-0.3057142,-1.9514034,0.3917693,-0.7240234,-0.49844724,-0.22445068,0.24719036,-1.2168617,-0.25373328,-0.5162816,-0.30000332,-0.4546081,-0.66183674,-0.27267662,-0.57675785,-0.48526752,-1.3443308,-0.35951346,0.031245705,-1.7515175,-0.3307798,-0.055617094
space,-1.6971014,-0.34722623,0.53158456,-0.5632455,-1.1292675,-1.7343837,-0.65949005,-0.45845178,-3.291436,-0.985505,-0.33522204,-0.97164243,-0.87867045,-0.15841708,-0.6237379,0.53939146,0.10661291,0.019150078,-0.3046041,0.008430779,-0.11733815,-0.21816224,-0.5699683,-0.65988564,0.21824257,0.612587,0.3456046,-0.049310576,0.5001076,-0.43545884,-0.129302,-0.15414241,0.1347836,0.21182333,0.10843892,-0.23305841,-0.5807039,-1.569345,-1.6414922,0.25618002,0.78745604,-1.276389,0.32800716,-0.5870163,0.5207044,-0.68625236,0.6232608,0.31583324,0.03679377,0.4475444,-0.5179467,-1.0651342,-1.4607292,-1.5639589,0.45214933,-0.67668676,0.55876255,-0.07027103,-0.37990668,-0.43030065,0.2642447,-0.78337824,-0.57590616,-1.4220551,-0.10226856,-0.08039487,-0.41062063,0.798326,-0.4589391,-0.44548455,-0.008294402,-0.6933146,0.13436098,-1.3495462,-0.10330784,0.26776215,-1.4120679,0.4710706,-0.22898355,0.64580905,-0.6288375,1.5036535,0.00652945,-1.5961671,0.27043226,0.50458753,0.3172874,0.26743278,-0.18317248,0.57493234,-0.96835506,0.5660058,-1.3595788,0.50474274,0.101056695,0.93169934,-0.8849942,-0.81394106,0.0945141,-0.48830962,-0.6757568,0.36098415,-0.48555988,-0.14601037,-2.0056825,-1.2897849,-0.2550915,-1.7811847,0.26086134,-0.31082615,-0.6180069,-0.32578686,0.018355332,-1.1504649,-0.33881897,-0.5689962,-0.23562303,-0.14793277,-0.7836895,0.043463,-0.35874444,-0.25236374,-1.3013338,-0.3802157,-0.15255201,-1.3097211,-0.101191744,0.14460677
space,-1.4825292,-0.18570423,0.8138866,-0.3704997,-0.6729075,-1.3423151,-0.66948485,0.002496149,-2.8154292,-0.94125223,-0.27525112,-0.88341707,-0.32906017,-0.38311535,-0.23352864,0.36674616,-0.08348973,0.112110615,-0.68238556,0.046139,0.06065274,-0.41375446,-0.6280332,-0.6242734,0.40057242,0.47741878,-0.0041973,-0.35300437,0.4499154,-0.3587575,-0.11153459,-0.4549862,0.5736845,0.40050465,0.3075191,-0.3522908,-0.64311486,-0.8285503,-1.1099336,0.07445121,0.469734,-0.8342488,0.51600164,-0.34692746,0.1806635,-0.69556403,0.52777076,0.36009532,0.012775153,0.5446637,-0.5521363,-0.77150273,-1.4697111,-1.036531,0.46060088,-0.44359303,0.45911872,0.19397837,-0.1192497,-0.20553079,0.12040652,-0.62079936,-0.76710695,-1.5019423,-0.29083118,-0.07531026,-0.29084516,0.7196366,-0.387807,-0.610718,0.22991766,-0.56651634,0.19454488,-1.2069712,0.10511,0.50737315,-0.7226073,0.41632026,-0.043002903,0.8390547,-0.43031862,1.0110286,0.1882674,-1.1856754,0.41174266,0.07125589,0.13744587,0.6520809,-0.3770259,0.51656157,-0.6765803,0.35080877,-1.2018175,0.68117356,0.19970152,0.60234183,-0.7618347,-0.93694466,-0.32117027,-0.34934485,-0.18842505,0.39299792,-0.42552018,0.17648245,-1.3022436,-1.0928925,0.059171736,-1.3545464,0.40332955,-0.8984183,-0.5284035,-0.25257763,0.3117485,-0.4504824,-0.05702077,-0.22200131,-0.007653564,-0.14686662,-0.72827125,-0.20362431,-0.39516538,-0.42183712,-0.76457185,-0.27290177,-0.16527629,-1.5378128,-0.16070966,0.108769774
space,-1.6911979,-0.20505062,0.7330893,-0.64326406,-0.81474215,-1.6288528,-0.81395566,-0.016666777,-3.3398783,-1.1817715,-0.30935118,-0.9865001,-0.4457556,-0.27438846,-0.38528615,0.46199858,0.025732122,0.06552273,-0.59569234,-0.004007071,-0.06975949,-0.4000035,-0.70225483,-0.66921186,0.69433165,0.35156903,-0.030589163,-0.3546133,0.44558167,-0.4281382,-0.08950018,-0.49155098,0.50127363,0.28803584,0.02187323,-0.3894971,-0.6259261,-1.1537071,-1.4631672,0.07830906,0.60788417,-0.90924364,0.5924434,-0.50752604,0.37195098,-0.8677881,0.5981167,0.23338825,0.09075154,0.4905228,-0.6430657,-0.95818853,-1.6825378,-1.335585,0.5467131,-0.6286949,0.4787323,-0.032073125,-0.32210353,-0.2851843,0.16457367,-0.69872993,-0.75143766,-1.7931484,-0.23170954,-0.063256755,-0.44978547,0.7555298,-0.45889163,-0.7377238,0.11563352,-0.76734513,0.17723525,-1.2046331,-0.032922596,0.39876607,-0.878541,0.4202561,-0.17818701,0.9835587,-0.5967125,0.7866175,0.40772146,-1.295051,0.5955142,-0.027288914,0.061599463,0.7994242,-0.34856552,0.7689203,-0.81009316,0.5991241,-1.4862003,1.0471185,0.1237607,0.5322891,-0.7929519,-0.82695735,-0.3427124,-0.44519955,-0.35712826,0.1658153,-0.43486035,0.04502228,-1.5466499,-1.2244501,-0.13590789,-1.5762181,0.27248326,-0.8331299,-0.81570303,-0.30896482,0.38100386,-0.67542624,-0.15533341,-0.47524568,-0.12538716,0.07262623,-0.8648248,-0.0872222,-0.42697567,-0.36556628,-1.0736773,-0.45994514,-0.13425568,-1.6973364,-0.3198325,0.05817154
space,-1.2989848,-0.24925265,0.5264021,-0.5350252,-0.8685398,-1.5598634,-0.2824,-0.19570982,-2.7064857,-0.64043385,-0.27768973,-0.7759744,-0.5530258,-0.086514086,-0.36093175,0.5817566,0.13678633,0.032818258,-0.13125691,0.10110736,0.07336752,-0.05853975,-0.4450476,-0.36094716,0.19982061,0.65827143,0.28074247,-0.028953712,0.4637857,-0.29333335,-0.026310526,-0.10999912,0.50726694,0.20407638,0.38227615,-0.22138678,-0.4580999,-1.2668093,-1.1735533,0.29547343,0.7814555,-0.88744,0.3962734,-0.4592389,0.46008718,-0.4725035,0.26935303,0.22025174,0.11990842,0.2501228,-0.5591558,-0.6523786,-1.3026018,-0.98202497,0.39727283,-0.5992986,0.36588937,0.04845287,-0.11612967,-0.30071253,0.37322652,-0.5828898,-0.39113796,-1.1469387,-0.28152695,-0.10319423,-0.306724,0.7352351,-0.24337386,-0.49862877,0.023512831,-0.521297,0.13676928,-0.9444378,-0.12622115,0.22178861,-1.097679,0.39294425,-0.40806356,0.5334087,-0.52156603,1.667294,0.09624319,-1.2712885,0.21868502,0.5135479,0.4912507,0.1277912,-0.19452696,0.4585011,-0.67697656,0.6006993,-0.9590466,0.77685905,-0.08964667,0.7394438,-1.0037752,-0.65670675,0.07390057,-0.58261526,-0.6301257,0.34924728,-0.39145538,-0.21455535,-1.9484469,-1.0472332,-0.2031737,-1.5513499,0.05789137,-0.18666388,-0.63480765,-0.15662548,-0.04951214,-0.52483153,-0.36407477,-0.40509364,-0.14119363,-0.20576024,-0.5514158,0.06270197,-0.29987526,-0.32657963,-1.0908308,-0.2807712,-0.097208776,-1.040805,-0.13633873,0.10192238
space,-0.65576077,-0.18149027,0.33891633,-0.41327903,-0.575053,-1.2336644,-0.25167388,-0.1813421,-2.3782866,-0.5395378,-0.014380217,-0.65479696,-0.28191978,0.108166724,-0.21692893,0.4557218,0.13718417,0.10866696,0.03190218,0.25623277,-0.023733445,0.030231655,-0.44809866,-0.1340812,0.21596158,0.3509859,0.34713823,0.15302739,0.2772601,-0.3642401,0.08214374,-0.070221394,0.3196452,0.13436925,0.29014573,-0.062235087,-0.18422881,-0.9642779,-0.88532853,0.31339857,0.62402475,-0.815813,0.33075503,-0.36584562,0.38268775,-0.186999,0.3262483,0.4094516,0.30867183,0.12552035,-0.25855374,-0.67112774,-0.9937644,-0.7142057,0.51241213,-0.58204335,0.4660607,0.31510535,0.09246959,-0.3056745,0.38677993,-0.35556996,-0.29271936,-0.94509834,-0.19226453,-0.068780534,-0.20083708,0.66967565,-0.28476593,-0.37168148,0.05977475,-0.3119045,0.31558686,-0.553677,-0.00273177,0.21971491,-0.9317923,0.3913734,-0.092930645,0.5195462,-0.4934285,1.3072433,0.14836547,-0.8919807,0.20768625,0.40273,0.61794055,0.19936931,-0.011922255,0.31942225,-0.68475986,0.54361856,-0.74309754,0.65172774,0.05792153,0.8887594,-0.6564275,-0.4987218,-0.024571618,-0.39840066,-0.48815265,0.33995122,-0.2864134,-0.13510838,-1.497425,-0.5495376,-0.03305155,-0.9681184,0.16325766,-0.078347765,-0.40143144,0.030702472,-0.026425175,-0.5246279,-0.29762977,-0.28007895,-0.18196553,-0.097779915,-0.40460774,0.07323878,-0.22979324,-0.31517878,-0.7850367,-0.0940181,0.009128585,-0.5697142,0.17326345,-0.011665404
space,-3.0867212,-0.21939495,0.9960948,-1.0207974,-2.161335,-2.5514271,-0.5082638,-0.7516477,-4.3142676,-1.6723688,-0.30144987,-0.94291025,-1.8079388,-0.6117211,-0.76658016,0.8361894,0.09994609,-0.1040813,-1.0198766,-0.076102644,-0.18396999,-0.5181428,-0.28952596,-1.7461817,0.26748294,1.1834294,-0.0082739,-0.49413085,0.9838471,-0.3170792,-0.059431322,-0.36359572,0.32890832,0.27191418,-0.03177279,-0.64808667,-0.9431998,-2.613321,-1.9714652,-0.143204,1.308136,-1.5613289,0.94526184,-0.60331714,0.17832503,-1.0260878,0.4989919,-0.30856854,-0.6432858,0.55743307,-0.6721043,-1.4572726,-1.9655659,-2.2237284,0.33092222,-0.79080546,0.3179521,-0.42350942,-0.9684415,-0.055830173,0.19302055,-1.2112814,-0.746563,-1.3831091,-0.19641301,-0.23044676,-1.0793083,0.85361767,-0.1946408,-0.8803991,0.39612183,-0.9052673,-0.34316456,-2.2427304,0.05568394,0.45339203,-2.0328166,0.055863142,-0.68220246,0.9243012,-0.57202697,1.748909,-0.74321306,-2.3887293,0.24798876,0.64763826,0.30030614,0.013133615,-0.696328,1.1700251,-1.1249167,0.79262877,-1.5830634,0.22052586,0.07080275,1.0952297,-1.0617003,-1.272301,0.25175887,-0.7984773,-0.7335235,0.038571775,-0.6323952,-0.18571237,-2.922358,-2.1186,-0.623198,-3.3446853,-0.14321461,-0.538972,-0.92864996,-1.096721,0.43618798,-1.4914942,-0.24381287,-0.8530446,-0.4866958,-0.11436701,-1.4871958,-0.08680223,-0.5184341,-0.15779409,-1.847095,-0.5221747,-0.1509369,-2.3969994,-0.10588059,0.21082933
space,-1.7117066,-0.18789607,0.7741411,-0.46728167,-1.0287365,-1.7071904,-0.8310759,-0.09863926,-3.4614825,-1.0072004,-0.37023863,-1.0801128,-0.61542344,-0.25790387,-0.3168119,0.5066718,0.05952391,0.015240699,-0.73316425,-0.000464112,0.031836983,-0.32493865,-0.6504806,-0.7130313,0.57990444,0.42375088,-0.098133415,-0.27142707,0.4564168,-0.4187963,-0.024075113,-0.59443533,0.6088852,0.35666385,0.035174407,-0.49546742,-0.6470579,-0.9853674,-1.5212934,0.11875562,0.5283228,-1.0873035,0.6637377,-0.45756072,0.31820533,-0.9798969,0.7136155,0.29076117,0.029287815,0.43496886,-0.6198439,-0.89559793,-1.629018,-1.3732663,0.5282979,-0.48197642,0.51368016,0.04581161,-0.38326737,-0.28482118,0.12373908,-0.74453646,-0.6808587,-1.8140651,-0.16511624,-0.09875722,-0.542154,0.8180889,-0.4651038,-0.7780006,0.1527256,-0.772874,0.09953846,-1.2639513,-0.015819088,0.49423704,-0.87554485,0.43764853,-0.19999465,0.7432987,-0.54555196,0.91985536,0.17120835,-1.2970972,0.6027049,0.010428429,0.105569065,0.6487385,-0.39344817,0.9511471,-0.91642714,0.50522494,-1.4517642,0.76286364,0.201837,0.6515513,-0.7642358,-0.8305447,-0.16738251,-0.43049234,-0.37044844,0.27196848,-0.54635626,0.005053848,-1.8690356,-1.3669035,-0.2105133,-1.6842414,0.23699148,-0.81098455,-0.78330654,-0.30905113,0.4437028,-0.7237031,-0.20022835,-0.4170864,-0.07869965,-0.11256635,-0.90751636,0.032463,-0.38967472,-0.37017345,-1.0301149,-0.48617727,-0.09399358,-1.7495193,-0.26464826,0.092145234
space,-2.4380538,-0.46681926,0.7834592,-0.5874811,-1.3017414,-2.4583516,-1.3655319,-0.11315509,-5.0449247,-1.3583312,-0.81322086,-1.7422119,-0.761013,-0.33390713,-0.82857555,0.68546563,0.21492848,0.12427786,-0.66069126,-0.13095269,-0.1466551,-0.6950958,-0.8202478,-0.82223713,0.5458626,0.40816593,-0.118356526,-0.1348949,0.7649312,-0.6582238,-0.09695523,-0.46231705,0.562776,0.44102952,0.09669331,-0.44490534,-0.9787275,-1.9543848,-2.2101843,0.17145401,0.8188417,-1.6058854,0.90509605,-0.7621306,0.45317733,-1.5220429,0.7919643,0.4400277,0.12712595,0.5591934,-0.81415266,-1.2343868,-2.1761832,-1.962093,0.6420877,-0.90252864,0.5817573,-0.21220888,-0.4754096,-0.6310855,0.19361912,-1.1982473,-1.101913,-2.5854373,-0.013130449,-0.17170462,-0.8061567,0.9759273,-0.6326014,-1.0561848,0.025391994,-1.0465755,-0.14793296,-1.2180312,-0.12932307,0.505351,-1.5131612,0.60675126,-0.38450685,0.7490294,-0.8669131,0.82170147,0.13150492,-1.8695,0.38849854,0.05020684,-0.11383745,0.66178346,-0.3224405,1.0187001,-1.3527374,0.86543894,-2.2239902,0.29386693,0.19397171,0.72100425,-0.96232927,-0.78951883,-0.012773186,-0.60672,-0.65281403,0.14020848,-0.758149,-0.08002886,-3.0017266,-1.598614,-0.43312544,-2.2556393,0.31944215,-0.7484482,-1.0357428,-0.36971572,0.58975905,-1.4509257,-0.37972105,-0.85058296,-0.34144154,0.01851518,-1.3055745,0.15507045,-0.68653023,-0.3787025,-1.6435635,-0.7016024,-0.3062802,-2.362645,-0.48982984,0.14343467
space,-2.9453764,-0.44339553,0.8634036,-0.8211894,-1.6507427,-2.4438264,-0.9310463,-0.36457166,-4.5922565,-1.5023681,-0.5516348,-1.4255974,-1.2927276,-0.44202876,-0.7997427,0.8763095,0.15437391,-0.03676489,-0.78034747,-0.197566,-0.10961656,-0.55290806,-0.6954513,-1.2998319,0.35932142,0.74404097,0.08154592,-0.32255152,0.7785402,-0.48912507,-0.09851555,-0.49583513,0.4294986,0.3654572,0.000767948,-0.53370655,-0.8822066,-2.220059,-2.1238146,0.04056272,1.0475885,-1.6667709,0.8263057,-0.7430777,0.32714197,-1.173023,0.6280461,0.09438625,-0.20925307,0.5904957,-0.85224944,-1.3981893,-2.1915975,-1.9650117,0.40844747,-0.7904136,0.54709536,-0.26968062,-0.69286704,-0.38612363,0.23247641,-1.2246281,-0.9117355,-2.0653799,-0.051971793,-0.17131868,-0.8271185,0.9797458,-0.5405352,-0.9905566,0.22127695,-1.0165296,-0.18254559,-1.888157,-0.075932145,0.37533283,-1.8174676,0.3978874,-0.49210456,0.80528414,-0.7580431,1.3508384,-0.19529936,-2.287653,0.41737786,0.39558473,0.113689765,0.29564482,-0.5832339,1.1538844,-1.2368792,0.79087996,-1.8638763,0.4020523,0.13757476,0.83429885,-1.0305587,-1.0622606,0.06828147,-0.70156646,-0.70190686,0.17629683,-0.692002,-0.21416464,-2.8989766,-1.8318155,-0.5490289,-2.9756362,0.118910134,-0.67152184,-1.0376332,-0.74926984,0.32900155,-1.5170087,-0.3125608,-0.8139448,-0.40619537,-0.17035367,-1.3049325,0.08976843,-0.64450914,-0.23849693,-1.6995572,-0.63141906,-0.17807868,-2.3717563,-0.39792633,0.18412358
space,-2.0097017,-0.15878987,0.98746526,-0.70828253,-0.8444996,-1.6686265,-0.32613295,-0.05933761,-3.0586252,-1.074393,-0.19558212,-0.7453985,-0.58231324,-0.2345804,-0.2065742,0.6409881,0.038255684,-0.06329614,-0.75476336,-0.032782733,0.14376083,-0.38042963,-0.46023777,-0.6834917,0.5305405,0.52283114,-0.13981354,-0.47699654,0.54704887,-0.36764616,-0.06664916,-0.520825,0.45975545,0.37821302,0.13999829,-0.4456098,-0.4737963,-1.2370905,-1.0568013,0.15787503,0.57225204,-0.8538471,0.7023698,-0.35656694,0.20750938,-0.7315837,0.4288326,-0.13058329,-0.069794744,0.5179007,-0.5722948,-0.87135947,-1.6021261,-0.96665484,0.37247035,-0.37212124,0.39855224,0.3045155,-0.34565565,0.035272364,0.10003118,-0.6063966,-0.55233485,-1.1561294,-0.025261603,-0.15321264,-0.53024524,0.6889296,-0.19633882,-0.71191096,0.26915488,-0.5832383,0.0954326,-1.307264,0.14949052,0.26509517,-1.0325742,0.35362068,-0.2614753,0.60518813,-0.36648056,1.2482152,0.092643484,-1.432149,0.58374417,0.32879484,0.18292367,0.37234616,-0.6189496,0.95352256,-0.80091643,0.6854359,-1.0383111,0.9604918,0.053263932,0.5752275,-0.72116387,-0.7309582,0.007448593,-0.48206514,-0.29162043,0.20216468,-0.23881821,-0.043853074,-1.7360334,-1.4208602,-0.20151109,-1.9730328,0.22843482,-0.59132063,-0.51001155,-0.2828721,0.3989296,-0.6368717,-0.031865187,-0.26182413,-0.21406132,-0.18481044,-0.8148347,-0.022900289,-0.3761167,-0.15559399,-0.99859524,-0.3434584,0.06103005,-1.6616095,-0.16740371,-0.033315063
space,-1.6302176,-0.03039363,1.0239758,-0.34440106,-0.8419819,-1.4134663,-0.3223144,-0.09459501,-2.8566346,-0.71594155,-0.36901346,-0.6933887,-0.34642082,-0.27815688,-0.2216582,0.6155251,-0.11040253,0.18379307,-0.529002,-0.06360173,0.036775403,-0.3467226,-0.38294178,-0.60800207,0.35537508,0.55141157,-0.12663898,-0.4291962,0.54895866,-0.34922457,0.112071306,-0.31328088,0.49196157,0.33637112,0.29139677,-0.38237828,-0.48968935,-1.0025941,-0.97104686,0.31618118,0.54328394,-0.75937545,0.59882313,-0.21680254,0.14492455,-0.5705633,0.54704326,0.04218164,-0.08484879,0.5844264,-0.51221514,-0.6884962,-1.1258348,-1.0150344,0.47417986,-0.15325373,0.4780662,0.16465403,-0.34916106,0.15068859,0.22425547,-0.5476668,-0.43806463,-1.1833497,0.009053059,-0.11643572,-0.39196098,0.515657,-0.24832146,-0.6622617,0.26777446,-0.44557786,-0.33786607,-1.225793,0.22921647,0.34493124,-1.0804044,0.4955081,-0.25474247,0.44380274,-0.3049937,1.3514134,-0.05889359,-1.4718333,0.31205127,0.25195858,0.17450057,0.12624866,-0.44769353,0.63759184,-0.68541265,0.5700412,-0.83296275,0.5008601,0.30343086,0.5687183,-0.7761055,-0.62850755,-0.038954694,-0.33218688,-0.3450539,0.2774383,-0.20014907,0.14634423,-1.7934412,-1.2270207,-0.083532065,-1.5560572,0.30831623,-0.53575045,-0.6116742,-0.10701355,0.43710884,-0.5459072,0.079668805,-0.25303745,-0.17630538,-0.23305362,-0.8417567,-0.15105897,-0.34477746,-0.2819595,-0.83736175,-0.18206814,0.008358071,-1.2983811,-0.25518823,0.063290656
space,-2.3551207,-0.15496245,0.8691641,-0.75021756,-1.1610398,-1.8149065,-0.42165294,-0.30755028,-3.2481456,-1.1654361,-0.1947442,-0.6676575,-1.0545993,-0.3485782,-0.2576008,0.38107306,0.042565696,-0.058820337,-0.79859173,-0.07835525,0.08239214,-0.25274277,-0.5063552,-1.177425,0.34789205,0.78189516,0.11412549,-0.38569725,0.63879776,-0.16408236,0.031502686,-0.46455455,0.37019107,0.38748354,-0.03251796,-0.372845,-0.6897431,-1.6292058,-1.3191737,-0.017040312,0.8953738,-1.1052662,0.68618745,-0.39354926,0.15733653,-0.672145,0.48722747,-0.104358375,-0.25694162,0.5412483,-0.57792765,-0.8658171,-1.9271563,-1.2954026,0.336201,-0.5248868,0.40882152,-0.035457596,-0.44551775,-0.19397867,0.08794132,-0.7807859,-0.63609046,-1.2045202,-0.24567148,-0.17607751,-0.6153154,0.7676037,-0.21964951,-0.8144772,0.3266221,-0.675664,0.028975666,-1.5953817,0.09987499,0.28669372,-1.1498599,0.120069385,-0.28156695,0.8247306,-0.37884954,1.2034628,-0.1206848,-1.6189104,0.48022112,0.38491297,0.25756535,0.47519076,-0.473665,1.2129791,-0.7747992,0.6222932,-1.08242,0.6528565,0.095522225,0.7550052,-0.70474935,-0.95282495,-0.116736904,-0.44659132,-0.34648433,0.21739757,-0.47839814,-0.03179708,-1.774609,-1.4929863,-0.23404348,-2.4166548,0.06608614,-0.61088973,-0.63238937,-0.7551199,0.31851435,-0.71573055,-0.13585168,-0.49540696,-0.10745275,-0.14689389,-0.9848114,0.033197105,-0.35064292,-0.11039338,-1.1051531,-0.43038863,-0.19648376,-1.9080052,-0.2594838,0.11418232
space,-1.9624646,-0.27209106,1.1644418,-0.575607,-0.88587666,-1.6849852,-0.48316348,-0.079056375,-3.4011855,-1.1411662,-0.48435858,-0.9154267,-0.6485933,-0.3242749,-0.37152553,0.6200604,-0.057709612,0.21717103,-0.7646553,-0.097826034,0.01376719,-0.47517103,-0.6831656,-0.6708127,0.40302417,0.5848415,0.020110428,-0.33040333,0.6254502,-0.3764724,-0.09428557,-0.35184062,0.41221777,0.36155587,0.26651546,-0.40376598,-0.70066816,-1.4523997,-1.4172313,0.16731367,0.6925486,-1.1646074,0.65656674,-0.42819822,0.19279897,-0.679005,0.4907269,0.066789925,-0.048509985,0.5639303,-0.56901586,-0.9700456,-1.5216439,-1.2479392,0.34033486,-0.5086131,0.4570208,0.08572957,-0.29338744,-0.1821003,0.25003016,-0.72922903,-0.6611789,-1.4493922,-0.059546754,-0.1561255,-0.57256514,0.6773492,-0.24753688,-0.72604597,0.22439784,-0.598664,-0.07507397,-1.2374829,0.09653498,0.20451765,-1.1653186,0.40020025,-0.27026835,0.7117679,-0.4083448,1.3766568,-0.025374234,-1.4882152,0.35405734,0.3113439,0.06396426,0.36147067,-0.5285712,0.7262969,-0.90410066,0.7420136,-1.0974499,0.54637223,0.11697754,0.5834162,-0.8132029,-0.8273726,-0.060333468,-0.47144407,-0.4824029,0.23307091,-0.324833,-0.016284287,-1.6566529,-1.3978182,-0.20186448,-1.8945986,0.28928864,-0.57371044,-0.5732993,-0.28537497,0.37156376,-0.8376112,-0.1850494,-0.48510256,-0.2877786,-0.18992347,-0.94763124,-0.1258365,-0.46992546,-0.2312124,-1.1534249,-0.2682606,-0.09094324,-1.6959689,-0.22264488,0.0956492
space,-1.6021801,-0.065338105,0.7891214,-0.5243007,-0.7337315,-1.3639925,-0.32708314,0.020005722,-2.4327607,-0.71856284,-0.14016402,-0.6510234,-0.49441788,-0.21463838,-0.1060312,0.46219757,-0.044836484,0.027950227,-0.512593,0.010293186,0.1990321,-0.1616331,-0.38270006,-0.62200284,0.39421368,0.5259351,0.021582872,-0.2757899,0.45323485,-0.28235602,-0.04686533,-0.35476953,0.39115277,0.29389593,0.17773929,-0.28000218,-0.37014347,-0.97287655,-0.8204255,0.15918317,0.62862885,-0.58107764,0.4450656,-0.22032422,0.25953436,-0.5154321,0.41996706,0.11227092,-0.03209734,0.5075947,-0.49506176,-0.6648531,-1.4535748,-0.7835276,0.41032046,-0.24203223,0.3627978,0.22211362,-0.16905308,-0.025989246,0.113830104,-0.4886039,-0.43698215,-1.0185715,-0.12338568,-0.11176172,-0.3212896,0.7115287,-0.22241923,-0.59279525,0.13968168,-0.47319424,-0.06417063,-1.2112364,0.17930214,0.33964232,-0.8075035,0.34236905,-0.0898768,0.561454,-0.3239199,1.173608,0.06680484,-1.36328,0.45844692,0.32581106,0.16652304,0.30537796,-0.33582366,0.9442847,-0.5899755,0.47121525,-0.86702263,0.7599882,0.18615934,0.62394685,-0.6491502,-0.73811144,-0.11168364,-0.35106313,-0.16945781,0.38867828,-0.33378989,0.030675948,-1.6631658,-1.1399482,-0.05592984,-1.6335392,0.23349412,-0.5593774,-0.53758967,-0.24443224,0.3531784,-0.39511383,-0.02437374,-0.15589187,0.00191763,-0.1174462,-0.661422,0.022246037,-0.29250377,-0.20633557,-0.7028116,-0.24912572,-0.038644858,-1.4402143,-0.21184953,0.041383356
space,-1.9423447,-0.10847038,0.8197167,-0.52444243,-1.1440952,-1.6896394,-0.78638715,-0.20475382,-3.2313387,-1.0832546,-0.25854698,-1.1292938,-0.6739699,-0.42126787,-0.40634787,0.7225942,0.09923472,0.007238805,-0.85884166,-0.040455163,0.09719513,-0.37517565,-0.6583201,-0.7976606,0.42240727,0.46603402,-0.076180905,-0.5512706,0.3724056,-0.40042245,0.09937179,-0.5550781,0.88181704,0.28197894,0.0696282,-0.54214144,-0.7006565,-0.94582057,-1.4526669,0.044678852,0.63465345,-1.1730756,0.74709755,-0.54390955,0.27515712,-0.9173199,0.6247451,0.35231686,-0.03051737,0.40039802,-0.69355345,-1.0326205,-1.5209646,-1.3264049,0.4811343,-0.44290608,0.48472875,0.02586846,-0.43873975,-0.058202796,0.2134934,-0.74629,-0.63219625,-1.6827067,-0.10031843,-0.12435857,-0.4603809,0.7077576,-0.46014774,-0.6780224,0.3169833,-0.7706737,-0.028448015,-1.4966093,0.05976811,0.6450149,-1.0042324,0.48718768,-0.40811446,0.59810597,-0.63504845,1.1844755,0.11857642,-1.498053,0.60590583,0.17939365,0.27281934,0.43883693,-0.65648776,0.8265441,-0.91769016,0.5746301,-1.4060245,0.752688,0.11130184,0.66046154,-0.85740966,-0.9680615,-0.13149232,-0.4708444,-0.45781815,0.24453476,-0.5125333,0.002220154,-2.028613,-1.3095682,-0.21765333,-1.8310423,0.2930784,-0.80173206,-0.8121992,-0.3051394,0.18755746,-0.8090443,-0.12675844,-0.38322666,-0.1354577,-0.24915442,-0.8048736,-0.0699398,-0.4421652,-0.45110345,-1.1020042,-0.3718301,0.010469578,-1.8167865,-0.2918555,-0.04434803
space,-1.7474871,-0.0855158,0.96812683,-0.5621529,-1.1577133,-1.6457474,-0.24259959,-0.44696602,-2.7768795,-1.0922529,-0.10784361,-0.53276014,-0.93381923,-0.33078974,-0.30310985,0.79881936,0.024671523,0.20664188,-0.884705,-0.04580742,-0.018140405,-0.30755138,-0.33695826,-0.95147884,0.4160405,0.7085593,-0.07146543,-0.5727836,0.49428833,-0.15708388,0.056064755,-0.46823406,0.61597455,0.28122523,0.07371705,-0.6135184,-0.3861605,-1.061327,-1.1077399,0.015461355,0.50691485,-1.0752568,0.84031963,-0.28811958,0.05574721,-0.67936337,0.66102016,-0.05493456,-0.37829196,0.41603047,-0.43049848,-0.9264507,-1.0726568,-1.3180927,0.22455332,-0.19833127,0.45712218,0.010451481,-0.5661553,0.23029417,0.1412031,-0.5618875,-0.40847504,-0.90156573,0.009594835,-0.14950259,-0.44899976,0.48914832,-0.25638124,-0.49146697,0.41316202,-0.4962877,-0.25161994,-1.4167849,0.14302784,0.3977709,-1.1632719,0.33102924,-0.36033645,0.5669245,-0.36411265,1.3821564,-0.28875437,-1.3711035,0.5099748,0.2789995,0.40177178,0.1860272,-0.7146227,0.7263427,-0.79379046,0.4851171,-0.8458799,0.57778794,0.2133327,0.68916035,-0.575696,-0.7355321,0.017008273,-0.40048093,-0.45326346,0.15013018,-0.21688686,-0.017978996,-1.5089587,-1.3976771,-0.16528225,-2.0032983,0.15632811,-0.5773037,-0.5570332,-0.46058235,0.27347443,-0.73982966,-0.11455172,-0.34490725,-0.28004125,-0.29767916,-1.0151507,-0.14798588,-0.2671349,-0.12705055,-1.0755277,-0.18448985,0.13589974,-1.3650656,0.04946428,0.12826733
space,-0.9763149,-0.19531336,0.6377309,-0.41680577,-0.49324858,-1.1210588,-0.19378845,-0.03320778,-2.4126701,-0.57158965,-0.12644836,-0.5980725,-0.45429188,0.019096062,-0.13466787,0.46065485,0.07695023,0.13486187,-0.20475091,0.17882223,-0.016746864,-0.045159668,-0.49282628,-0.21986195,0.34594297,0.47740036,0.14835867,0.023356143,0.3367097,-0.35479534,-0.17542455,-0.18604368,0.18360855,0.29119924,0.2648955,-0.1535118,-0.30916938,-0.99665725,-0.95636827,0.30424058,0.6926383,-0.85109776,0.28875527,-0.3166204,0.34154472,-0.31072724,0.38391775,0.31783196,0.22330189,0.3679642,-0.36960983,-0.6620147,-0.9534207,-0.73431075,0.4000411,-0.38406748,0.46828243,0.4089411,-0.017593041,-0.22672446,0.30234626,-0.46100628,-0.41902536,-0.92294246,-0.08893265,-0.09154213,-0.34600842,0.5746607,-0.2569006,-0.43262246,0.045361996,-0.29498643,0.35393238,-0.70582306,0.10603605,0.18257634,-0.8081075,0.56097037,-0.06482822,0.5794102,-0.33209407,1.2100847,0.0657696,-0.942014,0.359554,0.3757286,0.37223476,0.15202752,-0.22148775,0.45382637,-0.7436155,0.6328856,-0.7570108,0.5765789,0.17679389,0.6520983,-0.6531006,-0.50250596,0.048703738,-0.28682673,-0.39107436,0.34902805,-0.28380483,-0.022020131,-1.0773815,-0.78559697,-0.030447036,-1.1739414,0.3220247,-0.1900508,-0.30453855,0.02533704,0.1520479,-0.6701742,-0.24798144,-0.18062368,-0.123324424,-0.2561214,-0.4071007,0.004729478,-0.2835014,-0.19867858,-0.7261408,-0.11975175,-0.010595351,-0.6869217,0.001041934,0.13028786
space,-2.1104472,-0.24213943,0.7337389,-0.687941,-1.3650327,-1.9075837,-0.68910146,-0.3490802,-3.5171728,-1.0753468,-0.30800137,-0.91707665,-0.971221,-0.20907292,-0.5640524,0.7008292,0.08035567,0.002358854,-0.4620387,-0.066563696,-0.02719839,-0.30003214,-0.46952632,-1.0695859,0.4056788,0.66116095,0.11772612,-0.21589911,0.5875208,-0.3514651,-0.117986046,-0.304451,0.28379405,0.26275188,-0.00164512,-0.3717587,-0.57407814,-1.7570721,-1.4594657,0.1261542,0.83998215,-1.0164413,0.4174246,-0.42574817,0.32337654,-0.92258847,0.5674048,0.14193943,-0.13427225,0.554025,-0.60061395,-0.98695445,-1.6900684,-1.5845217,0.46674743,-0.5147049,0.5492679,-0.10548155,-0.54903555,-0.25377595,0.14237767,-0.8497542,-0.6120238,-1.4611758,-0.050367035,-0.12180216,-0.6018674,0.8349542,-0.34609094,-0.7095113,0.101061635,-0.7237452,-0.3069769,-1.628768,0.041211933,0.2836332,-1.4337413,0.47326267,-0.28828344,0.8054693,-0.5746894,1.1619351,-0.08725679,-1.914278,0.3524465,0.4128831,0.13151757,0.20908137,-0.35259748,0.9968141,-0.92182696,0.5920123,-1.336633,0.4354858,0.2353448,0.6198051,-0.8180945,-0.7714931,-0.000336809,-0.50865555,-0.5294264,0.27102745,-0.46915856,-0.09172025,-2.3413024,-1.4232451,-0.28078812,-2.3053012,0.16972406,-0.5027807,-0.84509873,-0.57287836,0.37792292,-1.1196624,-0.1978484,-0.5433761,-0.26680806,0.009386021,-1.1090919,0.07002217,-0.42330194,-0.15290153,-1.2375634,-0.46225226,-0.054546148,-1.6828351,-0.3382637,0.202162
space,-2.4809163,-0.3158613,1.1097007,-0.72772986,-1.1026477,-1.8503864,-0.5191261,-0.21342084,-3.6858552,-1.3682864,-0.4417489,-1.1875772,-0.7758879,-0.55918145,-0.37760428,0.5997075,-0.07435828,-0.09359288,-1.0149962,-0.026579976,0.049297743,-0.579847,-0.8524525,-0.817767,0.30114356,0.6549367,0.031149447,-0.49319327,0.5087698,-0.5465078,-0.1344223,-0.6287184,0.6600539,0.40094325,0.27795908,-0.61800593,-0.90024716,-1.5179951,-1.6854727,0.03578204,0.77687633,-1.4292547,0.69284236,-0.6034021,0.23926139,-0.7526144,0.3834116,0.27190632,-0.11563432,0.5246016,-0.80311275,-1.1011344,-1.8932925,-1.414172,0.40427658,-0.70228416,0.35340974,0.17997034,-0.389744,-0.21245061,0.19839899,-0.9477277,-0.8845919,-1.728759,-0.34903955,-0.15173797,-0.62183607,0.8471066,-0.36657378,-0.8084241,0.32546294,-0.8538794,0.40171912,-1.692528,0.11328276,0.46270797,-1.2776091,0.38531044,-0.41827556,0.81309557,-0.6421769,1.5929351,0.05552876,-1.7502835,0.51729614,0.28845847,0.18956596,0.5637553,-0.7421795,0.6611836,-1.0744952,0.781001,-1.4359171,0.7956116,-0.07230881,0.7068417,-1.0917957,-1.3015962,-0.21728233,-0.67973053,-0.48507416,0.26936722,-0.5262985,-0.13300502,-1.6833183,-1.7044654,-0.35468876,-2.2674046,0.32526362,-0.7942485,-0.58158743,-0.42112878,0.15286915,-0.8391114,-0.28714633,-0.5158341,-0.18478465,-0.42482376,-0.8939004,-0.2200579,-0.62202054,-0.47133923,-1.2608997,-0.4107573,-0.1127015,-2.2046397,-0.1972722,-0.017869353
space,-2.1072767,-0.30776516,0.9461652,-0.8567232,-0.8980303,-1.9495155,-0.5915829,0.04509148,-3.6543565,-1.2649168,-0.35320637,-1.0035487,-0.60422355,-0.17507657,-0.36473924,0.69103765,0.08546868,-0.043132395,-0.5464887,-0.038987547,0.18523437,-0.37235898,-0.6283628,-0.8279494,0.6942268,0.37210467,0.00337252,-0.18913822,0.48729157,-0.36361825,-0.13717896,-0.40621448,0.421763,0.33781922,0.13145882,-0.41832232,-0.6477932,-1.5906484,-1.4650946,0.09410976,0.9141743,-0.74227077,0.60006523,-0.42190164,0.32974374,-0.9439926,0.32964572,-0.038805306,0.090197325,0.43688712,-0.63510746,-0.9411481,-1.9080666,-1.2285184,0.4449214,-0.6088991,0.35454154,0.27805966,-0.31247655,-0.1833022,0.03896573,-0.7517874,-0.77712387,-1.5796187,-0.12759942,-0.17202282,-0.63839084,0.830189,-0.3023969,-0.8736023,0.095475584,-0.7098569,-0.05018182,-1.2324961,0.002026439,0.1968253,-0.8721212,0.4221345,-0.34233972,0.91039616,-0.5942736,0.9667939,0.26509306,-1.5802633,0.6407783,0.21463877,-0.050299257,0.66920984,-0.5295608,1.2296581,-0.9732983,0.85250974,-1.2562089,1.0651069,0.013623178,0.38796368,-0.7882378,-0.75015044,-0.17450047,-0.59119225,-0.36569104,0.081314266,-0.3502601,-0.16126198,-1.9810787,-1.5906533,-0.29319954,-2.1678696,0.3226676,-0.59662867,-0.70693576,-0.48721763,0.5535667,-0.6984058,-0.18761145,-0.50147235,-0.31677756,0.046661876,-0.97112954,0.068340644,-0.42111623,-0.21977592,-1.1899894,-0.56652254,-0.08856227,-1.9474812,-0.51682097,-0.12401682
space,-1.9685323,-0.22408047,1.1439618,-0.8516318,-0.69014144,-1.46059,-0.34693736,0.11012271,-3.0105414,-1.3828938,-0.29245725,-0.7745782,-0.5221242,-0.36526942,-0.13261211,0.5583972,-0.09289137,0.20217866,-0.92907006,-0.10797563,-0.082132414,-0.46536964,-0.7054012,-0.6164944,0.65448546,0.5486191,-0.098555565,-0.62556976,0.5042085,-0.41152543,-0.14186987,-0.46952784,0.4197617,0.46820483,0.11200079,-0.43002975,-0.6447017,-1.2404027,-1.2560973,0.027930811,0.7499496,-0.9448379,0.63839716,-0.41949594,0.17228627,-0.6506493,0.38080943,-0.060498357,-0.036010534,0.5776913,-0.6237899,-1.0570861,-1.5211185,-1.0009183,0.2690817,-0.4344372,0.4097656,0.21343957,-0.28854558,-0.076876566,0.20811912,-0.65915316,-0.72835624,-1.3686792,-0.19938141,-0.1361035,-0.54715073,0.6677876,-0.24101625,-0.7126998,0.1243032,-0.5501379,0.20430942,-1.2507215,0.15103659,0.17196384,-0.7713109,0.30255023,-0.15132642,0.95773274,-0.4235582,0.9435416,0.2941824,-1.2185252,0.7264802,0.1523773,0.005814016,0.6178888,-0.6406484,0.6745342,-0.78602695,0.69407725,-1.0464823,1.1815295,0.0403862,0.38831443,-0.68606454,-0.853664,-0.2659374,-0.4874493,-0.3741823,0.25759244,-0.2660379,0.08691774,-0.92807674,-1.4066582,-0.13210309,-1.7108858,0.33279067,-0.748011,-0.47848016,-0.37647167,0.40000942,-0.6019045,-0.19124793,-0.3596122,-0.19782981,-0.19590339,-0.82243955,-0.2537858,-0.44049042,-0.20535666,-1.0479476,-0.35214704,-0.08966931,-1.6786745,-0.25171995,0.005545199
space,-1.3861305,-0.34263548,0.7591346,-0.54728216,-0.54451615,-1.2279139,-0.019107629,-0.12351062,-2.5754786,-0.68850684,-0.24947116,-0.6992981,-0.60621786,-0.13269317,-0.27185047,0.5421415,0.011979884,0.13231555,-0.28152883,0.05262652,0.00768739,-0.08026123,-0.6089219,-0.35897356,0.14622337,0.6517527,0.38737136,0.075207576,0.42429203,-0.45854324,-0.07731482,-0.16550785,0.1287578,0.24654469,0.38621703,-0.19506173,-0.3862176,-1.2232866,-1.203353,0.23433578,0.7741534,-1.0099735,0.25823852,-0.3689959,0.39598742,-0.1802201,0.23148376,0.2477426,0.102592304,0.3742754,-0.47708696,-0.7495767,-1.1109842,-0.8266751,0.21712278,-0.50802755,0.36350644,0.17737943,-0.12346393,-0.21537104,0.3226308,-0.6039956,-0.37276345,-0.9151148,-0.17120361,-0.07469925,-0.3732554,0.7523855,-0.26669148,-0.39214256,0.059960715,-0.4421972,0.42704636,-0.9021543,0.009116858,-0.00442595,-0.92979485,0.38021052,-0.19125098,0.6431187,-0.3653989,1.6986952,0.08200726,-1.2400602,0.437155,0.659998,0.38765025,0.09378581,-0.41802317,0.40584993,-0.8798635,0.78027415,-0.757526,0.81306505,0.033498347,0.69751865,-0.83272785,-0.76527065,0.08420529,-0.5137904,-0.55360395,0.38569957,-0.21392617,-0.18682018,-1.0970312,-1.0957952,-0.27421486,-1.4669095,0.37755656,-0.002169775,-0.30108786,-0.038791865,0.011970781,-0.7640325,-0.4024545,-0.29884544,-0.20342445,-0.3650695,-0.37324622,-0.006104192,-0.3592031,-0.27052566,-0.8741852,-0.18352681,0.008154996,-0.8915944,-0.014269307,0.046341702
space,-2.5706112,-0.3318875,1.1489296,-0.75330544,-1.262444,-2.102969,-0.77665925,-0.062599964,-4.054953,-1.2011874,-0.6820303,-1.5385644,-0.628564,-0.53445923,-0.53235126,0.9869727,-0.008723112,0.06130156,-0.9461532,-0.16072223,0.03132874,-0.6298755,-0.8273989,-0.7732198,0.33963826,0.54289734,-0.13654977,-0.61876106,0.42602575,-0.69699436,-0.092795655,-0.62134105,0.9081422,0.37769037,0.25935352,-0.7144012,-0.9649132,-1.4481711,-1.8137572,0.16574925,0.8047415,-1.4377612,0.8257015,-0.7234391,0.33737847,-1.0843258,0.5033402,0.2701687,-0.015937865,0.5078926,-0.9003348,-1.3277235,-1.79807,-1.4488406,0.4359317,-0.5278043,0.39516753,0.13382627,-0.51509213,-0.13909386,0.22651646,-0.98432994,-0.95923406,-2.100554,-0.13287206,-0.14116925,-0.71455276,0.84899515,-0.6368087,-1.0272062,0.15120369,-0.94895357,-0.21369232,-1.6783824,0.04658991,0.618868,-1.2984679,0.5337942,-0.52870846,0.6154858,-0.78917974,1.5257621,-0.07326093,-2.1370885,0.6373464,0.27042395,0.07087615,0.29193696,-0.9052077,0.93542856,-1.2339336,0.8087725,-1.6984574,0.77658063,0.13599785,0.6915411,-1.0670694,-1.0806531,-0.002459748,-0.6067411,-0.5775217,0.29078174,-0.6481686,-0.13959184,-2.3742142,-1.6997371,-0.4279893,-2.415868,0.301499,-0.975156,-0.9544178,-0.3252181,0.26480106,-1.121057,-0.2839406,-0.5653826,-0.34940484,-0.4477105,-1.0235051,-0.15910348,-0.6853058,-0.5522344,-1.3663961,-0.53300315,-0.004794993,-2.2087307,-0.45761937,-0.10002971
space,-1.0838875,-0.26262164,0.55600506,-0.3340231,-0.4830708,-1.0550455,-0.2984931,-0.1485424,-2.2731628,-0.6826939,-0.27456155,-0.5892026,-0.30821428,-0.17722264,-0.30303594,0.22708042,0.019584754,0.23660919,-0.25326788,0.052064657,0.04671566,-0.26231402,-0.38280517,-0.26145446,0.28348923,0.5517586,0.27426112,-0.09051536,0.49283296,-0.34027278,0.022709992,-0.073061615,0.1907018,0.2901236,0.23803827,-0.11732371,-0.39934814,-0.96468925,-0.96101135,0.21087202,0.5826231,-0.83087844,0.30597255,-0.28865358,0.39603072,-0.33150184,0.53304696,0.3663199,0.13115194,0.463532,-0.2572344,-0.60806227,-1.1082199,-0.8166234,0.39190546,-0.48373315,0.4383415,0.009640157,-0.08699939,-0.23992582,0.26363188,-0.42249203,-0.4434896,-0.8672413,-0.03935563,-0.10816757,-0.21304688,0.57943296,-0.24356171,-0.23063087,0.14180386,-0.3390051,0.21146485,-0.7024516,0.063182384,0.22124046,-0.9089934,0.40928558,-0.0672245,0.45793322,-0.3162925,1.279258,0.1249537,-0.9068005,0.3119837,0.3949405,0.21417944,0.32203996,-0.07240717,0.45413506,-0.58832765,0.6555075,-0.79402566,0.50398445,0.15176609,0.75324476,-0.52580106,-0.52318454,-0.029668158,-0.27276963,-0.37754515,0.3610185,-0.19334704,0.10910316,-1.0353495,-0.82272136,-0.08902663,-1.0146409,0.4321161,-0.18942265,-0.27877134,0.011567593,0.06778396,-0.57648116,-0.18845953,-0.27638188,-0.021496177,-0.04119526,-0.46714678,-0.046550445,-0.29645818,-0.1313667,-0.7867029,-0.052896947,-0.14421481,-0.9099928,0.05481264,0.119030386
space,-1.3757942,0.00759615,0.60922205,-0.18599477,-0.5911263,-1.1471171,-0.4931335,-0.05053536,-2.3768911,-0.74549615,-0.19370309,-0.43600386,-0.5170705,-0.1395702,-0.10517176,0.27246433,-0.10509799,0.23655929,-0.36102974,-0.05942434,-0.009966925,-0.21238977,-0.30841953,-0.60789776,0.37176615,0.4776797,0.033890158,-0.36699694,0.48531622,-0.23087557,0.12490052,-0.18108466,0.4009295,0.55398417,-0.000239735,-0.120890155,-0.4439078,-0.9391838,-0.7508014,0.055987865,0.66999626,-0.54287094,0.5934703,-0.13926399,0.19833168,-0.5434375,0.5886559,0.1869849,-0.03261748,0.571628,-0.26909477,-0.48857743,-1.4554968,-0.678865,0.37729624,-0.33585954,0.44862977,0.10510415,-0.13797665,-0.11886604,0.112599045,-0.42392892,-0.56846166,-0.96294564,-0.105837315,-0.17135862,-0.31520632,0.4959792,-0.29728374,-0.5497476,0.117479965,-0.39040828,-0.20533092,-0.8292036,0.26704118,0.28128886,-0.7272038,0.32673934,-0.13160235,0.6911928,-0.36361995,0.7576541,-0.010731369,-1.046593,0.6593007,0.097363055,0.21091072,0.34690806,-0.08964451,1.0040696,-0.5145426,0.42990613,-0.77856725,0.46175236,0.258965,0.5318488,-0.30083892,-0.3516547,-0.06673867,-0.24726093,-0.23290339,0.2821272,-0.3639426,0.29065865,-1.3099792,-0.9497499,-0.121572554,-1.4109286,0.3697469,-0.4229754,-0.36154622,-0.13482246,0.47676146,-0.41369396,-0.011150777,-0.23312661,-0.02662462,-0.054375492,-0.67211306,0.18394586,-0.24805884,-0.091258116,-0.62373185,-0.23164052,-0.2273956,-1.2413604,-0.35397023,0.09504928
space,-2.0614283,-0.1301356,0.84720856,-0.52728677,-0.7624023,-1.540179,-0.58117133,-0.10004481,-2.9844468,-1.2651123,-0.14142162,-0.73195803,-0.72387093,-0.45159763,-0.04142482,0.31159708,-0.15126891,-0.13928145,-0.9606889,-0.07441273,-0.023855329,-0.37434405,-0.6644433,-0.9436128,0.30453026,0.5043537,-0.039873093,-0.5568132,0.493141,-0.30118632,-0.120735995,-0.60677236,0.5386734,0.6590881,0.1575459,-0.39631552,-0.67201674,-1.1931108,-1.1662042,-0.13058451,0.73936754,-0.96525145,0.6717646,-0.2853775,0.14558816,-0.61864376,0.45892432,0.20358184,-0.33049697,0.6163914,-0.659376,-0.85246074,-1.897603,-1.0865732,0.30916157,-0.47527483,0.37379962,0.32818258,-0.18804133,-0.2055019,0.015363604,-0.7687074,-0.91012794,-1.3770492,-0.44162148,-0.15167083,-0.44104964,0.7556469,-0.253573,-0.8033632,0.29237702,-0.61537266,0.46387857,-1.4762895,0.24476612,0.41972512,-0.8393859,0.1767031,-0.12331855,1.052876,-0.48041853,0.88607764,0.07338488,-1.2905512,0.70652425,0.043969676,0.21709783,0.75875306,-0.38637692,0.7490087,-0.7156261,0.30958882,-1.1462394,0.7303356,0.016050428,0.6409462,-0.64688975,-1.1810467,-0.3851801,-0.46056467,-0.17212506,0.3760235,-0.5464399,0.18176745,-1.276724,-1.4501677,-0.045544624,-1.9613651,0.3417701,-0.92984945,-0.27058914,-0.53798795,0.4228838,-0.38524044,-0.13967244,-0.267291,0.024198338,-0.2711443,-0.81301844,0.009718033,-0.4133951,-0.32889405,-0.83200866,-0.40254027,-0.28793883,-1.9621952,-0.25545388,0.038326353
space,-2.4660609,-0.0628407,1.0189898,-0.75247455,-1.2279513,-1.9942974,-0.27587986,-0.12343498,-3.430473,-1.3609796,-0.243256,-0.7003973,-1.1092373,-0.39498532,-0.16282952,0.62031555,-0.057662077,0.022960246,-0.85828185,-0.11375308,-0.07239561,-0.35475534,-0.32281998,-1.2255262,0.42631602,0.8431287,-0.12331113,-0.54147124,0.75974965,-0.22543825,0.10146454,-0.37554532,0.30252546,0.5744059,-0.019164272,-0.50645876,-0.51603776,-1.7971265,-1.3302249,-0.027629763,1.0367422,-1.1347094,1.0330675,-0.32834613,0.056984752,-0.66696393,0.5530935,-0.45973074,-0.43612164,0.5716771,-0.5213262,-1.1246061,-1.7198039,-1.2396883,0.19668755,-0.32325768,0.33606842,0.09371413,-0.5359646,0.10591157,0.19545966,-0.86124563,-0.7080072,-1.1481644,-0.083266675,-0.2244793,-0.8042668,0.56032103,-0.2166174,-0.95547676,0.49520156,-0.5964857,-0.29292232,-1.6105642,0.2922465,0.24860051,-1.2903079,0.25639203,-0.40723047,0.84217453,-0.36730632,1.0661476,-0.37032178,-1.8839185,0.45931536,0.22265127,0.12589815,0.24138902,-0.5832207,1.3145331,-0.731284,0.7172315,-1.0343024,0.54229164,0.1430944,0.70549846,-0.6948115,-0.7581365,0.061672673,-0.4635744,-0.31878537,0.08830738,-0.4392141,0.061967313,-2.1002727,-1.7543504,-0.3511871,-2.512696,0.030096263,-0.5936718,-0.6191856,-0.5707334,0.584812,-0.8506389,-0.000518911,-0.5160577,-0.3566276,-0.16771834,-1.1596557,-0.09660673,-0.3281154,-0.008128367,-1.2097032,-0.22688955,-0.2662444,-1.9764547,-0.42413282,0.067313716
space,-1.9657774,-0.19490927,0.8342891,-0.7317398,-0.9691117,-1.8141677,-0.6907393,-0.26268584,-3.115602,-1.2478733,-0.3114722,-0.95706946,-0.7733534,-0.45615137,-0.222577,0.27306113,-0.07541654,0.025590062,-0.9885641,0.04858288,0.051937178,-0.51364416,-0.7417166,-0.83795965,0.41604543,0.49316916,0.06325373,-0.37844273,0.43862057,-0.39631182,-0.07777175,-0.5705123,0.665953,0.5598401,-0.031435985,-0.4867329,-0.7887711,-1.1840981,-1.4114262,-0.101492256,0.8012333,-1.0710989,0.63914436,-0.5384683,0.3090186,-0.8245071,0.6376012,0.3772697,-0.10015142,0.44158202,-0.5885274,-1.0906938,-1.8879465,-1.3318467,0.44693518,-0.56484956,0.32538134,0.12966515,-0.1756888,-0.30647084,0.050785333,-0.7440845,-1.0354018,-1.5095731,-0.44509685,-0.17717038,-0.48598516,0.6399354,-0.48406753,-0.7034042,0.3292657,-0.7756189,0.26886284,-1.4468888,0.14756235,0.56490695,-0.81209284,0.28541133,-0.17488325,0.88484114,-0.5250315,0.96289104,0.06835562,-1.4988735,0.59361637,-0.016168475,0.15279892,0.88912845,-0.36550468,0.9962452,-0.75741184,0.5246165,-1.4719609,0.6555787,-0.03811699,0.84316003,-0.6410352,-1.1503528,-0.4196423,-0.42293948,-0.19053367,0.2692414,-0.6457894,0.07930532,-1.3638487,-1.4526051,-0.11292264,-1.7852225,0.36263618,-0.96565384,-0.46261853,-0.5101453,0.29328132,-0.49708256,-0.25458872,-0.46448496,-0.05863595,-0.04477179,-1.0266047,-0.13395917,-0.3893941,-0.27756512,-1.0586852,-0.3634116,-0.34213087,-2.1056929,-0.2152489,-0.03318879
space,-2.4445472,-0.27634665,1.1402692,-0.9484603,-1.2877582,-2.1362169,-0.63539904,-0.38217652,-3.6890817,-1.4606006,-0.44023982,-1.0980705,-1.0684948,-0.3271016,-0.35702676,0.6015237,-0.020987941,-0.17835552,-1.0179691,0.05197078,0.10922362,-0.515745,-0.66628253,-0.9224231,0.38435555,0.7127536,-0.042646736,-0.45879823,0.57450855,-0.5301219,-0.29483637,-0.41124016,0.40356326,0.495809,0.040203046,-0.6278205,-0.9010919,-2.0263758,-1.6878798,0.09441765,0.9282,-1.4397398,0.6330009,-0.69400924,0.37693566,-1.0330434,0.5649581,-0.042410612,-0.17909473,0.4764936,-0.5586073,-1.3552324,-1.977762,-1.5306011,0.48063868,-0.65683156,0.35544944,0.43170363,-0.4650456,-0.32982588,0.10322985,-0.87112653,-0.85862035,-1.5256313,-0.23259097,-0.22980897,-0.8575288,0.73223495,-0.25368148,-0.91203415,0.124081366,-0.8227468,0.13502012,-1.6433126,0.15688524,0.30246916,-1.3131539,0.39770618,-0.37466553,0.8436464,-0.6044341,1.3386877,-0.17734006,-1.8100374,0.4273444,0.35843292,0.001935571,0.4796658,-0.6481813,1.0875324,-1.0284191,0.7580732,-1.4372183,0.51423526,-0.082318395,0.7978567,-0.85110253,-1.0676912,0.14596026,-0.5463899,-0.49998525,0.31330803,-0.7134824,-0.12633973,-2.0808988,-1.8819733,-0.3596298,-2.4936824,0.10057658,-0.8711195,-0.509411,-0.66149867,0.31753793,-1.0993962,-0.27821583,-0.5768845,-0.3330985,-0.2223177,-1.0619569,-0.07727363,-0.4560511,-0.14621556,-1.5134864,-0.50753164,-0.184719,-2.2087712,-0.28660703,0.014485449
space,-2.0677097,-0.31407085,0.87898654,-0.4539977,-1.0742724,-1.5649009,-0.60076433,-0.12588853,-3.109632,-1.0441693,-0.4465159,-1.0001804,-0.7480001,-0.5033257,-0.29757857,0.4399297,-0.092611164,0.26705363,-0.8088381,-0.05760649,0.04226931,-0.3823598,-0.44815275,-0.71734273,0.21067205,0.63558275,0.053744346,-0.35512322,0.6517199,-0.4831578,0.12466698,-0.44318253,0.5355547,0.5571056,0.14073482,-0.32753074,-0.8132472,-1.2720937,-1.291587,0.15475106,0.7955358,-1.1261729,0.7465868,-0.4586187,0.25705302,-0.6384436,0.506337,0.30325222,-0.05696541,0.5708378,-0.4388283,-1.066096,-1.6577222,-1.0960851,0.37916672,-0.50295925,0.26354942,-0.004830524,-0.08858979,-0.0763141,0.23144259,-0.7885134,-0.73920906,-1.2897891,-0.21557343,-0.22016664,-0.34534517,0.8053473,-0.42751378,-0.59422016,0.28323093,-0.64872247,-0.051777273,-1.4152305,0.17715497,0.4896525,-1.0947884,0.3456265,-0.18558219,0.31183723,-0.37846804,1.4365427,-0.19110614,-1.5237267,0.35014784,0.35460988,0.1990885,0.2295049,-0.19417204,1.0043535,-0.8454207,0.527683,-1.2101443,0.25812256,0.00933516,0.8769486,-0.78487074,-0.9605022,-0.034865826,-0.5371889,-0.38510066,0.25345162,-0.5561856,0.03795293,-1.8387134,-1.4015788,-0.126652,-1.8444165,0.39705235,-0.74742866,-0.48072076,-0.47599795,0.314299,-0.7282754,-0.082093105,-0.4208143,-0.018086374,-0.2554756,-0.9277631,-0.18373026,-0.46052897,-0.285984,-0.98952496,-0.31789577,-0.27139303,-1.8485446,-0.15932722,0.008745581
space,-2.4277766,-0.256036,0.85073936,-0.75469995,-1.2502553,-1.9298307,-0.22383952,-0.34161022,-3.4558206,-1.3647939,-0.31478688,-0.7174779,-1.0850348,-0.38997406,-0.38027108,0.6272205,0.14926623,0.05326575,-0.7663462,-0.07818273,0.030619089,-0.42104703,-0.269027,-1.0478092,0.36542666,0.92607856,-0.007873267,-0.2908638,0.8117486,-0.29479045,-0.04283855,-0.3520102,0.2323969,0.44935906,0.03761309,-0.4101472,-0.6010074,-1.906742,-1.3032197,-0.015743703,0.86763155,-1.1208625,0.6367284,-0.34904164,0.19033618,-0.83126366,0.4520399,-0.04925698,-0.39478093,0.56626606,-0.5227114,-0.9696564,-1.9372647,-1.4191664,0.32957968,-0.4568409,0.4335412,0.038429096,-0.56058717,-0.15436208,0.14969054,-0.8504621,-0.67824167,-1.1423227,0.016694017,-0.21023111,-0.66513777,0.837023,-0.09575299,-0.7126571,0.3390137,-0.6363916,-0.012465492,-1.527188,0.19545355,0.25706995,-1.5076954,0.29344052,-0.39822373,0.694867,-0.41192034,1.3109115,-0.25678673,-1.774098,0.35689822,0.5018293,0.21275091,0.1626859,-0.48594767,0.94296485,-0.89240277,0.66102755,-1.1308755,0.3535522,0.11797854,0.72349775,-0.7156401,-0.8338363,0.003359081,-0.59408087,-0.4398717,0.2682109,-0.34100857,-0.10296199,-2.1860497,-1.5780804,-0.46282762,-2.4736927,0.07998434,-0.34624556,-0.5403413,-0.65311813,0.32427233,-1.0890238,-0.25717616,-0.49906394,-0.2505841,-0.13691576,-1.0512034,0.06319557,-0.48025084,0.010123126,-1.199928,-0.35217577,-0.079204254,-1.8829834,-0.036825716,0.27331492
backspace,-1.3736378,-0.16343763,0.5469345,-0.6868007,-0.9600662,-1.4828634,0.13192526,-0.2276735,-2.4531615,-0.6350104,0.17625768,-0.46492815,-0.681439,-0.04030654,-0.03371399,0.70695853,0.21893014,-0.06558913,-0.13952062,0.13536666,0.12591001,0.0856936,-0.2877795,-0.6799042,0.19521686,0.6281477,0.17385693,-0.13236737,0.31222898,-0.1291105,-0.05178883,-0.28566766,0.4864529,0.2567952,0.3039019,-0.32226574,0.040607423,-1.2106199,-0.68497765,0.17089945,0.8184953,-0.74184525,0.4890637,-0.22062653,0.1057813,-0.24143347,0.08177787,0.05888787,-0.0632045,0.1509977,-0.5232759,-0.38683403,-1.0656477,-0.60789883,0.23163572,-0.45432934,0.36579776,0.41429186,-0.085237,-0.055538338,0.24260214,-0.5140949,-0.22683442,-0.5121678,-0.23958272,-0.13900691,-0.41719276,0.6599455,-0.06956473,-0.53982127,0.2150467,-0.21034527,0.20584889,-1.0193865,0.08870791,0.17869192,-1.0956281,0.32697955,-0.33233282,0.457064,-0.50631,1.4267449,-0.040065855,-1.187201,0.4076445,0.56753993,0.62195575,0.08157813,-0.43553185,0.6413913,-0.6469221,0.5734067,-0.56631106,0.7996502,-0.04041052,0.52938294,-0.7503864,-0.55228066,0.087048024,-0.60430247,-0.43842068,0.22958563,-0.21719763,-0.25560316,-1.5910264,-1.1520598,-0.17675138,-1.822232,-0.016686887,-0.058106653,-0.4396847,-0.27065185,0.17926282,-0.31097275,-0.25216675,-0.15740612,-0.16019478,-0.28546906,-0.53800964,-0.005209038,-0.26821375,-0.19194129,-0.8910432,-0.13925743,0.1481275,-0.95682895,-0.011733636,0.015916303
backspace,-1.6258426,-0.2768416,0.70265037,-0.5460483,-0.8340166,-1.651743,-0.46548897,-0.11056984,-3.171253,-0.8672471,-0.28083625,-0.875477,-0.754096,-0.15092129,-0.3568452,0.59685576,0.19402418,0.10804704,-0.42461175,-0.013742238,0.05948537,-0.18330002,-0.47790095,-0.6850536,0.3768485,0.5535245,0.1141175,0.022111375,0.5493162,-0.38363576,-0.052666306,-0.30077845,0.28012532,0.30435678,0.1840449,-0.29473513,-0.4603492,-1.3583106,-1.3246611,0.14111312,0.7323779,-1.0221742,0.52225846,-0.3767522,0.38380116,-0.7003038,0.49677825,0.2059677,-0.013854504,0.36968416,-0.4904644,-0.8334727,-1.4970033,-1.1432167,0.3664491,-0.48941872,0.41436923,0.06756508,-0.2887716,-0.22755726,0.21032846,-0.7209324,-0.5164819,-1.2944571,-0.024110004,-0.12048433,-0.5260912,0.79369676,-0.29914585,-0.6168355,0.11103182,-0.5747874,0.10920735,-0.97271913,0.006533504,0.25828412,-1.00676,0.37539628,-0.23967865,0.6680176,-0.43422687,1.2034028,0.029017746,-1.3691741,0.4567533,0.40521172,0.2506357,0.2863502,-0.3596757,0.8646354,-0.94898534,0.6477952,-1.1613475,0.5581261,0.17658526,0.6654526,-0.67310345,-0.67885804,0.07076181,-0.4742077,-0.45182672,0.2671044,-0.39637756,-0.1045917,-1.8471446,-1.2129823,-0.29510146,-1.7639337,0.2282055,-0.2995248,-0.5663533,-0.23419997,0.31218445,-0.9403127,-0.32207245,-0.38820884,-0.18763414,-0.12279877,-0.70783734,0.15122199,-0.36589032,-0.19340968,-1.0189935,-0.33277684,-0.039775044,-1.3552126,-0.1432782,0.13259599
backspace,-1.9996767,-0.24626273,0.7056238,-0.55744475,-1.058711,-1.8021625,-0.45721942,-0.13557538,-3.0917995,-0.79595506,-0.36857012,-0.92879933,-0.696013,-0.28027573,-0.32626936,0.585361,0.048946008,-0.005411565,-0.51782584,-0.089776665,0.19143239,-0.2772056,-0.46228307,-0.7451079,0.24571526,0.5799947,0.097631454,-0.24520397,0.52838296,-0.35437858,0.079567894,-0.3848518,0.63316584,0.3647601,0.19885902,-0.35027683,-0.5973818,-1.2731202,-1.1936034,0.1400413,0.76107776,-0.87584907,0.5395185,-0.38524485,0.33040726,-0.73222363,0.44697973,0.21454746,-0.05812934,0.4709812,-0.6755835,-0.79170895,-1.7137084,-1.1102524,0.35105324,-0.3733196,0.39318743,0.032066807,-0.2503194,-0.16121684,0.16378075,-0.739155,-0.67034864,-1.3066214,-0.14564128,-0.1572061,-0.41491288,0.811671,-0.33611616,-0.69238484,0.21781321,-0.62509626,-0.1995175,-1.3531338,0.05883217,0.45170477,-1.1133372,0.36123985,-0.3049954,0.43593562,-0.5232653,1.4344933,-0.035811305,-1.724249,0.44782877,0.37017846,0.25421706,0.27004415,-0.35958523,1.0298485,-0.77949977,0.5928807,-1.1718686,0.6191265,0.12293574,0.7637001,-0.7910084,-0.7752967,-0.033078037,-0.52157617,-0.36709228,0.355447,-0.46259975,-0.06341866,-2.1796858,-1.3158909,-0.2549448,-1.9487906,0.26519606,-0.5008034,-0.6614482,-0.33202383,0.29868934,-0.5799616,-0.21902089,-0.36923364,-0.11004788,-0.14321871,-0.92151105,0.12590568,-0.42943114,-0.29128987,-1.0066291,-0.35904562,-0.15301147,-1.6670177,-0.28581685,0.008169353
backspace,-1.9020815,-0.15317741,1.0080993,-0.54284453,-0.9642683,-1.5158627,-0.47492075,-0.11008642,-3.1164405,-1.1346216,-0.28443685,-0.7636293,-1.010391,-0.32795477,-0.3782339,0.49732566,-0.051952243,0.19503011,-0.69279903,0.011213034,-0.1232187,-0.3090946,-0.42014298,-0.9393877,0.41722727,0.81474394,0.030891836,-0.3490444,0.73705745,-0.36351228,-0.0235916,-0.16160667,0.102425575,0.3801896,0.16812266,-0.39638358,-0.6531373,-1.5684096,-1.3999252,0.06792882,0.933558,-1.2051371,0.7115675,-0.3958109,0.21531865,-0.60682106,0.56688654,0.009450555,-0.2170397,0.6059782,-0.38626796,-1.0969452,-1.2135893,-1.2886673,0.3227197,-0.411021,0.43673068,-0.014663592,-0.46777079,-0.0981265,0.28515017,-0.827,-0.5519548,-1.2056642,-0.06295912,-0.14474526,-0.720661,0.62372315,-0.29839146,-0.6324954,0.20102488,-0.51860285,-0.120957926,-1.329427,0.18542346,0.25932088,-1.0425128,0.36904675,-0.19882831,0.8446406,-0.3357343,1.1273928,-0.2824122,-1.3776047,0.31702352,0.33368492,-0.01132375,0.13971446,-0.4248894,0.84294426,-0.7853322,0.6804657,-1.0662532,0.27188563,0.31939414,0.6897572,-0.6847208,-0.71922314,0.09263371,-0.30890816,-0.40866867,0.2079657,-0.44601077,0.09128404,-1.4340894,-1.4600013,-0.28900743,-1.9311925,0.24603337,-0.5642723,-0.55054665,-0.43811622,0.4304051,-1.0491678,-0.05511713,-0.42695013,-0.28292426,-0.16392457,-0.8373829,-0.16876249,-0.41287833,-0.15312454,-1.1388868,-0.17045385,-0.23465246,-1.4902117,-0.21134992,0.18678293
backspace,-0.9017638,-0.2085104,0.2310469,-0.5340926,-0.7560863,-1.4805199,-0.1383813,-0.24363372,-2.398982,-0.6083788,0.047249734,-0.5978261,-0.5303856,0.08996296,-0.2563765,0.5624038,0.2169676,0.000548363,0.08757406,0.20482421,0.049043782,0.1525604,-0.32693166,-0.26420596,0.21125595,0.4548487,0.38912618,0.19671693,0.3053742,-0.23570217,0.04348468,-0.09868574,0.32941723,0.08049081,0.28276947,-0.07536356,-0.16703567,-1.1064894,-0.94363374,0.29576504,0.7351976,-0.7281119,0.32855636,-0.40986913,0.47838753,-0.20200855,0.22500023,0.22012845,0.2076473,0.08846861,-0.39105207,-0.6984962,-1.1870426,-0.82664245,0.4273216,-0.60413754,0.39800102,0.2803932,0.041461393,-0.21881956,0.3318935,-0.39472187,-0.29154843,-0.83751225,-0.21792433,-0.07207927,-0.16923657,0.7266359,-0.24222219,-0.34037724,0.082343966,-0.3931918,0.3151672,-0.8044323,-0.08736372,0.23326913,-1.0710112,0.30801326,-0.25821725,0.46926564,-0.5127136,1.653038,0.108811066,-1.1020977,0.24578264,0.51998043,0.7707341,0.1296503,-0.051995203,0.4725638,-0.6804688,0.48284158,-0.76936555,0.88135105,-0.10059491,0.95042884,-0.8273729,-0.6092698,0.053290904,-0.55275047,-0.5434251,0.3167383,-0.29361176,-0.29622814,-1.8964127,-0.77714896,-0.11032313,-1.2972306,0.074929595,0.00994495,-0.4647949,-0.11941761,-0.12036166,-0.4644035,-0.33763582,-0.32711765,-0.18621966,-0.12598906,-0.3992122,0.16612984,-0.15826403,-0.28056237,-0.9233971,-0.1945185,-0.003447913,-0.69746006,0.1749834,-0.0072034
backspace,-1.8772686,-0.16538352,1.061823,-0.68257904,-1.1406529,-1.6402043,-0.09208828,-0.31531933,-2.9880214,-1.0017976,-0.27110425,-0.5695356,-1.0167838,-0.2995872,-0.18577331,0.50288224,-0.00523814,0.0250206,-0.81335306,0.11860597,0.018393312,-0.29943436,-0.4091925,-0.79298246,0.30114046,0.9180231,-0.033822864,-0.31926972,0.6829853,-0.4082709,-0.055932835,-0.34788108,0.28898063,0.407345,0.26318726,-0.46240377,-0.6598295,-1.4495696,-1.1600889,0.077807784,0.84571874,-1.058677,0.6359087,-0.3485388,0.19469588,-0.56097686,0.36569434,-0.001007676,-0.21136224,0.4824434,-0.46861416,-0.9156965,-1.2147077,-1.1879092,0.27665305,-0.3237914,0.33317107,0.17184126,-0.3805941,-0.07187716,0.20544767,-0.79407525,-0.56890994,-0.87385136,-0.21511036,-0.19104135,-0.7701308,0.647504,-0.15964459,-0.605741,0.26583365,-0.47446656,0.074404985,-1.4174929,0.17274833,0.2845457,-1.050701,0.2515865,-0.29575697,0.585714,-0.23651728,1.5753157,-0.41648832,-1.4230225,0.34786633,0.49881023,0.23804758,0.062232062,-0.5109262,0.81879926,-0.8134934,0.7242328,-0.8691101,0.3909968,0.116524905,0.7659598,-0.77994305,-0.8225592,0.11267275,-0.45423657,-0.40761924,0.2730568,-0.36499044,-0.050640672,-1.3888493,-1.533469,-0.28630394,-1.9595634,0.1534864,-0.45431846,-0.39784774,-0.4394261,0.3483236,-0.7097287,-0.20323037,-0.2989832,-0.23747036,-0.28650433,-0.91992545,-0.17296174,-0.42200136,-0.18010244,-1.0504003,-0.152641,-0.09721453,-1.4564635,-0.033566326,0.07602793
backspace,-1.8456006,-0.052073598,0.48438606,-0.4009815,-1.2119699,-1.7155607,-0.4972076,-0.31372035,-2.7454863,-0.7965303,-0.12247223,-0.6899225,-0.6309778,-0.33729368,-0.47021866,0.6896368,0.13083416,0.06247872,-0.6203315,-0.15268293,0.006998241,-0.23325026,-0.22452807,-0.7365768,0.36505836,0.4168293,-0.007696599,-0.47040537,0.44384974,-0.21134157,0.26436362,-0.5052246,0.7774028,0.20499334,-0.081830986,-0.40743953,-0.2853944,-0.87070996,-1.1176695,0.0953632,0.49874538,-0.98603475,0.7756199,-0.31182805,0.24953921,-0.84673035,0.68997675,0.11729175,-0.25865626,0.44324452,-0.5932876,-0.85926247,-1.3249885,-1.3297694,0.3938926,-0.22736418,0.49818674,-0.25798798,-0.49488708,0.12430872,0.1258374,-0.52140707,-0.32681298,-1.2222764,0.004372001,-0.09859968,-0.19801107,0.61129135,-0.45736697,-0.58006907,0.2637247,-0.62174374,-0.3730694,-1.4639438,0.03282672,0.5647083,-1.2498784,0.30100465,-0.27686927,0.31895778,-0.6178211,1.1190767,-0.058826476,-1.6166201,0.5180663,0.23485762,0.44376457,0.22957115,-0.4826764,0.9526508,-0.66477334,0.37055865,-1.1496574,0.9171182,0.30829012,0.87985384,-0.58787674,-0.5826992,0.024057293,-0.39527935,-0.40851402,0.26745313,-0.43526843,-0.013397723,-2.2990212,-1.2259986,-0.17912781,-1.8812377,0.061452925,-0.5771313,-0.88545626,-0.35576966,0.22059667,-0.66332465,-0.03284303,-0.32715687,-0.056738317,-0.22937346,-0.90097845,0.05620443,-0.303205,-0.21153468,-1.0259959,-0.33239883,0.0410248,-1.5155988,-0.19819032,-0.076823115
backspace,-1.7518723,-0.1859726,0.6422632,-0.47077313,-0.9429779,-1.4901452,-0.6231668,-0.18056819,-3.0537434,-0.91738176,-0.2412825,-0.76661366,-0.7223628,-0.19285676,-0.39518473,0.39152554,0.10739556,0.0310888,-0.4974091,0.01760292,0.004014455,-0.3598855,-0.4023943,-0.7713027,0.44368947,0.6298249,0.100298256,-0.29709893,0.68177634,-0.24386822,-0.006477252,-0.26862353,0.23998767,0.36248863,0.002326767,-0.26061594,-0.5441236,-1.4033233,-1.1630574,0.115052566,0.6643753,-1.059515,0.5922614,-0.3891194,0.26161024,-0.74175465,0.69009,0.17387491,-0.018481016,0.596585,-0.41453457,-0.75960475,-1.5095162,-1.1760432,0.47443965,-0.50198567,0.5650627,-0.04311751,-0.35284957,-0.27862343,0.20297971,-0.68606246,-0.55405205,-1.225758,-0.008044414,-0.14416736,-0.5229503,0.6506169,-0.2721515,-0.5743853,0.24871136,-0.5283636,0.046800613,-1.162607,0.08694592,0.29632995,-1.2047329,0.4302494,-0.14312428,0.6001772,-0.36347142,0.8532173,-0.03538713,-1.2619966,0.28773746,0.2613817,0.12162362,0.3415852,-0.17558388,0.8684213,-0.6250557,0.61436224,-1.1335564,0.3122316,0.21109806,0.70937717,-0.5808691,-0.5793743,0.023319704,-0.2673505,-0.36060983,0.25162524,-0.41646096,0.11665286,-1.641435,-1.064411,-0.13181579,-1.8029242,0.22158515,-0.5120328,-0.55455923,-0.33173147,0.30462912,-0.8694173,-0.060385123,-0.37311366,-0.098725885,0.00342078,-0.83691347,0.043133885,-0.3502888,-0.043096,-1.0353297,-0.27815866,-0.15158853,-1.4369307,-0.1415339,0.2684185
backspace,-1.3640318,-0.2150959,0.6481489,-0.41983366,-0.7489835,-1.3369725,-0.52752364,-0.13258857,-2.7230012,-0.7441064,-0.32908306,-0.8764009,-0.38800293,-0.23177889,-0.42776346,0.4290734,0.046551473,0.14825511,-0.38588154,0.000112116,0.058800142,-0.2890467,-0.4805593,-0.422389,0.31854105,0.45241103,0.17060153,-0.13549525,0.47194165,-0.3662542,0.007498298,-0.178087,0.3752102,0.1994566,0.18248235,-0.22206832,-0.47664362,-1.0768654,-1.2091202,0.21226977,0.6687044,-0.9427576,0.46118596,-0.35861564,0.4112451,-0.5385988,0.5536965,0.36513895,0.1377245,0.44958556,-0.39536154,-0.74839044,-1.2529702,-1.0124022,0.46107417,-0.5315378,0.41311455,-0.092076465,-0.18426216,-0.19767512,0.27162576,-0.52782446,-0.46050215,-1.1986362,-0.020318061,-0.10652422,-0.33264863,0.65996706,-0.27862,-0.3999267,0.12256438,-0.5048225,0.009431675,-0.9020308,-0.000439823,0.330112,-1.033409,0.4426823,-0.18431705,0.4939621,-0.42334974,1.2533858,0.10456319,-1.195588,0.35301384,0.36880198,0.19229914,0.28611356,-0.21849443,0.636225,-0.74856293,0.7531315,-1.0245129,0.5561495,0.14996831,0.7932047,-0.6567397,-0.6949761,0.008165816,-0.36604333,-0.43814954,0.322591,-0.3099742,0.022063673,-1.7084478,-0.946866,-0.15878445,-1.3790358,0.34010637,-0.3103046,-0.55023825,-0.07852283,0.17021018,-0.7461347,-0.18117751,-0.37922898,-0.07170278,-0.055455916,-0.59325635,0.031035589,-0.33856857,-0.22934887,-0.92346585,-0.20149758,-0.056142613,-1.2481731,-0.12222697,0.049432993
backspace,-2.0760508,-0.10702023,0.8610863,-0.5629338,-1.5089238,-1.8207048,-0.08504465,-0.5227486,-3.2418008,-1.195134,-0.08408743,-0.4174381,-1.2544854,-0.34610224,-0.37454778,0.7246371,0.028697023,0.13654694,-0.5547106,0.00627932,-0.15317269,-0.21970606,-0.14497855,-1.3810655,0.24225655,1.0747526,0.07411945,-0.35560572,0.69287276,-0.09623806,-0.0833386,-0.23636776,0.14568019,0.3706096,0.16720067,-0.5857312,-0.3885756,-1.7927494,-1.2962437,0.048161864,0.88152486,-1.2151538,0.664734,-0.27322462,-0.06827256,-0.61302257,0.456407,-0.25938046,-0.5936669,0.526952,-0.41655827,-0.90048295,-1.1171166,-1.5797551,0.16045445,-0.3425215,0.44322968,0.15265936,-0.7536417,0.12269375,0.093429685,-0.8315017,-0.4797653,-0.81468296,-0.10924621,-0.15084165,-0.75901765,0.48956645,-0.20387633,-0.72956717,0.45101428,-0.4419163,-0.27700114,-1.8100041,0.2402671,0.2560085,-1.5152699,0.3881568,-0.4348651,0.79087704,-0.44223636,1.4096992,-0.715901,-1.8538465,0.18397352,0.45386487,0.31241846,-0.022499576,-0.71604824,0.8168902,-0.7673539,0.4747145,-0.85671353,0.40256903,0.30947527,0.66986513,-0.8248589,-0.70193124,0.20841497,-0.42268318,-0.52909863,0.049194723,-0.3168855,-0.066076845,-1.7666013,-1.8101484,-0.3351829,-2.4892623,-0.036949724,-0.40491882,-0.57534164,-0.659637,0.4059996,-1.1400167,-0.04442212,-0.4850491,-0.3504239,-0.32016343,-1.0651864,-0.34927315,-0.31238914,-0.02740676,-1.2408155,-0.13908184,-0.054554023,-1.435197,-0.102764696,0.27595007
backspace,-2.11326,-0.23478577,0.7555322,-0.56235963,-1.091405,-1.9544201,-0.73991495,-0.09908626,-3.492709,-1.0457325,-0.42395857,-1.1155936,-0.58892816,-0.42126828,-0.3781428,0.59421897,0.009657197,0.051874965,-0.718474,-0.0966928,0.15238513,-0.48018855,-0.5595188,-0.8556659,0.42727432,0.45047966,-0.031212986,-0.3592431,0.51411325,-0.42254907,0.0952339,-0.59135145,0.8574046,0.4235044,0.14230429,-0.4768744,-0.6911013,-1.1182195,-1.3947059,0.035170406,0.6413386,-0.9291487,0.76599824,-0.44301665,0.2538506,-0.9614055,0.59034294,0.26082113,-0.047395557,0.4418493,-0.72128505,-0.94081914,-1.8975071,-1.3115028,0.42522007,-0.43805724,0.38031608,-0.056561664,-0.30779108,-0.10193927,0.10612559,-0.78982854,-0.8911713,-1.7307178,-0.19664747,-0.15372774,-0.3981365,0.82593125,-0.53081715,-0.79061806,0.3243328,-0.79934126,-0.22325687,-1.4280227,0.04972279,0.6369862,-1.027857,0.35015166,-0.3009964,0.6080475,-0.60430527,1.1545177,0.09382337,-1.7758918,0.5874107,0.080141395,0.18700746,0.5955504,-0.4448222,1.1075633,-0.87462294,0.5685464,-1.4627717,0.7519915,0.15805641,0.7455384,-0.78004515,-0.8957697,-0.26202565,-0.5406084,-0.2760944,0.25138187,-0.5050197,0.007054985,-2.2366161,-1.3955724,-0.21950382,-1.9766312,0.3078227,-0.827479,-0.821636,-0.3982208,0.39862415,-0.5785068,-0.13174568,-0.45520487,-0.11525643,-0.059214443,-1.1011249,0.017628876,-0.4665354,-0.3777928,-1.0381471,-0.43351012,-0.16900876,-2.0378518,-0.3423068,-0.03884974
backspace,-2.7326539,-0.30451313,0.9336801,-0.8096019,-1.5056932,-2.3264341,-1.0957754,-0.089885436,-4.355229,-1.3385324,-0.5261526,-1.4520285,-0.9942805,-0.40459746,-0.6083352,0.65188825,0.09974835,-0.010627627,-0.91064197,-0.15590936,-0.030574642,-0.5399038,-0.6479305,-1.041264,0.5740598,0.5275872,-0.1446091,-0.33148214,0.77946657,-0.54636234,-0.05522901,-0.55583674,0.52783316,0.39542946,-0.05346403,-0.44969714,-0.852778,-1.8765686,-1.8423514,0.050642177,0.98426855,-1.2321919,0.8390369,-0.638833,0.39375144,-1.2672906,0.55210054,0.13595498,0.019231498,0.602469,-0.84733003,-1.2244357,-2.2227902,-1.6354257,0.5958268,-0.7655715,0.46925354,-0.21983694,-0.4487039,-0.35398373,0.14056262,-1.0634767,-0.90708596,-2.089462,-0.06651431,-0.20632517,-0.8541515,0.95673984,-0.41191256,-0.98568594,0.09000176,-0.9636585,-0.2576933,-1.6656047,-0.019802153,0.42770696,-1.4188272,0.32916766,-0.34791753,0.7316668,-0.63909715,1.0674231,0.041274667,-1.9943862,0.5776895,0.24435237,-0.100993335,0.4987006,-0.3947736,1.4496522,-1.0940876,0.8214462,-1.8981302,0.57160103,0.064125,0.7058048,-0.90717065,-0.9853409,-0.007029858,-0.6610368,-0.5018639,0.18177706,-0.69062847,-0.11535862,-2.987467,-1.7824938,-0.45440483,-2.561463,0.25232124,-0.7714243,-0.98886454,-0.6137136,0.6363444,-1.0568112,-0.21339695,-0.7114394,-0.21877861,0.03250684,-1.2524031,0.15417083,-0.58435255,-0.23543963,-1.5101316,-0.6456554,-0.2378785,-2.5962374,-0.5184846,0.032325104
backspace,-1.1661621,-0.057929754,0.61993563,-0.6840081,-0.83170056,-1.1877478,0.11119609,-0.000628628,-2.0515,-0.7897169,0.124821305,-0.3709709,-0.9988834,-0.23904395,-0.06786833,0.7167719,0.0752256,0.13618504,-0.29153496,0.18456775,-0.13804168,0.107415214,-0.33886495,-0.46011153,0.34197038,0.87166,0.12752463,-0.41126835,0.4200703,-0.12478818,-0.12101441,-0.039485037,0.3985864,0.20474872,0.48711112,-0.3563797,-0.32541817,-1.2397294,-0.8504591,0.11807908,1.0534068,-0.8359071,0.6162464,-0.4969616,0.19995606,-0.08548626,0.054321527,-0.12991977,-0.06793672,0.2686676,-0.5124228,-0.63612634,-0.64193106,-0.6724757,0.11875448,-0.2898582,0.31499237,0.36726928,-0.011382774,0.11460291,0.33978507,-0.47829598,-0.28253758,-0.39714324,-0.3882478,-0.1322144,-0.61938536,0.5150189,0.015052823,-0.44000503,0.17147931,-0.2766791,0.15742785,-1.0380918,0.13285224,0.044236727,-0.91845715,0.31378943,-0.48794076,0.46841848,-0.41510847,1.5388575,-0.11644095,-0.86911446,0.30092877,0.5125162,0.59516466,-0.16764057,-0.49114627,0.4906094,-0.4969609,0.66380304,-0.53851956,0.67222357,-0.088498056,0.43225452,-0.8809844,-0.58438224,0.19345476,-0.40750194,-0.41779533,0.25970453,-0.4054671,-0.16502813,-1.1670445,-1.2498716,-0.104049295,-1.6140422,0.04236397,-0.3031149,-0.4808597,-0.43194,-0.06143775,-0.13134804,-0.19761385,-0.15379265,-0.20714551,-0.3554556,-0.27280897,-0.16345018,-0.21855785,-0.23001549,-0.9577043,-0.05190015,-0.0907952,-0.79183304,0.10799846,0.14681524
backspace,-1.5634345,-0.26557547,1.0135765,-0.391662,-0.7872794,-1.2215644,-0.5671955,-0.075501464,-2.8704545,-0.8828721,-0.44011465,-0.88900095,-0.29505953,-0.42139798,-0.32116526,0.53262967,-0.11406859,0.04813409,-0.7446254,-0.04725185,0.11577305,-0.4830541,-0.6944437,-0.6055466,0.36204192,0.52377605,0.05580002,-0.39711845,0.39292702,-0.4658597,0.009382615,-0.45872617,0.6943475,0.40712824,0.38530594,-0.45959687,-0.7108252,-0.87522095,-1.3489467,0.061992437,0.6119648,-0.9563647,0.5672275,-0.28164092,0.18992166,-0.5276097,0.47467777,0.34160835,0.051105827,0.42564672,-0.51230586,-0.77883285,-1.2324227,-1.0071738,0.38417494,-0.5035263,0.36957783,-0.06863059,-0.22742274,-0.106044486,0.24050623,-0.5970033,-0.57813656,-1.4348543,-0.17045788,-0.13384698,-0.42323244,0.7041153,-0.32128075,-0.5720782,0.30397868,-0.6044497,0.040620938,-1.048147,0.039510265,0.3357172,-0.79987794,0.33846882,-0.2445254,0.75824225,-0.40919295,1.3958592,0.16625492,-1.2445731,0.5574002,0.32305816,0.13701174,0.4380082,-0.54932415,0.61754537,-0.8546618,0.7245656,-1.0049379,0.66962063,0.17453976,0.5628493,-0.7791615,-0.9380061,-0.21435072,-0.46262527,-0.46681863,0.28215277,-0.2799276,0.089185715,-1.3742874,-1.1815605,-0.0680266,-1.565684,0.41434416,-0.6182326,-0.548088,-0.18850544,0.25685087,-0.56183,-0.15472963,-0.36554286,-0.12442759,-0.23038027,-0.76660764,-0.1170887,-0.43033355,-0.41068873,-0.8875026,-0.22910172,-0.008338757,-1.5146112,-0.2867514,-0.08168268
backspace,-1.191846,-0.13501355,0.8217475,-0.4615638,-0.59228736,-1.0622144,-0.58178484,0.0079327,-2.3261664,-0.7076458,-0.19890073,-0.7392593,-0.24089307,-0.23648387,-0.20424682,0.2588505,-0.031306185,0.1802051,-0.640556,0.10377665,-0.038511336,-0.3098588,-0.4922276,-0.5008677,0.4611423,0.48452893,0.051960796,-0.26711527,0.43746066,-0.28719848,-0.11644518,-0.2462604,0.2826533,0.35453898,0.13689193,-0.2402194,-0.49060822,-0.82423127,-0.95170766,0.09881422,0.60110354,-0.7354098,0.44194254,-0.26166177,0.24994977,-0.5248835,0.5572126,0.37510967,0.16260839,0.5371939,-0.3291604,-0.66110945,-1.1191431,-0.81421775,0.5284528,-0.46388152,0.4377244,0.12860204,-0.044382006,-0.23176606,0.13534696,-0.42872792,-0.58487135,-1.117449,-0.20406383,-0.10127927,-0.3864016,0.56941473,-0.24800915,-0.4363869,0.10589758,-0.40741563,0.18574423,-0.9273929,0.13003439,0.31873867,-0.625706,0.35347673,0.02725771,0.7861761,-0.25015333,0.815172,0.14998959,-0.9203923,0.4089808,0.22596852,0.065120116,0.5492367,-0.1878648,0.6760464,-0.5521964,0.53088397,-0.9500234,0.52100265,0.17826001,0.6465987,-0.47423685,-0.7079935,-0.21908183,-0.17135349,-0.19979417,0.355856,-0.34650114,0.19683492,-1.0277017,-0.95901304,0.120262265,-1.2145056,0.4204581,-0.64714044,-0.39809614,-0.17624968,0.31494388,-0.41606277,-0.05701451,-0.23817328,0.025978655,-0.022790713,-0.5977125,-0.19644207,-0.22343059,-0.17643464,-0.7253599,-0.18432468,-0.14461416,-1.3147081,-0.12932838,0.11257307
backspace,-1.5876124,-0.19969484,0.6382874,-0.6332333,-0.9109708,-1.4845381,-0.66836685,-0.17278904,-2.8877914,-0.9899242,-0.18226609,-0.79051644,-0.69798076,-0.19851947,-0.41085047,0.33855778,0.070916496,0.061645836,-0.5473968,0.03016287,-0.013228595,-0.31710935,-0.45154268,-0.6558448,0.53093535,0.49815091,0.12783575,-0.24555618,0.5944711,-0.37323904,-0.009150062,-0.24297369,0.21481043,0.26161125,-0.036532134,-0.2157486,-0.5308667,-1.3337603,-1.2470272,0.069434255,0.78253835,-0.89349186,0.5347623,-0.44253474,0.41987804,-0.6762471,0.60913575,0.16917908,0.10448511,0.49992514,-0.40732378,-0.93337846,-1.4244268,-1.1468871,0.4897336,-0.609049,0.43767792,-0.1428503,-0.24375144,-0.23393819,0.19733082,-0.61318296,-0.5365317,-1.181485,-0.058427542,-0.13839063,-0.51857543,0.6569959,-0.27153787,-0.4492443,0.0993382,-0.55521107,0.07143324,-1.0569098,-0.001833156,0.27398664,-0.9861011,0.28373885,-0.088412315,0.64319295,-0.38127625,0.95272803,0.123220935,-1.1798962,0.4758651,0.31845957,0.07972616,0.46570158,-0.16062646,0.9534549,-0.6874131,0.7115289,-1.1977202,0.6657688,0.1069524,0.7766317,-0.5494026,-0.7017437,0.015207211,-0.34855062,-0.39335063,0.21535403,-0.3862363,0.07480824,-1.5862806,-1.1029737,-0.16041338,-1.5600315,0.30863848,-0.46399468,-0.53404194,-0.3149933,0.34667298,-0.76627356,-0.13617186,-0.42618892,-0.100583285,0.13754177,-0.7688869,0.052115276,-0.31273115,-0.0914228,-1.0842642,-0.2993701,-0.15029064,-1.4752107,-0.14689724,0.049782902
backspace,-1.0336113,-0.088731945,0.5059452,-0.34683475,-0.44067764,-1.2322824,-0.44459656,-0.18924204,-2.2084725,-0.8324323,-0.21160474,-0.5562569,-0.31549403,-0.2965651,-0.19999123,0.2408909,-0.065340966,0.29970005,-0.39889455,0.008410484,0.015804246,-0.38997173,-0.5030328,-0.31116918,0.3391527,0.2921709,0.22702208,-0.17139012,0.31872627,-0.18973197,0.059228517,-0.28304636,0.41868106,0.49421117,-0.004251855,-0.054447785,-0.37573177,-0.6626479,-0.6673053,0.055062324,0.6543386,-0.6727777,0.5201159,-0.29816929,0.40371317,-0.5260291,0.47370252,0.6838584,0.058617413,0.49498156,-0.32290864,-0.6085016,-1.2378651,-0.7949744,0.35291356,-0.33336,0.30353364,0.020705342,0.1456045,-0.21556124,0.19715409,-0.42463303,-0.80399305,-0.8843954,-0.1821509,-0.09497752,-0.20685798,0.508537,-0.5160505,-0.36628076,0.08435052,-0.35415733,0.15373644,-0.8174522,0.08397837,0.31829047,-0.7036713,0.34154674,0.031603456,0.6180696,-0.19174704,0.8359034,0.15880083,-1.0395104,0.48941654,0.08799979,0.32315797,0.37430927,-0.19235002,0.4089348,-0.5378698,0.38396177,-1.0182312,0.4689327,0.096687764,0.7806796,-0.36536044,-0.7801457,-0.14319372,-0.23806953,-0.12820081,0.3294155,-0.30866858,0.2911221,-0.9790698,-0.81553924,0.005017936,-1.1123514,0.44737738,-0.4980691,-0.29650772,-0.15851396,0.21752876,-0.39641738,-0.21477093,-0.1877377,-0.10629046,-0.1051763,-0.45004627,0.000276472,-0.33756673,-0.23195028,-0.57083315,-0.056740075,-0.046972938,-1.0885774,-0.02705951,-0.003071666
backspace,-1.2685895,-0.1856583,0.5299052,-0.650196,-0.6109356,-1.436495,-0.39622328,-0.076939516,-2.579337,-0.9901655,-0.09130907,-0.55999607,-0.4161946,-0.16681978,-0.22652936,0.31460077,0.10342489,0.009382337,-0.36717606,0.07738611,0.15014532,-0.17355734,-0.42771304,-0.57156646,0.5981357,0.3235649,0.19058928,-0.082794175,0.3825572,-0.19154383,-0.012100803,-0.27267158,0.2900641,0.19285432,0.083462775,-0.19577853,-0.38055336,-1.0670182,-1.0523564,0.020441115,0.7123286,-0.53781474,0.45281017,-0.26867887,0.40141538,-0.5217005,0.4726177,0.13632163,0.07510677,0.34349278,-0.36891085,-0.7054491,-1.5071499,-1.0196698,0.43401018,-0.54096025,0.3057034,0.10555825,-0.10048145,-0.15021381,0.06989385,-0.44396663,-0.5344259,-1.0316617,-0.19337368,-0.10520861,-0.28289026,0.688026,-0.2261663,-0.4330959,0.14907363,-0.49359715,0.251763,-0.8661021,-0.020721406,0.29491484,-0.6771627,0.22755471,-0.113156825,0.77208126,-0.4404656,0.89999604,0.3247231,-1.0292025,0.51102555,0.19311033,0.22934514,0.7660638,-0.17583458,0.85921437,-0.63508856,0.58652836,-0.9408406,1.0461768,0.03731188,0.6549142,-0.5477911,-0.74123937,-0.28936288,-0.3975352,-0.2385123,0.18066528,-0.2643061,0.000380337,-1.304753,-1.0277663,-0.03278771,-1.3545358,0.27411652,-0.41486573,-0.47596243,-0.2987894,0.2871388,-0.3631321,-0.17315613,-0.3173087,-0.07148504,0.18237308,-0.6609037,0.043056183,-0.19767682,-0.18718043,-0.86088914,-0.3188755,-0.107980646,-1.3542626,-0.14043573,-0.085935354
backspace,-1.6226755,-0.21090084,0.6243504,-0.51693404,-0.8431418,-1.5144258,-0.518508,-0.072437786,-2.955606,-0.80808336,-0.27751312,-0.8419686,-0.59417087,-0.18907323,-0.350024,0.42259082,0.13589343,0.0838308,-0.47739828,-0.02847913,0.082661755,-0.25115484,-0.46751657,-0.58096766,0.42265153,0.46753636,0.12598948,-0.11635023,0.5680613,-0.29495108,0.06748982,-0.26358753,0.35732418,0.29582816,0.052749645,-0.18933256,-0.4780723,-1.2126853,-1.1921432,0.10791293,0.8074311,-0.8825841,0.59757286,-0.33799374,0.3622513,-0.6475363,0.54654956,0.25232944,0.1044794,0.46092862,-0.47322226,-0.70815307,-1.4465436,-1.0048804,0.41486746,-0.48939773,0.43288735,-0.11334251,-0.16785458,-0.22961035,0.22252408,-0.6258131,-0.51642525,-1.186628,0.00141824,-0.15429811,-0.4657129,0.70154625,-0.24522161,-0.52520716,0.15926911,-0.5010337,-0.012815133,-0.9003031,-0.011631444,0.28492513,-0.9745204,0.35081124,-0.17370045,0.47997314,-0.3910563,0.9739925,0.09980324,-1.2288567,0.46019232,0.34085062,0.16539969,0.36676338,-0.20279287,0.97450686,-0.73854995,0.784268,-1.0637687,0.572233,0.1375064,0.74775434,-0.5613835,-0.63002753,0.014735436,-0.37248123,-0.38086805,0.24709567,-0.3428723,0.013738275,-1.8239777,-1.0338204,-0.20214593,-1.6301637,0.30126387,-0.28741887,-0.56497,-0.23234442,0.3592264,-0.68981385,-0.20646258,-0.3993949,-0.072037876,0.003859146,-0.74229014,0.1785518,-0.3404507,-0.1191022,-0.9409095,-0.3011489,-0.121784054,-1.4356552,-0.22785176,0.043565273
a,-2.5563898,-0.25781748,1.0782773,-0.69955593,-1.3374517,-2.1292987,-0.70897335,-0.13396814,-4.0344334,-1.3534648,-0.46500495,-1.1501611,-1.1348834,-0.50504136,-0.5127094,0.61627066,0.005623827,0.14926599,-0.9021431,-0.08143014,-0.12161371,-0.5447251,-0.48960605,-1.1135765,0.42576373,0.78172916,-0.07504058,-0.3080269,0.8712079,-0.5117695,0.01968839,-0.435813,0.4340601,0.4792101,0.1706489,-0.51724315,-0.7900152,-1.9378796,-1.7459908,-0.01922232,1.0301585,-1.4029866,1.0183061,-0.4944269,0.22523081,-0.92766404,0.48914355,-0.002473831,-0.17912522,0.5029338,-0.6171936,-1.2071707,-1.8495281,-1.5142642,0.3867721,-0.66155386,0.28782964,-0.23850246,-0.5051836,-0.082886964,0.29221287,-1.0713857,-0.83435756,-1.6952242,-0.14134178,-0.23851858,-0.8727639,0.7801014,-0.36287665,-0.83304703,0.28863138,-0.78470546,-0.19095097,-1.499304,0.115398355,0.40348846,-1.4066799,0.28226694,-0.42087826,0.8364609,-0.4636657,1.307429,-0.23645961,-1.885079,0.45691866,0.27358145,0.042210862,0.27550668,-0.4907769,1.1866565,-1.0836748,0.91597664,-1.5139011,0.3145929,0.14336626,0.7122129,-0.8404502,-0.92131084,0.07076885,-0.65666336,-0.4833171,0.100910425,-0.58668286,-0.05778864,-2.3522847,-1.7622913,-0.49665183,-2.5391521,0.18828498,-0.59319454,-0.7526038,-0.5395881,0.5303527,-1.120381,-0.19256587,-0.66442895,-0.28571162,-0.17687702,-1.1639099,-0.06265256,-0.5527002,-0.20830363,-1.4344742,-0.31579137,-0.277137,-2.2653306,-0.3644008,0.093810156
a,-2.0296953,-0.50739694,0.98113084,-0.54760695,-0.94756866,-1.8152343,-0.8312,-0.106885366,-4.0413327,-1.1592448,-0.7655171,-1.3497125,-0.49203482,-0.35675758,-0.56663513,0.51585263,-0.04620149,0.13430701,-0.67047524,-0.087960064,0.07376292,-0.6593171,-0.8152687,-0.6177064,0.39476553,0.49603623,0.110192865,-0.21155024,0.58532256,-0.71363646,0.018721778,-0.36087888,0.58753365,0.47639978,0.33732042,-0.43642694,-0.9511915,-1.5717516,-1.8629242,0.14574632,0.7582786,-1.4467225,0.6825634,-0.6180397,0.32311895,-0.94483864,0.6205296,0.39103532,0.15482442,0.4540623,-0.5762937,-1.0373719,-1.7332721,-1.4769241,0.41363665,-0.7517257,0.4180827,-0.035255954,-0.300535,-0.37386024,0.24993229,-0.93567884,-0.92100483,-1.9587673,-0.16390976,-0.18340196,-0.66157,0.8517159,-0.47730803,-0.80957305,0.083993234,-0.7675965,-0.037176594,-1.0029291,-0.053150862,0.2850112,-1.1407596,0.41256413,-0.25288275,0.7017014,-0.63038945,1.1982901,0.11482763,-1.4962656,0.46654767,0.20954427,-0.05436191,0.6236534,-0.4821509,0.8364406,-1.1523913,0.95968604,-1.4853032,0.4609741,0.17253606,0.68972117,-0.8148831,-0.78330755,0.029416,-0.5390418,-0.60637134,0.2447933,-0.51945627,0.016177684,-1.8370321,-1.4628594,-0.34751534,-1.8608025,0.44399175,-0.6028396,-0.68249476,-0.3058578,0.42587832,-1.0110694,-0.34211004,-0.6291286,-0.316125,-0.15471382,-1.0333774,-0.04484964,-0.61653274,-0.35531327,-1.3258932,-0.45563114,-0.23702678,-1.8830674,-0.3633423,-0.029916197
a,-2.0473373,-0.16373059,0.7318064,-0.65947884,-1.188953,-1.6680521,-0.1776097,-0.36935028,-3.1695046,-1.1915705,-0.08547786,-0.539003,-1.1227525,-0.40910238,-0.41969252,0.546452,0.18032545,0.07108155,-0.6117249,0.009715647,-0.07531209,-0.34125996,-0.17791285,-1.175338,0.29821324,0.9788692,0.13556646,-0.2686277,0.8312377,-0.11257264,-0.022660375,-0.23236352,0.062841386,0.2954948,0.050073523,-0.36101198,-0.4878999,-1.840167,-1.2651261,-0.0388377,0.8705615,-1.2524453,0.7480714,-0.36749035,0.09494394,-0.51372993,0.48551077,-0.18245876,-0.3997435,0.5277782,-0.37213385,-0.916879,-1.5004151,-1.3341824,0.24805729,-0.61509854,0.35100582,-0.09711833,-0.56223035,-0.044788953,0.20676549,-0.7600358,-0.509475,-0.860077,-0.04063694,-0.15548016,-0.7172685,0.6239008,-0.08107091,-0.62515223,0.50120705,-0.49803632,0.1727355,-1.3868756,0.13693175,0.274383,-1.4835284,0.16775814,-0.37137857,0.7231583,-0.26793534,1.2868454,-0.47127017,-1.5370009,0.21331897,0.5309108,0.34367287,0.10218358,-0.51038253,0.82873476,-0.7057035,0.66531074,-0.9833735,0.40297288,0.15045707,0.9167148,-0.6737367,-0.86096054,0.17298405,-0.43522525,-0.43852204,0.09659344,-0.32195997,-0.001118779,-1.7272973,-1.3334527,-0.35283852,-2.2865322,-0.049374282,-0.2899276,-0.49094844,-0.5317645,0.25045928,-1.1646237,-0.09946166,-0.47292307,-0.24430737,-0.101025194,-0.79944384,-0.105211265,-0.32289392,0.00120385,-1.1826739,-0.17236444,-0.032618217,-1.5119312,0.12559843,0.3297507
a,-1.0337507,-0.17155722,0.79261345,-0.06111057,-0.39558268,-0.9536615,-0.5349656,-0.1935091,-2.1503549,-0.8811271,-0.3286176,-0.5309712,-0.12322977,-0.29677168,-0.17112988,0.08336747,-0.22008711,0.17588648,-0.5108933,-0.077194065,0.2125836,-0.54529774,-0.46741852,-0.35270983,0.27282682,0.23107752,0.0601283,-0.2911222,0.3770209,-0.30168235,0.02980697,-0.40309548,0.50656694,0.51066047,0.1365656,-0.13555379,-0.44774598,-0.5903743,-0.6632476,0.06417781,0.44054866,-0.5299611,0.5178379,-0.15550843,0.34403285,-0.46633366,0.5761675,0.5595291,0.027996272,0.57103026,-0.25666475,-0.42651916,-1.379295,-0.7625541,0.34379023,-0.46717498,0.5551512,0.099326625,0.28701916,-0.13686314,0.13856247,-0.3967691,-0.7720596,-0.9181408,-0.2582386,-0.13697112,-0.25485504,0.523509,-0.3883677,-0.4617361,0.044884443,-0.3293808,-0.02360119,-0.84477234,0.05610186,0.1802519,-0.6902832,0.1968815,0.024804056,0.6694227,-0.2550674,1.0586743,0.15005048,-0.94308555,0.7516087,0.051170617,0.24896942,0.6011417,-0.26808888,0.60588354,-0.47958466,0.23460269,-0.7658569,0.45135605,0.11632621,0.6365915,-0.3843965,-0.668951,-0.20872667,-0.31848484,-0.15404585,0.26630637,-0.21142721,0.332987,-0.8199265,-1.0423042,0.042656183,-1.2635002,0.42855778,-0.6328426,-0.3231703,-0.2805703,0.42251432,-0.22645298,-0.123720035,-0.17584458,-0.08969945,-0.11127731,-0.5901129,-0.013652282,-0.3935514,-0.14073777,-0.51125705,-0.12092909,-0.14162505,-1.2547096,-0.14128597,-0.1329051
a,-2.2642076,-0.17025831,1.0969908,-0.647817,-1.2431322,-1.6954646,-0.059126828,-0.4174296,-3.0694265,-0.96615565,-0.2633135,-0.5640101,-1.116434,-0.38518858,-0.34085545,0.5727069,-0.019954896,0.108154655,-0.7602482,0.028419584,0.03160683,-0.38474196,-0.3776519,-1.1462555,0.16598493,1.0080703,-0.013248444,-0.40258986,0.81132436,-0.26796132,0.06495559,-0.33202767,0.418905,0.31980097,0.24128324,-0.5166892,-0.6977326,-1.7140372,-1.1882883,0.028066546,0.92209196,-1.1614844,0.7992514,-0.32841897,0.06700745,-0.5907415,0.36152983,-0.18071616,-0.36353767,0.5297959,-0.45650768,-0.81515276,-1.3716011,-1.2472403,0.24800137,-0.45478258,0.33998513,-0.06337081,-0.58840954,0.03734449,0.18795006,-0.81911874,-0.42528254,-0.80579925,-0.21313378,-0.19978547,-0.7438348,0.57006395,-0.16297857,-0.70961595,0.39330035,-0.4863795,-0.16493003,-1.4949938,0.18268442,0.2224676,-1.3473699,0.13012469,-0.4247354,0.691418,-0.2709013,1.7382059,-0.5300429,-1.5351123,0.30554536,0.56194216,0.3335039,0.030703038,-0.6497281,0.919428,-0.8164686,0.86728346,-0.88704026,0.19489321,0.14089438,0.78945804,-0.7874057,-0.7410278,0.22101587,-0.49227965,-0.46934876,0.1320099,-0.3726833,-0.016608983,-1.5021383,-1.6167027,-0.29365087,-2.3677993,0.11627093,-0.42626655,-0.5698257,-0.58927417,0.34715244,-0.6941247,-0.09855291,-0.35625598,-0.26744863,-0.31562608,-0.9904953,-0.20573494,-0.44660467,-0.14702502,-1.2217337,-0.20402333,-0.112821765,-1.5887027,-0.032034636,0.13443558
a,-1.5239059,-0.32635322,0.6395105,-0.4523107,-0.81122124,-1.5065967,-0.77900255,-0.17254779,-2.956255,-0.99502337,-0.28920642,-0.8483955,-0.63041323,-0.19134957,-0.401552,0.35345563,0.040662397,0.08435315,-0.46268433,0.006015003,0.102339104,-0.3003115,-0.51776177,-0.6584228,0.46427906,0.5277249,0.23724774,-0.16606194,0.47427028,-0.38349074,0.06417277,-0.3181898,0.3180308,0.31233287,0.13436472,-0.31780654,-0.5905184,-1.1366278,-1.3869964,0.016248345,0.6320215,-1.0596095,0.4883212,-0.47686636,0.37842304,-0.7512872,0.635404,0.3075357,0.015913874,0.3957091,-0.34092176,-0.88457596,-1.597622,-1.2264855,0.47765103,-0.55287135,0.46205306,0.037804186,-0.28700486,-0.29938456,0.16329482,-0.6421381,-0.5827491,-1.461196,-0.11827177,-0.12645057,-0.39000767,0.7535015,-0.4236404,-0.5029701,0.10816647,-0.624232,0.15341836,-1.0002456,-0.06705943,0.31499574,-0.86634123,0.30616686,-0.11960107,0.68805385,-0.5097152,1.109998,0.17919847,-1.055695,0.47095922,0.18531655,0.090431586,0.6496413,-0.19682772,0.8722078,-0.77858996,0.43731123,-1.2149522,0.62713325,0.18442406,0.67187726,-0.5981328,-0.6668637,-0.10739328,-0.39655715,-0.4167144,0.27365312,-0.46835342,0.032300413,-1.4328436,-1.3618109,-0.17282128,-1.4772179,0.3665937,-0.60259855,-0.571876,-0.33669606,0.26092365,-0.6646284,-0.20586391,-0.39327237,-0.112036854,0.045671858,-0.75310266,0.007615715,-0.30932295,-0.25232545,-1.0827805,-0.36084282,-0.25477627,-1.4558467,-0.12907812,0.10668847
a,-1.6956315,-0.14925256,0.7143161,-0.56945306,-1.0905435,-1.6560754,-0.80231047,-0.14140317,-3.1374037,-1.0180073,-0.2767128,-0.8834309,-0.7865687,-0.29459274,-0.190247,0.24269082,-7.06E-05,0.009791106,-0.75625765,0.0428088,0.06305341,-0.24124926,-0.5432082,-0.851251,0.5725864,0.49799508,0.007674992,-0.24566141,0.5496163,-0.31344986,-0.00071113,-0.5345165,0.4165039,0.3949275,0.00803371,-0.36014766,-0.65571177,-1.1092145,-1.3032573,0.012967676,0.66121966,-0.889597,0.5402033,-0.40198106,0.33676,-0.84602785,0.6579256,0.28409764,0.000671506,0.5075322,-0.5281957,-0.853613,-1.7558509,-1.343308,0.5096683,-0.46732727,0.42268443,0.004947066,-0.2730875,-0.32048336,0.06414825,-0.7471899,-0.761301,-1.4924979,-0.29615444,-0.13820186,-0.54877865,0.8246421,-0.37131196,-0.65596724,0.14634588,-0.6825269,0.05235277,-1.3936545,0.047479376,0.47675282,-0.7675736,0.25532314,-0.006536216,0.7509754,-0.405145,0.8392898,0.012496069,-1.264595,0.503505,0.050795138,0.029074788,0.7209513,-0.1645975,1.1295002,-0.7153975,0.39583308,-1.3579826,0.608077,0.17675604,0.68916065,-0.6774074,-0.96785796,-0.28354865,-0.35957944,-0.23461296,0.34278825,-0.6018344,0.09566975,-1.6466542,-1.3277891,-0.084605515,-1.6498168,0.26235372,-0.8432073,-0.6391683,-0.48678198,0.5028352,-0.49322885,-0.177283,-0.3685027,0.04152897,0.052606568,-1.0309955,0.008000967,-0.34462565,-0.25547954,-0.97467864,-0.41225982,-0.26771456,-1.8547785,-0.24973007,0.09441367
a,-1.783509,-0.3978121,0.99592113,-0.5721852,-0.92159,-1.5271719,-0.86086005,-0.04048147,-3.5231495,-1.2326277,-0.5094838,-1.1808344,-0.5574732,-0.3698508,-0.41166657,0.45751736,-0.099155135,0.078336656,-0.7706785,-0.018281102,-0.008437991,-0.4631883,-0.8862098,-0.7202196,0.56104255,0.49941012,0.097111866,-0.29071212,0.4289695,-0.56076807,-0.14831921,-0.50700957,0.5178145,0.37124828,0.22949497,-0.51786506,-0.8776986,-1.1975288,-1.8432589,0.06375478,0.7584983,-1.2290515,0.5072041,-0.5558365,0.33710542,-0.8104179,0.5710968,0.34891236,0.10317618,0.46508345,-0.6321453,-1.0705471,-1.6115136,-1.4169756,0.4712491,-0.7242737,0.4507463,-0.001998246,-0.34423563,-0.3973422,0.21877968,-0.82206607,-0.8036173,-1.9752959,-0.34588063,-0.09556448,-0.58478177,0.870121,-0.5190855,-0.7596673,0.06124504,-0.8128813,0.25181705,-1.2734414,-0.08851597,0.33572522,-0.76469266,0.37327012,-0.18446034,1.0589955,-0.60042346,1.1301391,0.2762104,-1.2586448,0.61287415,0.090911224,-0.075941026,0.79990876,-0.47238296,0.7568156,-0.99260604,0.6420572,-1.4529815,0.87156755,0.14752302,0.52898806,-0.88860035,-1.0359137,-0.3057809,-0.5143137,-0.5096916,0.2680999,-0.55705696,0.013768464,-1.2835842,-1.5035193,-0.23399496,-1.6980757,0.3938314,-0.87868917,-0.73421776,-0.3758159,0.34330556,-0.7608921,-0.2971198,-0.54955935,-0.15130255,-0.13404489,-0.8808744,-0.17026736,-0.5119501,-0.45996374,-1.1833146,-0.48056692,-0.19914165,-1.8316221,-0.35351425,0.03542438
a,-3.3560677,-0.43427935,1.7708787,-0.9164091,-2.0018659,-2.4472487,-1.5006056,-0.3072604,-4.8564496,-1.5593202,-1.321908,-2.1130266,-0.72395056,-0.7337776,-0.39901623,0.7065065,-0.53882396,-0.10705215,-1.6016234,-0.30727533,-0.08715133,-1.2626573,-1.2222157,-0.9991888,0.2786582,0.688092,-0.27788496,-0.8689631,0.5763683,-0.902492,0.52608794,-0.98562455,1.4079252,0.74800867,0.59216124,-1.0665044,-1.5228488,-1.975942,-2.4477367,0.008861601,0.84110963,-2.1859946,0.94999665,-0.96502024,0.27532092,-1.5737525,0.4811024,0.2681853,-0.18216282,0.6722609,-0.75956243,-1.5752165,-2.589438,-1.8926806,0.29551172,-0.6620924,0.090598404,-0.033031985,-0.584648,-0.050679892,0.13960668,-1.3062892,-1.3833313,-2.7299297,-0.42237929,-0.3121282,-1.2703545,1.099591,-0.77871037,-1.6114095,0.16205923,-1.2222669,-0.4862497,-2.287643,0.26861173,0.18849632,-1.5342524,-0.1313014,-0.52897656,0.7960985,-0.6869763,1.58203,-0.049003035,-2.5296438,0.6648238,0.11429,-0.057034314,0.7556678,-0.9602583,1.4971179,-1.4100057,0.5101124,-2.1017165,0.13455647,-0.11560786,0.56419057,-1.1970958,-1.657568,0.15963508,-0.87646043,-0.8066392,0.23783767,-1.2149642,0.22129127,-2.4801817,-2.7922132,-0.3067791,-3.0318809,0.3521963,-1.6523764,-1.4248393,-0.8283241,0.30957797,-0.641859,-0.34428912,-0.68743074,-0.50326335,-0.5718426,-1.4638714,-0.43726403,-0.6129579,-0.48638505,-1.9985472,-0.7662348,-0.48689383,-3.5131304,-0.6843549,-0.31045753
a,-2.2013776,-0.19505763,1.1429945,-0.61901164,-1.0958706,-1.7494783,-0.2853264,-0.15794525,-3.1413696,-0.9939921,-0.36699054,-0.8072272,-0.85214424,-0.42788655,-0.30421674,0.688893,0.00251844,0.07240477,-0.98477906,0.024200976,0.07778737,-0.43571395,-0.46035153,-0.76413584,0.31740922,0.79727376,-0.15515634,-0.5951809,0.7222039,-0.33250672,-0.047331788,-0.4932158,0.66581494,0.469573,0.2899607,-0.6312293,-0.7535884,-1.3823606,-1.2596133,0.1292211,0.7649744,-1.2487592,0.96138847,-0.5144712,0.13081539,-0.6827929,0.42735255,-0.16143835,-0.22936273,0.4770736,-0.5980206,-0.96574414,-1.4862717,-1.0639344,0.33564097,-0.42591193,0.3909946,0.19061828,-0.3927923,0.02020238,0.31683904,-0.7455431,-0.5358169,-1.2217877,-0.17071198,-0.20703632,-0.6674301,0.55092055,-0.27577055,-0.7572968,0.35860568,-0.57889587,0.040549994,-1.4266163,0.12342445,0.33172628,-1.2463278,0.27134997,-0.44222412,0.5660644,-0.34336975,1.6784563,-0.29560915,-1.4551804,0.3313337,0.32446393,0.26935908,0.107523195,-0.6276947,0.8000668,-0.7165543,0.70403284,-1.0790303,0.4921633,0.011613309,0.7552457,-0.8942463,-0.7915613,0.10986287,-0.41898012,-0.45808747,0.18908909,-0.48230338,-0.0391244,-1.6179793,-1.550808,-0.2467758,-2.2261214,0.0952785,-0.7831094,-0.5673709,-0.4181026,0.22303289,-0.64699084,-0.10024403,-0.3538635,-0.17272517,-0.4546924,-0.90167475,-0.21796712,-0.48214996,-0.20502117,-1.2404146,-0.22511843,-0.09883431,-1.7245259,-0.04342261,0.1046585
a,-1.5750333,-0.07669029,0.94955087,-0.5976097,-0.8522396,-1.313391,-0.49881607,-0.1375987,-2.5499425,-0.823209,-0.30551168,-0.8774467,-0.6507015,-0.27459964,-0.12335052,0.5480778,-0.107091375,0.17046136,-0.862164,0.022684455,0.010940932,-0.45191854,-0.6685751,-0.5652689,0.10547972,0.6675235,0.0696024,-0.5630825,0.4237507,-0.31121606,-0.05536624,-0.3654111,0.6719524,0.4948999,0.46327725,-0.4015612,-0.76141596,-1.0098914,-1.0300107,0.20914362,0.7698825,-1.1848646,0.6051013,-0.5108689,0.24206084,-0.5972365,0.5028258,0.2413539,0.020669758,0.42226937,-0.5483015,-1.0134095,-1.2080653,-0.8462939,0.33598533,-0.22846532,0.31546623,0.37378132,-0.0865438,-0.1400592,0.27267197,-0.612367,-0.7419922,-1.115035,-0.3201136,-0.15936598,-0.48760754,0.58557457,-0.35047543,-0.54758,0.21430558,-0.44288146,0.08762279,-1.2975061,0.18262884,0.47481486,-0.81803966,0.40720892,-0.23962745,0.3736523,-0.31205353,1.5301797,-0.2531928,-1.2978997,0.36747488,0.28116676,0.42039543,0.11643864,-0.51808655,0.6972208,-0.620895,0.38093692,-1.0763091,0.47133696,-0.000840992,0.7235285,-0.87029886,-0.9492728,0.020790914,-0.38734704,-0.4536837,0.40457526,-0.5105911,0.19811052,-1.3411783,-1.1749974,0.07783291,-1.6119953,0.2994899,-0.8737936,-0.5195683,-0.26196107,-0.03462778,-0.5643374,-0.15134218,-0.072493225,-0.09012002,-0.4164996,-0.67532873,-0.15400714,-0.32845616,-0.3593328,-1.0054046,-0.1715126,-0.22340217,-1.4853961,-0.094017714,0.022553578
a,-2.0351198,-0.2469618,0.8636501,-0.49447107,-1.0204695,-1.7157414,-0.8049304,-0.07272933,-3.5001574,-1.0847728,-0.3952131,-1.1441731,-0.8138,-0.30143946,-0.38731843,0.5404505,0.058177263,0.11897065,-0.7310845,-0.0151003,-0.03772203,-0.35715222,-0.6238379,-0.72916365,0.4422716,0.6101042,-0.041620582,-0.2816072,0.6098584,-0.4791925,-0.13163915,-0.42985773,0.39589357,0.43725526,0.13795133,-0.42251188,-0.6963599,-1.3687837,-1.5249164,0.16671076,0.70294917,-1.279517,0.64681804,-0.538468,0.30763778,-0.9543519,0.61149484,0.2900435,0.004887819,0.5453596,-0.6295217,-1.0055646,-1.6524302,-1.3185536,0.49601606,-0.513939,0.5515212,0.11778791,-0.3692756,-0.35633472,0.2095135,-0.86452794,-0.6696315,-1.7356244,-0.09649041,-0.13756356,-0.59370345,0.8167525,-0.44353592,-0.73228693,0.06162849,-0.71438617,0.08763406,-1.3372977,0.085493326,0.3868566,-1.096472,0.50707686,-0.17404938,0.6885917,-0.5464487,1.0670645,0.06485292,-1.438211,0.46915823,0.22000366,0.024086729,0.3960518,-0.40391928,0.8457187,-0.954824,0.5601548,-1.4821264,0.4632532,0.20947364,0.62609404,-0.82479745,-0.7907072,0.004240332,-0.4348327,-0.44446608,0.3564243,-0.5980152,-0.028214246,-1.9399492,-1.4684123,-0.25829864,-1.918947,0.27785486,-0.7150679,-0.6595219,-0.3560125,0.35284808,-0.99796355,-0.20375444,-0.43801525,-0.115187675,-0.27629873,-0.82459307,-0.01804342,-0.48660034,-0.27271003,-1.1788453,-0.4177103,-0.1902129,-1.8185115,-0.25774586,0.18984309
a,-1.7939131,-0.33797863,1.0191743,-0.3961862,-0.8400614,-1.3278447,-0.45375165,0.061387394,-2.9917085,-1.0429983,-0.4861656,-0.93221897,-0.6676385,-0.43535423,-0.17696685,0.5882274,-0.19042237,0.3586823,-0.7213324,0.034209847,-0.017673038,-0.34470987,-0.4059913,-0.55370057,0.04004696,0.7728983,0.040224224,-0.29089597,0.59807795,-0.6058841,-0.06519266,-0.22312182,0.25393695,0.5854455,0.5447565,-0.34151506,-0.83193713,-1.3120604,-1.243947,0.22198893,0.8346969,-1.1187589,0.56204563,-0.41121113,0.20205888,-0.56511366,0.35259652,0.1485605,-0.116778284,0.5951852,-0.46981794,-1.0191201,-1.3070903,-0.86520815,0.3512521,-0.3805583,0.42097682,0.44713092,-0.108190715,-0.17910841,0.25382555,-0.82251585,-0.7032045,-1.3012576,-0.27277577,-0.1831871,-0.49190664,0.7579624,-0.44027674,-0.6646112,0.07303139,-0.5051281,0.04755035,-1.3235291,0.24729748,0.28257135,-0.8228206,0.49852765,-0.071834296,0.47620022,-0.39198565,1.6137252,-0.1990785,-1.345375,0.37722588,0.43849283,0.0656762,0.021649681,-0.3583268,0.59800476,-0.8859017,0.396489,-1.0507333,0.21662363,0.16912447,0.5455559,-0.9308932,-0.8088361,0.08921617,-0.46275133,-0.4957752,0.46626964,-0.6103756,0.12936966,-1.3273283,-1.4562571,-0.039922446,-1.5339133,0.4936772,-0.83385,-0.30051786,-0.25906643,0.24224734,-0.6814734,-0.13972837,-0.24644318,-0.09679958,-0.47974724,-0.6788398,-0.26950803,-0.46875298,-0.4113015,-0.95952195,-0.10180846,-0.33744156,-1.442195,-0.16974406,0.042551935
a,-2.546031,-0.0864301,1.0059382,-0.8510245,-1.4363472,-2.1444645,-0.52630943,-0.39256075,-3.4844422,-1.4125854,-0.29728237,-0.80991983,-1.0673331,-0.4069054,-0.32441634,0.5609525,-0.09679844,-0.030237317,-1.0029606,-0.12883732,-0.014668688,-0.35468423,-0.41153193,-1.1197335,0.5261344,0.670542,-0.14613786,-0.57288736,0.71263945,-0.31878328,0.07634376,-0.52050906,0.4121879,0.34087646,-0.0995932,-0.4966517,-0.64815325,-1.6918668,-1.358148,0.015912026,0.7179354,-0.9740254,0.72837585,-0.43513978,0.2555017,-0.9087956,0.5258858,-0.17350626,-0.36097974,0.652987,-0.6684841,-1.1463331,-2.0632696,-1.6537118,0.4360185,-0.39103866,0.4115006,-0.047417536,-0.56964064,-0.012055591,0.048867047,-0.81932855,-0.74348205,-1.3751205,-0.13125545,-0.18105777,-0.6007883,0.7858449,-0.16806507,-0.8156049,0.29611677,-0.7964553,-0.34213662,-1.9639423,0.18765701,0.38707656,-1.4059411,0.2012631,-0.30549952,0.7120719,-0.4958292,1.3603296,-0.1751652,-1.9751408,0.4759434,0.23537053,0.08470021,0.44847262,-0.48137385,1.235385,-0.8146682,0.53065675,-1.3273134,0.7603309,0.08978492,0.7825198,-0.80098003,-1.0245688,-0.18941694,-0.5773905,-0.3735083,0.21884105,-0.42492458,-0.07286492,-2.4573326,-1.8089012,-0.33070987,-2.417175,0.095831364,-0.7706765,-0.75889814,-0.76251984,0.51641107,-0.71065015,-0.06033677,-0.57804286,-0.21662,-0.048240744,-1.3581192,-0.010167936,-0.44143665,-0.16008225,-1.268757,-0.42882055,-0.18223894,-2.2622864,-0.29486692,0.024553329
a,-2.4923902,-0.29191563,0.8350293,-0.5979765,-1.3282737,-2.1237967,-0.9245767,-0.15817764,-3.856297,-1.2343599,-0.39810804,-1.2564036,-0.8272595,-0.48323536,-0.3753906,0.5145039,0.09228598,-0.09645003,-1.0314586,-0.1869711,0.15916166,-0.481695,-0.6743646,-1.1353552,0.41166836,0.53026646,-0.13302821,-0.37039626,0.6041531,-0.44833648,0.13029715,-0.75378096,0.8732078,0.53368616,0.13610633,-0.49542534,-0.80582637,-1.2131063,-1.6034,-0.058561057,0.67795026,-1.2208098,0.85968894,-0.49867654,0.16425347,-1.097513,0.6060157,0.33114064,-0.19556835,0.45110524,-0.83390003,-0.96950555,-2.2265081,-1.5473882,0.40861136,-0.5594486,0.45220202,-0.10198064,-0.35402033,-0.1872185,0.044070527,-1.0093831,-0.90927285,-1.9793996,-0.2889861,-0.174028,-0.52242625,0.97556525,-0.4021294,-0.9301115,0.32465357,-0.88532716,-0.034700647,-1.6612574,0.023706183,0.6128493,-1.1007657,0.12561095,-0.25763997,0.75854045,-0.58038276,1.1416523,0.12541863,-1.725256,0.60061663,0.083037555,0.26328415,0.802891,-0.50722855,1.2274247,-1.0125743,0.41528738,-1.7076174,0.6018414,0.12797529,0.7829148,-0.80928075,-1.100052,-0.25949115,-0.64747745,-0.34541428,0.2742181,-0.6650527,0.00254336,-2.5419528,-1.7004529,-0.23136985,-2.2289214,0.24517503,-0.88568026,-0.8620572,-0.6637808,0.48471835,-0.607196,-0.20651881,-0.47552475,-0.06401035,-0.18432549,-1.218527,0.09043975,-0.49544185,-0.36649925,-1.1901131,-0.55622953,-0.29125816,-2.4495656,-0.33128315,0.006826192
a,-2.0796785,-0.3224359,0.9030042,-0.4761039,-1.0815282,-1.7945247,-0.84669286,-0.1188113,-3.6234143,-1.0620904,-0.45010749,-1.21435,-0.8300253,-0.3126859,-0.43797362,0.5885154,-0.012022702,0.011813432,-0.69598067,-0.034033,0.04479291,-0.3539787,-0.714388,-0.82454073,0.4111746,0.5486331,0.08302492,-0.25180718,0.48809022,-0.47424656,-0.10642705,-0.5250138,0.53918326,0.388306,0.18024372,-0.5413606,-0.77351916,-1.285588,-1.7133853,0.14465833,0.67802703,-1.322147,0.5902401,-0.56964356,0.3362737,-0.92610466,0.61526,0.3111303,-0.004959345,0.47377765,-0.68107015,-1.0171968,-1.7457694,-1.4409322,0.4825165,-0.5789231,0.51540494,0.13821846,-0.42347655,-0.35062695,0.16224575,-0.87220585,-0.73940724,-1.8918103,-0.22522926,-0.1203918,-0.57258654,0.87877923,-0.56660634,-0.7968544,0.111760214,-0.82376474,0.10603176,-1.5014867,0.002019763,0.45102626,-1.0458143,0.49263364,-0.26606575,0.77169955,-0.64260125,1.2879639,0.06323098,-1.5537782,0.54473096,0.14466582,0.048313633,0.53997904,-0.46516412,0.96227264,-1.0053303,0.52379227,-1.5051111,0.6142273,0.1775116,0.6306881,-0.89730847,-0.9121129,-0.09171643,-0.5081604,-0.45773268,0.30711535,-0.6644107,-0.107144564,-1.8460972,-1.6364075,-0.32975668,-2.0534706,0.31999046,-0.8381086,-0.7331496,-0.3906583,0.3007955,-0.88179165,-0.23533563,-0.47853574,-0.14976984,-0.2912089,-0.87657475,-0.018300684,-0.48242205,-0.41299647,-1.2245262,-0.48274916,-0.18660784,-1.9054797,-0.3216082,0.11381158
a,-0.41227826,-0.021135896,0.31044182,-0.5569862,-0.45735395,-1.0235711,0.04282942,-0.09717212,-1.6460391,-0.37407863,0.07553026,-0.48800087,-0.33600226,0.025121719,-0.07734985,0.39920583,0.16092253,0.2407482,-0.008057416,0.28808534,-0.06491561,0.22447115,-0.36927766,-0.104132906,0.20893979,0.40927356,0.40970594,0.13478136,0.20498458,-0.14572848,0.032353364,0.06084764,0.28344026,0.04042261,0.18803117,-0.04551147,-0.06564213,-0.74939734,-0.6088694,0.2347983,0.77615535,-0.5395721,0.19735618,-0.26850545,0.42355585,-0.05235192,0.20339951,0.43975353,0.28692883,0.21152861,-0.22824313,-0.53273404,-0.76995337,-0.49781343,0.41936877,-0.45266715,0.2994405,0.25548685,0.18464106,-0.1953754,0.33087224,-0.24357913,-0.24485692,-0.54511374,-0.1949127,-0.068889365,-0.1628508,0.50397027,-0.17345524,-0.18062371,-0.029361038,-0.18079793,0.3062989,-0.49446154,0.018016309,0.19525799,-0.60298944,0.42852518,-0.04133174,0.47916216,-0.3616841,1.1086776,0.088962674,-0.7840403,0.25138146,0.43209052,0.5466926,0.08538807,-0.000173002,0.29644227,-0.48679093,0.5550064,-0.49685407,0.8045176,0.049790025,0.8573619,-0.53872085,-0.5133008,-0.15778953,-0.27668715,-0.3623334,0.40329587,-0.16771637,-0.13513142,-1.0462499,-0.40351373,-0.01254198,-0.75402266,0.18730077,0.014783924,-0.28776395,0.005646795,-0.19084796,-0.2867537,-0.35147053,-0.22250673,-0.04654333,-0.1803232,-0.25084496,-0.017826231,-0.12824713,-0.2507171,-0.5193241,-0.016503245,0.04114128,-0.42386243,0.1092435,-0.006576419
