key,f1,f2,f3,f4,f5,f6,f7,f8,f9,f10,f11,f12,f13,f14,f15,f16,f17,f18,f19,f20,f21,f22,f23,f24,f25,f26,f27,f28,f29,f30,f31,f32,f33,f34,f35,f36,f37,f38,f39,f40,f41,f42,f43,f44,f45,f46,f47,f48,f49,f50,f51,f52,f53,f54,f55,f56,f57,f58,f59,f60,f61,f62,f63,f64,f65,f66,f67,f68,f69,f70,f71,f72,f73,f74,f75,f76,f77,f78,f79,f80,f81,f82,f83,f84,f85,f86,f87,f88,f89,f90,f91,f92,f93,f94,f95,f96,f97,f98,f99,f100,f101,f102,f103,f104,f105,f106,f107,f108,f109,f110,f111,f112,f113,f114,f115,f116,f117,f118,f119,f120,f121,f122,f123,f124,f125,f126,f127,f128
mouse_click,-1.9109056,-0.24602488,0.7439215,-0.44814315,-0.9304756,-1.6472659,-0.644246,-0.15144241,-3.0254421,-0.81602,-0.34892002,-0.87532955,-0.5681006,-0.24025378,-0.3354008,0.34974092,0.027123073,0.005623639,-0.6590322,-0.09777704,0.11086322,-0.41739535,-0.43100503,-0.749974,0.38574222,0.52223456,0.03895119,-0.28094074,0.6181701,-0.3420568,0.1499604,-0.41416365,0.52201676,0.44683704,0.07417418,-0.31155515,-0.53947115,-1.2020879,-1.143033,0.058051705,0.6468127,-0.908593,0.6676308,-0.32003212,0.29297373,-0.76651144,0.6293581,0.27712652,-0.023680061,0.52242994,-0.5195835,-0.6749347,-1.7026168,-1.0883943,0.45849743,-0.48652646,0.4641101,-0.13620673,-0.19714904,-0.19028778,0.11253901,-0.6478686,-0.6363729,-1.2908092,-0.08870876,-0.18574226,-0.4422189,0.7259409,-0.28394887,-0.6218226,0.26320937,-0.5956668,-0.1222219,-1.1125153,0.09028621,0.3587664,-1.0695031,0.24902406,-0.16882426,0.55258954,-0.39337116,1.0859466,0.08569875,-1.400704,0.48325747,0.250704,0.1405412,0.5357623,-0.19124128,1.172039,-0.73029566,0.61724377,-1.2105687,0.4292949,0.15870146,0.7659623,-0.49599844,-0.60381407,-0.076447554,-0.40118635,-0.31100255,0.22204259,-0.4333201,0.08363417,-1.9281546,-1.284343,-0.19175792,-1.8438491,0.3489679,-0.5260257,-0.56364834,-0.3267785,0.41963467,-0.50729024,-0.13612159,-0.4083728,-0.03582582,0.008055502,-0.99611926,0.14551687,-0.3623044,-0.11385139,-0.9989829,-0.29067957,-0.23917672,-1.7753177,-0.24583684,0.044301927
mouse_click,-1.0429969,-0.11120361,0.5162697,-0.38146448,-0.41654313,-1.1083386,-0.40067858,-0.07741799,-2.049075,-0.6032285,-0.12529275,-0.54184264,-0.3752154,-0.109232634,-0.22464469,0.24167404,0.017391648,0.26483583,-0.4228598,0.051250547,-0.032710567,-0.2160201,-0.37193632,-0.4209074,0.3568704,0.38109544,0.14960763,-0.11856039,0.3937419,-0.19815154,-0.004938103,-0.10693222,0.2766603,0.34353292,-0.04218677,-0.08181819,-0.34762108,-0.8683531,-0.7410294,0.04661107,0.73686236,-0.6191696,0.47805518,-0.22510287,0.37281084,-0.48441485,0.62627304,0.50994074,0.076334566,0.50710076,-0.23536952,-0.5638956,-1.1320852,-0.6962207,0.42895976,-0.33379403,0.46526057,0.09182604,0.06997149,-0.24911305,0.07454811,-0.33323866,-0.59188354,-0.8078151,-0.064621106,-0.1244944,-0.23857951,0.44887507,-0.24415344,-0.30284223,0.058052905,-0.3090523,0.08832514,-0.6271015,0.14512008,0.29349804,-0.65570855,0.41936207,0.012278587,0.5481706,-0.3370848,0.57316613,0.09586005,-0.84144515,0.5136968,0.20076856,0.20921864,0.51650107,-0.023837373,0.7503134,-0.49561873,0.49021193,-0.8643984,0.41900015,0.16264175,0.76144725,-0.1918701,-0.45045453,-0.14726175,-0.11234701,-0.16175523,0.32193,-0.30956197,0.16242635,-1.0295777,-0.6802903,0.052772254,-1.129592,0.45536342,-0.3655156,-0.25522545,-0.21250907,0.25892723,-0.4579144,-0.17161076,-0.2060653,0.042576894,0.046014894,-0.528548,0.11720588,-0.20025294,-0.06952793,-0.63595676,-0.16194782,-0.19885376,-1.0609319,-0.080493465,0.081237465
mouse_click,-1.7533798,-0.22351453,0.5645397,-0.4036867,-0.9063635,-1.5441762,-0.71343505,0.007450506,-3.1652117,-1.0660521,-0.44204476,-0.8533937,-0.5059478,-0.30927056,-0.20644948,0.50585866,0.07152931,0.13570295,-0.59531814,-0.106554955,-0.046484984,-0.29994208,-0.3497465,-0.6740724,0.44788635,0.5037954,-0.022865742,-0.3027652,0.5306391,-0.30780238,0.119168766,-0.33717477,0.3771868,0.6254615,-0.09596897,-0.27650684,-0.60232043,-1.1701183,-1.3112293,0.004897028,0.7518815,-0.88677716,0.7053482,-0.31799126,0.3016919,-0.81625557,0.63874215,0.12917972,-0.09064785,0.48586148,-0.4248821,-0.8204726,-1.7310481,-1.02326,0.46046776,-0.47507092,0.54354036,0.0728959,-0.2640921,-0.30505458,0.11312777,-0.63148516,-0.71657956,-1.5148162,-0.02173172,-0.18380202,-0.5344385,0.73768485,-0.37334135,-0.8094164,0.19133578,-0.6137499,-0.077381715,-1.0273386,0.09151286,0.24133003,-0.8827991,0.33995086,-0.16961554,0.71419275,-0.5103119,0.65891886,0.07482611,-1.2794409,0.69666374,0.102785856,0.06094113,0.47054183,-0.15710913,1.1047372,-0.7600709,0.4890594,-1.1571277,0.4667827,0.1779389,0.62678957,-0.44757903,-0.57715833,-0.1015126,-0.3428896,-0.4151383,0.2991702,-0.5529882,0.14296845,-1.8983158,-1.2697306,-0.13215017,-1.7031281,0.29122496,-0.684615,-0.52353305,-0.38897076,0.4091337,-0.62851125,-0.18775927,-0.4513137,-0.063269705,-0.07263024,-0.8463193,0.16288218,-0.2573145,-0.10815761,-0.9550032,-0.37786812,-0.22074392,-1.6260258,-0.39771456,0.07144976
mouse_click,-1.6655476,-0.15352896,0.5344871,-0.56596226,-0.90911293,-1.5446751,-0.26519758,-0.3384085,-2.5336277,-0.9527824,-0.10000643,-0.51862764,-0.9137188,-0.23550403,-0.3832653,0.30630982,0.15828846,0.11005649,-0.49019694,-0.009223759,-0.024536438,-0.20094424,-0.24956405,-0.76231945,0.33523265,0.71853054,0.1497098,-0.14149661,0.7187051,-0.19132383,0.050451238,-0.15754214,0.19610168,0.26445615,0.07516224,-0.2024047,-0.4118958,-1.4022448,-1.0511723,0.02022782,0.84657913,-0.98642904,0.5962423,-0.33072522,0.35219455,-0.47695586,0.4905623,0.13581917,-0.17535219,0.464892,-0.34687394,-0.7779683,-1.2998298,-1.1861529,0.297665,-0.49455813,0.3772104,-0.25835216,-0.31412604,-0.10503312,0.21804896,-0.6336007,-0.3775977,-0.7221203,-0.08807401,-0.15445948,-0.43977588,0.588431,-0.13775256,-0.32011184,0.30087718,-0.41616136,0.06521274,-1.0904775,0.0823583,0.29407823,-1.1534008,0.17663756,-0.22523645,0.5476299,-0.28855178,1.2517682,-0.16257593,-1.1554202,0.32445326,0.40994918,0.3559347,0.19782099,-0.19111882,0.80471593,-0.6105739,0.7553295,-0.9284469,0.48049355,0.13810539,0.9686396,-0.4815859,-0.6412666,0.07343787,-0.38617313,-0.40167668,0.16741627,-0.29012695,-0.027071595,-1.5810966,-1.1171063,-0.25133342,-1.7321333,0.12331274,-0.20828728,-0.4131553,-0.43250737,0.15871134,-0.7698083,-0.17171668,-0.37874874,-0.06461573,-0.025407052,-0.7250283,0.073160365,-0.3001548,0.035193503,-1.0490094,-0.10206765,-0.19573158,-1.2583004,0.075272575,0.16326705
mouse_click,-2.4342759,-0.34140262,0.9373608,-0.74380475,-1.1972046,-2.2128434,-0.26270723,-0.2947135,-3.6207666,-0.9141805,-0.6598387,-1.0643058,-0.8126884,-0.2480664,-0.27402908,0.6083838,-0.1132335,0.12039667,-0.58903116,-0.14127207,0.19355777,-0.43941104,-0.6118097,-0.82333875,0.13894051,0.7042666,0.06085685,-0.080029115,0.6347804,-0.58526003,0.20664099,-0.5289904,0.5793397,0.34680414,0.3496351,-0.44904304,-0.6886085,-1.6441543,-1.2871335,0.17461507,0.77873105,-1.0089428,0.59143376,-0.3969915,0.27207118,-0.79912794,0.27428517,0.19700432,-0.058754027,0.5067677,-0.67031246,-0.8886038,-1.7998972,-1.2556618,0.2300075,-0.32617834,0.2944014,0.11629884,-0.37279758,-0.008079466,-0.013728052,-0.9295821,-0.77466035,-1.4047489,-0.2668425,-0.193405,-0.62627244,0.86806697,-0.46197486,-0.8506676,0.21479635,-0.69280916,-0.37992686,-1.6386956,0.14086257,0.31669185,-1.2361883,0.30638325,-0.3608776,0.34063467,-0.4961457,1.7863953,-0.3784879,-2.0862994,0.46906906,0.39561406,0.20966968,0.14419349,-0.5793474,1.1993669,-1.0974712,0.92784166,-1.091754,0.49393842,0.10363904,0.8006576,-0.8552782,-0.99038476,0.022118242,-0.69448805,-0.46789864,0.36065292,-0.4353716,-0.21348444,-2.3067741,-1.676754,-0.39303583,-2.2923203,0.3175428,-0.4716266,-0.6286279,-0.43826452,0.35013264,-0.62745064,-0.27519494,-0.37875226,-0.26744238,-0.27457568,-1.088761,0.018515246,-0.53730327,-0.27521446,-1.1334883,-0.3539356,-0.112076946,-1.9092174,-0.34266543,-0.16776049
mouse_click,-1.5611115,-0.21619055,0.70832837,-0.2953152,-0.78861797,-1.4221398,-0.8503456,-0.07829823,-3.138687,-0.91508365,-0.47003493,-1.0897573,-0.22087735,-0.3830027,-0.5360419,0.49418288,-0.030183883,0.1574079,-0.57020336,-0.036277413,0.009369943,-0.5354629,-0.58645546,-0.5413209,0.4821419,0.3745663,0.04607123,-0.41285247,0.429667,-0.39117938,0.09991059,-0.39112413,0.8114522,0.29145515,0.18394743,-0.43354774,-0.6620957,-0.88170743,-1.4378786,0.12903666,0.48159617,-1.0873498,0.7514102,-0.41014498,0.26701435,-0.82354546,0.75838184,0.51209754,0.09141114,0.45325962,-0.5107227,-0.7702734,-1.4088479,-1.2620293,0.5209956,-0.55736303,0.48070806,-0.24845175,-0.29409543,-0.18614002,0.28591835,-0.58565193,-0.67959976,-1.7649552,-0.117959425,-0.1002012,-0.23333785,0.6983722,-0.49228665,-0.5646442,0.22083943,-0.6792683,-0.09762959,-0.96252024,-0.045668185,0.55513036,-1.0192976,0.53160006,-0.24524567,0.66154754,-0.6134965,0.9023644,0.29500756,-1.2325484,0.45138282,-0.01667443,0.11878808,0.6294435,-0.33376968,0.5734358,-0.80246544,0.6707381,-1.3007488,0.638858,0.26556784,0.68884146,-0.6963302,-0.6670992,-0.25654936,-0.37804544,-0.4084074,0.21365401,-0.39415583,0.13063456,-1.6973926,-1.0102984,-0.13000327,-1.5078182,0.34187442,-0.7458633,-0.8203619,-0.16194332,0.23941123,-0.6957609,-0.100366056,-0.4900861,-0.060508728,-0.07290253,-0.84520936,-0.08727869,-0.44525558,-0.40695536,-0.9797833,-0.3205421,-0.10766641,-1.5606501,-0.2669602,0.07910603
mouse_click,-1.4940193,-0.0721488,0.8553326,-0.7124196,-0.62308097,-1.5957682,-0.39365458,-0.10550026,-2.696231,-0.83202744,-0.4812481,-0.6371554,-0.18248053,-0.26531962,-0.047712766,0.4383051,-0.056921482,0.15260634,-0.56541044,-0.09359634,0.21174213,-0.44832134,-0.3711535,-0.5250516,0.4792086,0.40040928,-0.111602545,-0.3530684,0.44060868,-0.40055877,-0.009432232,-0.42607963,0.58695364,0.69170034,0.11610461,-0.33863443,-0.53262156,-0.83517164,-0.8752036,0.18224612,0.63130504,-0.4812113,0.4456203,-0.2858259,0.31571996,-0.75080156,0.58542883,0.18670931,-0.108887315,0.33479542,-0.34504855,-0.84768254,-1.5552891,-0.94596416,0.41577718,-0.18997884,0.22746205,0.2948427,-0.13708422,0.006746311,0.01954937,-0.50982666,-0.94944805,-1.2120025,-0.09534559,-0.15604578,-0.4101389,0.5250629,-0.37029827,-0.79667866,0.22580001,-0.54603285,-0.30614454,-1.0289774,0.28219318,0.26233345,-0.68021363,0.2803815,-0.08042094,0.5758658,-0.31052217,0.9600325,-0.039679468,-1.4701049,0.56275225,0.100038484,0.09729126,0.5188312,-0.40665603,0.9292081,-0.7320589,0.40284944,-1.0595574,0.6999097,0.06846002,0.5856337,-0.45956627,-0.77333045,-0.2484805,-0.29313064,-0.08594505,0.3199774,-0.29236522,0.19346404,-1.6089376,-1.2511867,0.023710042,-1.4535027,0.36148074,-0.7363359,-0.5224813,-0.3354033,0.47342163,-0.35916832,-0.18825312,-0.20008102,-0.18062988,-0.09140636,-1.003938,-0.09140246,-0.26086938,-0.11988201,-0.7022482,-0.2960022,-0.11118508,-1.5495462,-0.25346625,-0.073195845
mouse_click,-2.3616567,-0.3300555,0.6654941,-0.6782034,-1.2744286,-2.3803766,-0.9786051,-0.10357601,-4.352532,-1.0683122,-0.6778461,-1.5152997,-0.81632286,-0.33027488,-0.6689735,0.76604,0.19332105,0.10650933,-0.44126928,-0.08499691,0.005519822,-0.49113286,-0.5660191,-0.78455067,0.35026437,0.45449048,-0.015914142,-0.026274603,0.62179625,-0.5737302,-0.002539542,-0.3762225,0.5621827,0.287392,0.15593621,-0.41116118,-0.7908399,-1.7355422,-1.754437,0.19512881,0.82241106,-1.0909014,0.7238916,-0.5571704,0.47628978,-1.2072761,0.56247056,0.38723397,0.050082058,0.47348005,-0.75582224,-1.1933491,-2.1554627,-1.602314,0.5081855,-0.7757587,0.4149838,-0.05831544,-0.29095408,-0.46091667,0.10581125,-0.95584035,-1.0093677,-2.043594,-0.016697727,-0.16169275,-0.5219317,0.93386513,-0.49772832,-0.9902618,0.02363443,-0.9088842,-0.3381018,-1.423548,-0.027805418,0.51480186,-1.4999204,0.48925528,-0.40589902,0.5250113,-0.78190947,1.180821,-0.08641946,-2.243722,0.3960049,0.20860833,0.06612477,0.46466213,-0.25261968,1.1762648,-1.2509145,0.73525345,-1.8225064,0.45638785,0.08108547,0.83284235,-0.95110047,-0.7666044,-0.110293895,-0.66432744,-0.526409,0.20333058,-0.67719185,-0.15049067,-3.1770732,-1.5604888,-0.42016947,-2.1725123,0.2844428,-0.65747124,-0.943243,-0.2886711,0.4509678,-1.1242626,-0.34489632,-0.6994548,-0.25259903,0.09938831,-1.1933159,0.08624313,-0.53342855,-0.36207938,-1.3236315,-0.5677144,-0.1854518,-2.2527704,-0.40831548,0.04880263
mouse_click,-1.9634664,-0.12719396,0.7498933,-0.646492,-0.9518509,-1.6294621,-0.28179705,-0.20794755,-2.70185,-0.97000957,-0.1810224,-0.90006715,-0.44559625,-0.45113522,-0.32657257,0.42699665,0.05483926,-0.039320707,-0.8498985,0.042010248,-0.014566302,-0.45071566,-0.4339253,-0.66045594,0.28869623,0.49524897,0.034999758,-0.321506,0.459621,-0.14655994,-0.047876187,-0.49606264,0.5222883,0.30797067,0.000388352,-0.39132786,-0.42606252,-1.0762422,-1.0603373,0.005999982,0.6315614,-0.9003964,0.6194304,-0.2830522,0.23476347,-0.6574178,0.37394208,0.27843022,-0.1784125,0.49890307,-0.58758664,-0.7260129,-1.6106168,-1.0751541,0.4823362,-0.58447176,0.3039024,0.013030097,-0.1833908,-0.073014796,0.006909996,-0.42887956,-0.68798107,-1.0764995,-0.23820496,-0.1316818,-0.288281,0.6742618,-0.1376544,-0.5337932,0.26322627,-0.5785484,0.2784525,-1.4601134,0.09908229,0.45761704,-1.1679074,0.28694394,-0.2622787,0.6982979,-0.43606007,1.1155002,-0.018326014,-1.4110451,0.438147,0.28131863,0.35661262,0.51668334,-0.374349,0.8266467,-0.63391984,0.58783436,-1.0367552,0.80803466,-0.055559397,0.9604225,-0.6341426,-1.0219676,-0.30284306,-0.48992085,-0.22532064,0.34261686,-0.35830462,-0.07294065,-1.8390557,-1.3061081,-0.1216034,-1.928907,0.26154822,-0.555265,-0.5270413,-0.47036937,0.119028665,-0.34921685,-0.11842574,-0.35184607,-0.004590303,-0.26440752,-0.7762939,-0.09548583,-0.34120852,-0.20532006,-0.84900385,-0.29740447,-0.07132575,-1.8751638,-0.05677481,0.030591547
mouse_click,-1.9333193,-0.23990509,0.7782408,-0.69322836,-1.0951881,-2.134633,-0.90897596,-0.22886941,-3.7193875,-1.0718166,-0.6582289,-1.3355176,-0.47661152,-0.4268217,-0.49793255,0.6421224,0.031352222,0.21161267,-0.6544393,-0.16526195,0.1564059,-0.635842,-0.71682495,-0.6405388,0.29066503,0.29963422,0.06448537,-0.19223988,0.41814446,-0.48859042,0.2927507,-0.42243534,0.83480054,0.49132606,0.038465496,-0.39337987,-0.75437707,-1.2184612,-1.4746407,0.16232535,0.8491107,-1.1532408,0.7904098,-0.5989495,0.42063877,-1.0953779,0.7214655,0.60302836,-0.039524943,0.3393292,-0.5738922,-1.1953752,-1.9268476,-1.4580321,0.4095708,-0.514446,0.2846011,-0.06660305,-0.21855688,-0.2803115,0.13666591,-0.7725487,-1.0175586,-1.7405665,-0.11090025,-0.17500666,-0.49285477,0.7482191,-0.5751349,-0.86567676,0.121266775,-0.83247226,-0.41646135,-1.1966119,0.02557069,0.47197658,-1.1804138,0.35362715,-0.28398272,0.46794942,-0.5362653,1.0814155,-0.024479777,-1.9184939,0.4659486,0.1681135,0.16873741,0.50629544,-0.39666933,1.0182277,-1.075397,0.58568466,-1.6832606,0.38939118,0.028696358,0.93440706,-0.6688406,-0.9826377,-0.06632446,-0.50893337,-0.40546387,0.28717065,-0.59101367,0.045681477,-2.6910603,-1.3675609,-0.22827077,-1.8451104,0.34019366,-0.64890367,-0.8292735,-0.3074319,0.4377245,-0.8831986,-0.41487294,-0.5737269,-0.3539293,-0.004837895,-1.0253965,0.057322256,-0.4063086,-0.35494006,-1.1682916,-0.42695445,-0.10765054,-2.0557592,-0.29169047,-0.17117256
mouse_click,-1.0759184,-0.09875095,0.3622734,-0.72371864,-0.5483707,-1.326338,0.17984647,-0.21558222,-2.351028,-0.5017371,-0.098088145,-0.4019012,-0.7314149,-0.29745474,-0.11082729,0.3807218,0.025185453,0.14132589,-0.29216582,0.07634255,-0.036364384,0.15911773,-0.12473847,-0.4726729,0.020514786,0.7518071,0.3410287,-0.27352053,0.52369285,-0.07349865,0.12342626,0.04831128,0.23960257,0.184948,0.52206945,-0.12167545,-0.28138348,-1.255773,-0.6168737,0.2492715,0.55977213,-0.68912935,0.31266978,-0.33257845,0.37013477,-0.15885112,0.12529165,0.003932834,-0.07015708,0.45628458,-0.46569306,-0.4163035,-1.1844982,-0.714197,0.28061,-0.28853202,0.2156677,0.35466003,-0.079131216,-0.037890665,0.18762648,-0.44863743,-0.47875422,-0.51968145,-0.31523123,-0.13515086,-0.278288,0.62764245,0.10613238,-0.48443434,-0.019288776,-0.31376702,0.27978557,-1.1347837,0.117423825,0.17375246,-1.0160881,0.327355,-0.30164728,0.2750246,-0.25944445,1.5737772,-0.18415079,-1.1154124,0.057952344,0.57253313,0.70076454,-0.18204233,-0.09994085,0.4064325,-0.4202428,0.3891284,-0.4670545,0.8231611,-0.029406965,0.5088472,-0.9230345,-0.8295134,-0.12551413,-0.3270254,-0.36674866,0.45225257,-0.3389066,-0.11069131,-1.3366599,-0.9791227,-0.070433766,-1.5482949,0.27669716,-0.17441007,-0.3312941,-0.600701,-0.24451628,-0.21843074,-0.29962575,-0.09224045,0.020472229,-0.06055662,-0.2053133,0.017440967,-0.2074102,-0.20090011,-0.6241182,-0.09942758,-0.19737801,-0.8411614,0.094853744,0.19342458
mouse_click,-0.9349171,-0.16357085,-0.006623745,-1.009857,-0.8279977,-1.7745236,0.11964858,-0.34213516,-2.8783703,-0.6120203,0.17415997,-0.49686128,-0.9809286,0.103062786,-0.11609086,0.50811374,-0.022144431,0.09736398,-0.25468475,0.31955156,-0.39226347,0.6799477,-0.37834966,-0.4754376,0.007868737,0.6840211,0.3061732,-0.35082233,0.44865686,-0.039460525,0.44389442,-0.001817942,0.56270486,0.12796684,0.42935023,-0.07372877,-0.12206155,-1.6141771,-0.82324904,0.18399458,0.4353146,-1.1413711,0.32947502,-0.7145582,0.40525925,-0.15797076,0.019210875,0.06233892,0.02216047,0.10400239,-0.39845902,-0.58588743,-1.5787809,-1.012921,0.51835006,-0.56630594,0.22250748,0.70732886,-0.21690568,-0.002061468,0.23184979,-0.5032606,-0.4611953,-0.7538199,-0.5408103,-0.13790634,-0.44498843,0.7638556,0.05582729,-0.69971013,-0.2431847,-0.4237588,0.40732133,-1.1415256,-0.16713408,0.14885937,-1.4904354,0.23053017,-0.4613776,0.5450841,-0.58248425,1.3887753,-0.10023931,-1.0798765,0.11774498,0.32204896,1.1659102,-0.06896365,0.08695458,0.06451057,-0.42227507,0.120035976,-0.5733308,1.0718573,-0.24895412,0.5190282,-1.1416835,-0.9133803,-0.38074398,-0.39160478,-0.75559825,0.22508451,-0.5792628,-0.44706413,-1.4627318,-0.74804354,-0.11880916,-1.9709738,0.029690444,-0.124680266,-0.60807663,-0.88738847,-0.62962455,-0.096508846,-0.5755034,-0.12229833,-0.14715019,-0.1463054,-0.41641006,0.015150799,-0.12889983,-0.2572696,-0.95614505,-0.38970226,-0.045015827,-0.70383084,0.23324876,0.24660267
mouse_click,-1.1158577,-0.11999956,0.09332842,-1.1361688,-0.94832087,-1.8541738,0.31996942,-0.12247283,-2.9650874,-0.52115166,0.40181658,-0.28450304,-1.1042705,0.32498372,-0.07441347,0.65571606,-0.21836996,0.1397703,-0.41522765,0.5366776,-0.6614869,0.8257779,-0.59247947,-0.39281985,-0.266263,0.73757875,0.22505476,-0.37076673,0.51415616,-0.0919805,0.57496405,0.04331377,0.48988673,0.09315413,0.55099726,0.07634135,-0.1348438,-1.7588085,-0.8576144,0.13226895,0.37923127,-1.1371039,0.32558474,-0.9842476,0.33692858,-0.15992749,-0.12303567,0.17094395,-0.15636915,-0.20882943,-0.41539222,-0.72153753,-1.5611964,-0.82794124,0.84181166,-0.38821077,0.25077257,1.1504058,-0.23910147,0.02474508,0.15150304,-0.3698612,-0.53004944,-0.7488387,-0.5006594,-0.14493474,-0.65115494,0.6025633,0.013667831,-0.86077297,-0.21210307,-0.46845472,0.3196472,-1.2702886,-0.31000924,0.1751214,-1.7165377,0.1122151,-0.47653624,0.51040953,-0.5709574,1.3421855,-0.07170901,-1.2474114,0.08100653,0.23302412,1.3090627,-0.3025707,0.10247261,-0.004302293,-0.34667948,-0.023582429,-0.5788351,0.89951634,-0.35292244,0.626928,-1.2850775,-0.9278467,-0.36949715,-0.28794348,-0.7137468,0.001677692,-0.63241327,-0.74740076,-1.5658726,-0.78314024,-0.122558475,-2.1736963,-0.07917622,-0.4106192,-0.73215616,-1.0164403,-0.6303691,0.20825979,-0.3737296,0.21992405,-0.15599546,-0.151808,-0.5044532,-0.074772365,-0.085557625,-0.31270725,-0.9170621,-0.41337252,0.05949468,-0.75583255,0.22640489,0.30107474
mouse_click,-0.97298086,-0.06841144,-0.017444909,-0.96281135,-0.75668347,-1.7033461,0.116403304,-0.28590226,-3.0304742,-0.6602907,0.20033738,-0.40872747,-0.8747228,0.2823415,-0.0483376,0.47608146,-0.06444808,0.15130097,-0.2872784,0.39634493,-0.5471748,0.6235225,-0.6502919,-0.2503569,-0.07920793,0.58505887,0.23275428,-0.29175532,0.38738135,-0.24421965,0.5634063,-0.06419158,0.49570796,0.09121251,0.5101328,0.04533398,-0.16128606,-1.5945908,-0.95569354,0.17428958,0.316185,-1.2701967,0.42526126,-0.7514956,0.3522934,-0.15512347,0.02671367,0.15837479,0.067799196,0.037622303,-0.36741155,-0.5550735,-1.4779878,-0.9015128,0.5277797,-0.4441077,0.28467393,0.82097995,-0.107050896,0.080119506,0.20265315,-0.47053343,-0.4778824,-0.8006473,-0.5095536,-0.11602958,-0.5734816,0.8187604,0.008481702,-0.72754586,-0.09588286,-0.39718813,0.39192972,-1.0029961,-0.13230005,0.08769533,-1.4922124,0.06873244,-0.4742156,0.4996001,-0.6110358,1.2003176,0.010241866,-0.94130373,0.27206323,0.2303175,1.4003968,-0.06666309,0.06713025,-0.03268212,-0.5432998,0.3077401,-0.5211413,0.82367134,-0.31080496,0.6191074,-1.0621561,-0.81022763,-0.28642818,-0.38896036,-0.698765,0.10586211,-0.50777936,-0.43519995,-1.4180108,-0.73605543,-0.11630249,-1.8169239,0.14327076,-0.30854556,-0.65790135,-0.7406056,-0.6023959,0.041599415,-0.54874784,0.015537038,-0.21247154,-0.23576504,-0.41968074,0.05112735,-0.105889335,-0.31756753,-0.93297416,-0.4831084,0.026848838,-0.7284442,0.4215961,0.14675972
mouse_click,-0.9773272,-0.15103859,-0.033056438,-0.8675272,-0.7349385,-1.6802429,0.16085507,-0.27431923,-2.683285,-0.5759251,0.15634555,-0.58824074,-0.83907837,0.035035565,-0.057478897,0.51408654,-0.050111882,0.03308505,-0.1817692,0.37317044,-0.37405753,0.47206745,-0.3660568,-0.30985525,0.019165337,0.6307187,0.39401692,-0.3871827,0.4890728,-0.14197053,0.4689544,-0.028170288,0.5709122,0.1416192,0.46474138,-0.06727864,-0.09196231,-1.4147601,-0.57945776,0.22512384,0.4774357,-1.0116756,0.44166714,-0.6834052,0.25801522,-0.07411659,0.020987093,0.08833635,0.11939363,0.23705238,-0.40252757,-0.51414055,-1.4800123,-0.8063804,0.46879357,-0.4806855,0.2983212,0.72339684,-0.05818662,-0.028543632,0.21844494,-0.46932155,-0.47916192,-0.6679396,-0.63724506,-0.14610755,-0.35082763,0.837569,-0.04635726,-0.6692326,-0.13303514,-0.37374634,0.43071175,-1.1096531,-0.008687943,0.11961627,-1.3760171,0.23432854,-0.34860387,0.38808975,-0.5841459,1.3197762,-0.070589215,-1.0619868,0.07569452,0.39559105,1.1570952,-0.06853804,-0.017587215,0.1509994,-0.41353926,0.23208763,-0.60208637,1.0204134,-0.22266048,0.64669013,-1.0081614,-0.81726915,-0.31884265,-0.36483723,-0.5403982,0.34465837,-0.49641615,-0.32575992,-1.447633,-0.69277924,-0.10523254,-1.7104363,0.17932591,-0.123390004,-0.5104565,-0.6774764,-0.60523707,0.05307471,-0.48164052,-0.08763608,-0.17203927,-0.17163585,-0.36644277,0.051336475,-0.16658543,-0.2655479,-0.880332,-0.2843294,-0.08524527,-0.67720485,0.3050044,0.1876446
mouse_click,-0.9899312,-0.13058707,0.07743454,-0.93518776,-0.78224874,-1.7060876,0.13488582,-0.19757244,-2.9795368,-0.38623917,0.26644054,-0.2737835,-0.91809493,0.29709014,-0.06324502,0.2970818,-0.061157636,0.11215386,-0.4024076,0.4277328,-0.55693483,0.70724934,-0.51327425,-0.34935904,-0.14886063,0.72111535,0.12751494,-0.29537123,0.5024398,-0.122373864,0.44181862,-0.002442002,0.46861234,0.18917142,0.49330777,0.04942818,-0.21503979,-1.5901827,-1.0704616,0.23108932,0.20101711,-1.2894901,0.2227076,-0.8458636,0.54906595,-0.17294517,0.14473024,0.10802752,-0.064567864,-0.023277849,-0.3716722,-0.62342393,-1.4196082,-0.9257766,0.7952485,-0.4506286,0.29582483,0.9090826,-0.22034577,0.033328604,0.24538991,-0.42437667,-0.48576123,-0.8558582,-0.3527843,-0.12746319,-0.6091086,0.68094265,0.013358763,-0.668095,-0.23545344,-0.43825758,0.4508742,-1.0387383,-0.27694076,0.19312799,-1.5864973,0.11402786,-0.43446782,0.549815,-0.5595787,1.254242,0.06589043,-0.87790537,0.1724311,0.21746674,1.2021613,-0.13812207,0.14195956,-0.078256786,-0.43645224,-0.04599777,-0.53516126,0.9660469,-0.2768314,0.6426376,-1.2045454,-0.7991907,-0.26871717,-0.20628071,-0.75328,0.053258777,-0.5134568,-0.5037174,-1.2127497,-0.78406173,-0.053619027,-1.9587673,-0.043411702,-0.34672767,-0.6349164,-0.8370464,-0.601992,-0.11162412,-0.4459082,0.11488845,-0.05922556,-0.23770219,-0.4965798,-0.06367355,-0.025802478,-0.22092792,-0.9727525,-0.50704134,-0.03752649,-0.6455251,0.31441385,0.3656011
mouse_click,-1.0051762,-0.118395686,0.19133392,-0.92154336,-0.776504,-1.7256933,0.01494674,-0.16377032,-3.2714887,-0.49121785,0.16064218,-0.4809813,-0.8250229,0.27752057,-0.07189634,0.41213208,-0.195514,0.18857777,-0.42735976,0.431523,-0.62601864,0.6288353,-0.6495432,-0.34083614,-0.124224246,0.67954206,0.10555591,-0.23027816,0.4723397,-0.2759341,0.49248406,-0.057817757,0.43244478,0.20104691,0.57938087,0.001936957,-0.24941963,-1.6407441,-1.126035,0.19994219,0.1399599,-1.3985399,0.28696316,-0.82611793,0.438587,-0.2528337,0.114991486,0.10487273,0.051416263,0.022335798,-0.35186124,-0.703218,-1.4387645,-0.9622968,0.72007704,-0.4532536,0.2855544,0.95617235,-0.23249689,0.022885967,0.24915847,-0.5055844,-0.5128979,-1.0138074,-0.3713391,-0.12379154,-0.66708934,0.80725104,0.061259218,-0.7387612,-0.23968019,-0.47757185,0.4669364,-0.97198266,-0.18653762,0.13515042,-1.4979519,0.11024344,-0.3916435,0.57866305,-0.61810595,1.1376276,0.02064538,-0.9739251,0.1912245,0.22190112,1.165608,-0.12736735,0.06308304,-0.049438834,-0.64536023,0.0350008,-0.6554573,0.8822868,-0.17683953,0.584038,-1.1788231,-0.79770845,-0.25863317,-0.3382935,-0.8090506,0.04937607,-0.5359414,-0.4196593,-1.2836472,-0.867984,-0.06567392,-1.904275,-0.029809058,-0.36989045,-0.6852869,-0.66377306,-0.532415,-0.2543297,-0.49053437,0.14784908,-0.15744701,-0.30721456,-0.6090313,-0.098585434,-0.10584013,-0.3166332,-0.9126774,-0.51019484,0.046997458,-0.79020154,0.36273843,0.24589442
mouse_click,-1.0496025,-0.20668158,0.045657992,-1.0556504,-0.92033494,-1.7364104,0.24853376,-0.22242334,-2.8090522,-0.5439555,0.30592042,-0.4827131,-1.0321277,0.1789892,-0.064517684,0.6267802,-0.091029264,0.069491565,-0.29537868,0.41263872,-0.5313863,0.6815182,-0.48975113,-0.4549587,-0.11443734,0.7513101,0.27481085,-0.43199834,0.43006468,-0.05248505,0.4437507,-0.027918845,0.6106824,0.12986287,0.50675774,-0.10640104,-0.07876149,-1.6516788,-0.7747735,0.1755574,0.5054184,-1.1285179,0.32712284,-0.8232953,0.29114902,-0.11135027,-0.08756524,0.04427439,-0.041452795,0.038357764,-0.43741506,-0.59119946,-1.4841677,-0.8242186,0.5720767,-0.47347036,0.25387326,0.9446622,-0.20322585,0.04964901,0.22178043,-0.45384812,-0.45743018,-0.69968104,-0.61502266,-0.14602034,-0.5337368,0.74717253,-0.03389938,-0.8055651,-0.2261022,-0.40941834,0.4050746,-1.2352334,-0.185933,0.10569252,-1.5512886,0.26513702,-0.47623685,0.52676344,-0.6223216,1.3886049,-0.07823852,-1.1673814,0.15094125,0.298004,1.2332772,-0.18993142,-0.0619082,0.05082938,-0.37871778,0.09615299,-0.5756312,1.0741322,-0.30628133,0.49555576,-1.2215486,-0.89351696,-0.34357676,-0.37794805,-0.7224484,0.18451375,-0.625251,-0.53501844,-1.3868096,-0.81276864,-0.10934168,-2.074744,0.030435711,-0.2610057,-0.65485835,-0.89609325,-0.6535834,0.10457941,-0.47651654,0.043379247,-0.17116678,-0.23461467,-0.42045113,-0.05132842,-0.13131197,-0.2942814,-0.98171544,-0.36261868,-0.0337812,-0.6743773,0.18680723,0.28516415
mouse_click,-0.94032073,-0.07745728,0.21106337,-0.64726454,-0.62684196,-1.3852254,-0.002159912,-0.2937851,-2.340722,-0.56607604,0.19592455,-0.46852362,-0.6755138,0.15061161,-0.04081995,0.47132355,0.10731213,0.04108548,-0.044415742,0.31286865,-0.14559434,0.27207178,-0.39197713,-0.29861784,0.082012,0.5355514,0.35992718,-0.11550075,0.32350165,-0.2987339,0.23344746,-0.13500738,0.4010184,0.14723197,0.35396934,-0.08993141,-0.046188056,-1.2173097,-0.656829,0.2827751,0.563683,-0.9634902,0.4222075,-0.42063153,0.27645046,-0.034862235,0.07531464,0.21459854,0.16673191,0.16899855,-0.35418743,-0.55622005,-1.1761025,-0.60360706,0.3867389,-0.48476562,0.42193836,0.52938914,0.06900191,-0.11675969,0.3374474,-0.4434167,-0.2578758,-0.6994985,-0.45688438,-0.095468186,-0.27326185,0.7597718,-0.1893922,-0.51580334,0.04627628,-0.24597055,0.40568367,-0.9341822,0.112871125,0.12847535,-1.1170697,0.24631074,-0.21393374,0.4970616,-0.49842933,1.422029,-0.012982756,-0.92085433,0.23063254,0.40612102,0.99181604,0.002989821,-0.04282354,0.26670426,-0.51982784,0.42238936,-0.5026625,0.70036554,-0.108721346,0.7256351,-0.7671398,-0.5569959,-0.096313,-0.4473635,-0.4623073,0.3625442,-0.39462087,-0.2542458,-1.3463198,-0.6903003,-0.064959794,-1.4604204,0.10343763,-0.19180745,-0.40897632,-0.36280522,-0.29876202,-0.2128711,-0.36905706,-0.14388502,-0.17571917,-0.27752733,-0.30939397,0.07451415,-0.20983632,-0.29936537,-0.87081885,-0.15809584,-0.046382755,-0.6220726,0.29705793,0.052520722
mouse_click,-0.93604815,-0.22004458,-0.056360602,-1.0504658,-0.8062004,-1.8018843,0.2486442,-0.30248675,-2.6499271,-0.68634665,-0.000213385,-0.6076139,-0.9436721,-0.11487919,-0.001141414,0.57593095,-0.1262377,0.089325905,-0.09139973,0.27349427,-0.31172782,0.5518665,-0.20812473,-0.39156336,0.13040298,0.55524427,0.4414681,-0.582639,0.45277345,0.047443174,0.4268522,-0.058045954,0.62538975,0.1660291,0.43422112,-0.12551512,-0.093207896,-1.4637542,-0.4526763,0.21464348,0.6361682,-0.9267241,0.42631415,-0.70574033,0.26037046,-0.116271555,-0.08530015,0.053399086,0.1175472,0.33206403,-0.51863384,-0.5130925,-1.7337068,-0.94024235,0.33411378,-0.39437336,0.20469117,0.7237022,-0.09112707,-0.033628568,0.15030766,-0.5310723,-0.7486665,-0.5193911,-0.7421244,-0.18924746,-0.23957235,0.7172194,0.07669457,-0.74367785,-0.12878813,-0.35861218,0.32077798,-1.3076204,0.017603472,0.17678231,-1.357318,0.38043693,-0.38732842,0.2658108,-0.5603043,1.4650521,-0.2583286,-1.265288,0.039327636,0.41868463,1.0887893,-0.061562777,0.037886456,0.35581425,-0.35033485,0.24270779,-0.6767541,1.1171017,-0.17804325,0.5245447,-1.0373311,-0.9545709,-0.5026773,-0.32875663,-0.51293916,0.45651132,-0.5531657,-0.29061392,-1.5394746,-0.7029322,-0.10026464,-1.7529601,0.22588918,-0.052247994,-0.50302565,-0.84385145,-0.612461,0.20666489,-0.5301814,-0.24143723,-0.13267496,-0.15403691,-0.40879795,0.07701167,-0.24202739,-0.2306039,-0.83949786,-0.21422705,-0.14737552,-0.7056459,0.121061265,0.15306973
mouse_click,-0.71665514,-0.07083592,0.08604148,-0.65939057,-0.56348336,-1.4654578,0.12389736,-0.33671355,-2.5431905,-0.42871398,0.054538935,-0.48116308,-0.5598428,0.11558686,0.076182485,0.3518475,0.0807792,0.06743008,-0.117719576,0.27880788,-0.117207095,0.42052543,-0.25780186,-0.2779344,0.124500096,0.5689377,0.25980666,-0.15061477,0.41662675,-0.18043275,0.41400662,-0.12530464,0.45943603,0.19288912,0.3904417,-0.09367278,-0.03537126,-1.1347817,-0.53635824,0.31009862,0.23369142,-0.89499813,0.34776232,-0.37550825,0.34545094,-0.12474227,0.15469122,0.11470437,0.15185948,0.28624275,-0.30074203,-0.370848,-1.3382932,-0.7509825,0.38587916,-0.42059484,0.32175118,0.61557513,-0.020984545,-0.015875712,0.19770359,-0.44317073,-0.3659191,-0.6270122,-0.40864992,-0.10173876,-0.292177,0.8225571,0.002036789,-0.5603955,-0.042161874,-0.28095353,0.43222368,-0.8756487,0.10896084,0.13831352,-1.1031547,0.24179429,-0.23767176,0.38050908,-0.43305174,1.3114955,-0.113609105,-0.84525216,0.16154161,0.37352595,1.0178777,0.046072803,0.01314871,0.22625878,-0.4911404,0.25558722,-0.4376806,0.8944764,-0.09003627,0.662248,-0.84729654,-0.63484246,-0.2083994,-0.36863017,-0.50866616,0.4095562,-0.32965916,-0.18379992,-1.3468071,-0.6328701,-0.03151098,-1.3408189,0.16090474,-0.04515238,-0.37223178,-0.40729645,-0.31659815,-0.14487712,-0.47686577,-0.095330894,-0.12735167,-0.17889944,-0.37193313,0.095088914,-0.14403422,-0.25288156,-0.70307434,-0.2564407,-0.036005616,-0.5650718,0.36110574,0.13421988
mouse_click,-0.75975406,-0.13130176,0.045977384,-0.84193814,-0.75852925,-1.5168628,0.21658047,-0.38961276,-2.4017534,-0.6180017,0.15741001,-0.57325757,-0.70330274,0.13116384,-0.023335971,0.6310807,0.03356958,0.034758806,-0.04444751,0.3597939,-0.24315728,0.44135702,-0.40760028,-0.24449497,0.08088669,0.56041765,0.46316049,-0.21606201,0.36476427,-0.21725167,0.50602925,-0.08934021,0.53070074,0.0684226,0.41422513,-0.10295986,-0.016583145,-1.2756842,-0.5782553,0.21688262,0.57206494,-0.928516,0.47907138,-0.5275867,0.2293373,-0.006339595,-0.07863212,0.16226518,0.20709664,0.11886904,-0.31791657,-0.5087638,-1.3739166,-0.70905447,0.32531467,-0.5233066,0.28350338,0.5623958,0.018030211,-0.05190826,0.29849026,-0.44685918,-0.32635444,-0.5676229,-0.6344862,-0.12146733,-0.28381914,0.82979035,-0.06964506,-0.57582057,-6.10E-05,-0.31083506,0.42346713,-0.9610406,-0.003387615,0.035449952,-1.1694809,0.18731904,-0.32312033,0.40765116,-0.56714946,1.4701071,-0.11226189,-0.9741906,0.16673677,0.4538538,1.1557783,0.004481398,-0.06384151,0.18958886,-0.489925,0.46473527,-0.49014437,0.9455768,-0.24521482,0.7303691,-0.8708144,-0.7494611,-0.2756615,-0.53583485,-0.5878374,0.37659574,-0.41323584,-0.3556595,-1.5107551,-0.61382335,-0.13355249,-1.415747,0.118879616,0.001184402,-0.47521985,-0.4674256,-0.47027236,0.06703653,-0.5145282,-0.181144,-0.2393144,-0.22484052,-0.3782731,0.09652659,-0.21709289,-0.35442835,-0.8714453,-0.19694942,-0.015713193,-0.58214045,0.30856794,-0.021645308
mouse_click,-0.96845126,-0.13463864,0.1661317,-0.8476386,-0.6812217,-1.6595117,0.08172614,-0.15428028,-3.0565774,-0.5011444,0.1270555,-0.47842628,-0.88003796,0.10221664,-0.14315519,0.42002115,-0.15518172,0.14578709,-0.43395472,0.41375312,-0.45338494,0.6472436,-0.49565402,-0.39449817,-0.025530636,0.84363925,0.15326707,-0.19802633,0.46289915,-0.20383646,0.33877152,0.006968498,0.46515074,0.19246823,0.5390205,-0.0966883,-0.27158302,-1.5555485,-1.0713181,0.16711943,0.27120286,-1.2588812,0.21775478,-0.7565562,0.41336367,-0.19870338,0.17077509,-0.04123205,-0.004416585,0.07663742,-0.3995164,-0.6108542,-1.2709751,-0.99986726,0.5865474,-0.4987826,0.24397385,0.82360977,-0.29565397,-0.001721535,0.21428967,-0.44828296,-0.40167212,-0.90133375,-0.39922696,-0.11722068,-0.589564,0.83446556,0.21965574,-0.6514429,-0.24534683,-0.5038974,0.5232449,-0.8706133,-0.19305548,0.103594325,-1.3594692,0.11130285,-0.4649357,0.6441035,-0.46669886,1.2175182,0.06458135,-0.949487,0.17021304,0.36612236,1.0823979,-0.20003617,-0.088951215,-0.015738487,-0.5787622,0.018159896,-0.5764313,1.070967,-0.23359561,0.53587675,-1.2090788,-0.83174884,-0.09922133,-0.35534364,-0.7921227,0.08828691,-0.46715674,-0.37574056,-1.1951625,-0.92301136,-0.10064259,-1.9334646,-0.003881842,-0.229939,-0.6178547,-0.64871573,-0.55183357,-0.38435438,-0.574385,0.114971526,-0.122329205,-0.20314217,-0.42190382,-0.051976755,0.011533558,-0.19606811,-0.8592377,-0.5345906,0.1773108,-0.7122468,0.3572191,0.32949203
mouse_click,-1.0781733,-0.10450861,0.22929437,-0.8460344,-0.6652047,-1.675938,0.064662404,-0.2592745,-3.0531852,-0.54655194,-0.005521089,-0.5194,-0.83450764,0.0505725,-0.065708004,0.39826298,-0.18222584,0.12645315,-0.37225056,0.29787737,-0.36758727,0.62801397,-0.47356975,-0.3441212,0.005857885,0.72396123,0.20141995,-0.30640775,0.47585398,-0.26664382,0.37423256,-0.07793191,0.37955007,0.24109682,0.51449305,-0.08376624,-0.23790145,-1.4596697,-0.97526747,0.26181963,0.22999536,-1.2614982,0.2614128,-0.6741924,0.38775963,-0.2036669,0.1275746,-0.012062073,0.057890713,0.21499626,-0.46456498,-0.562204,-1.4392154,-0.9898898,0.46346307,-0.42833236,0.27282465,0.77734905,-0.24551603,-0.052949306,0.19309567,-0.53445077,-0.47380173,-0.8572801,-0.41852707,-0.12245301,-0.49683118,0.8287257,0.23625834,-0.6650338,-0.2229741,-0.45514625,0.50577927,-1.0608702,-0.08855194,0.08252053,-1.3377739,0.12897861,-0.37276444,0.45556358,-0.46842572,1.378597,-0.028610945,-1.038411,0.18611774,0.42096466,1.020466,-0.103145376,-0.019684136,0.1128076,-0.6068435,0.11542186,-0.5958151,1.0091047,-0.19394767,0.51286733,-1.1370342,-0.8145903,-0.14146267,-0.4092791,-0.7124858,0.23327228,-0.4486906,-0.32398054,-1.2850882,-1.0285081,-0.12981874,-1.7955761,0.091409326,-0.1964562,-0.52634907,-0.59097266,-0.47954887,-0.27867237,-0.5600508,0.050099805,-0.077733636,-0.28908992,-0.42866167,-0.024742408,-0.11381383,-0.24273136,-0.8172445,-0.46624756,0.10615123,-0.8288338,0.27276063,0.16144235
mouse_click,-0.9862013,-0.2098243,-0.001875341,-1.0845915,-0.8010189,-1.8206406,0.28965375,-0.30569947,-2.9359326,-0.5857456,0.09316948,-0.5076738,-0.94985235,0.09231159,0.03402225,0.4945012,-0.14389597,0.08653554,-0.26323682,0.38892496,-0.4494297,0.69367206,-0.3475337,-0.36856824,0.005543113,0.6332288,0.29142657,-0.5024128,0.45960408,-0.099359795,0.5585638,-0.13031876,0.55770886,0.18497956,0.47217336,-0.089602455,-0.11809191,-1.5617707,-0.6831511,0.22310276,0.39911965,-1.1521835,0.3633282,-0.76419634,0.32234776,-0.08210993,-0.067183316,0.047073066,0.04233679,0.19615203,-0.45377862,-0.5602315,-1.7150011,-0.94862646,0.4822261,-0.37712833,0.23387423,0.9541891,-0.1826219,0.020985652,0.13548286,-0.52981156,-0.7078209,-0.648317,-0.67197907,-0.17274381,-0.40406704,0.7670658,0.08924924,-0.80641747,-0.16536422,-0.39765596,0.4344356,-1.2672764,-0.078986764,0.16843373,-1.4696126,0.22819665,-0.4023175,0.3494054,-0.5402413,1.4413726,-0.20911193,-1.1574004,0.09616996,0.3205021,1.2151194,-0.08430767,0.019782186,0.1886201,-0.41847298,0.11015192,-0.5815653,1.0714028,-0.27790022,0.5613526,-1.1285994,-0.93153936,-0.45719057,-0.31757337,-0.62708753,0.31090668,-0.5571273,-0.42865393,-1.3515304,-0.7596218,-0.071430564,-1.8619517,0.16463414,-0.17619355,-0.5248258,-0.8882979,-0.6068535,0.12130252,-0.5501173,-0.06290722,-0.13427651,-0.22342321,-0.51289356,0.032722972,-0.1724041,-0.25678176,-0.89376295,-0.36112475,-0.09360518,-0.6963055,0.20434357,0.16280866
mouse_click,-1.0346385,-0.23219591,-0.07225272,-1.0868049,-0.90726507,-1.9482266,0.2985772,-0.3714117,-2.952823,-0.56312066,0.09737852,-0.7033024,-0.8603896,0.042337134,-0.029459648,0.6009979,-0.068283655,0.02852869,-0.18952157,0.36975414,-0.42008847,0.6351298,-0.2696843,-0.40430316,0.05187002,0.61562395,0.35583347,-0.37946087,0.49709988,-0.105631515,0.6031236,-0.12910181,0.61439747,0.14291278,0.40435532,-0.118277416,-0.055883646,-1.6030184,-0.62972844,0.22556257,0.483405,-1.0226648,0.38798946,-0.7228448,0.35259554,-0.06635097,-0.1338157,0.034535795,0.14011541,0.23158841,-0.43815905,-0.6155923,-1.8574886,-0.9668043,0.48979878,-0.54258525,0.18668845,0.814177,-0.12632155,0.01940738,0.20953733,-0.5623023,-0.68751884,-0.70261794,-0.6760617,-0.17513703,-0.34928182,0.8861923,0.03601654,-0.7582122,-0.14874892,-0.44185817,0.42105472,-1.293996,-0.055273145,0.18575397,-1.5214695,0.23688006,-0.38667533,0.3634773,-0.6557147,1.507328,-0.26222834,-1.3328327,0.04561007,0.38006186,1.1851349,-0.07498592,-0.007549197,0.2613864,-0.4934353,0.16379875,-0.65874213,1.198276,-0.27812123,0.6969818,-1.1243213,-0.96836793,-0.5063982,-0.4833091,-0.6464202,0.3430624,-0.5312091,-0.45883343,-1.7248058,-0.69987136,-0.1291886,-1.8750879,0.111678034,-0.000935318,-0.56281507,-0.7782285,-0.5898375,0.020833567,-0.59553266,-0.18864548,-0.19814804,-0.17789266,-0.64635336,0.059849456,-0.24132068,-0.3072536,-0.9412734,-0.33540148,-0.12785095,-0.8103211,0.20946224,0.08464211
mouse_click,-0.7273427,-0.13782346,-0.10153437,-0.863659,-0.7866781,-1.5241293,0.15377586,-0.2806873,-2.4372776,-0.53645617,0.30348238,-0.52408,-0.72331506,0.2246738,-0.0993096,0.52610826,0.07486733,0.020236373,-0.09517136,0.43846062,-0.42912388,0.50362027,-0.4661737,-0.17780021,0.02267477,0.590692,0.37881225,-0.27496916,0.35177016,-0.12052457,0.4815881,0.016222984,0.6524408,0.06440285,0.44762072,-0.036855668,-0.0867126,-1.370994,-0.64662266,0.20607911,0.6476493,-0.9733704,0.44295537,-0.65490115,0.28164127,-0.000728384,-0.04848802,0.14821136,0.22178484,0.059264928,-0.2995273,-0.48821115,-1.2750626,-0.69231534,0.49983156,-0.57123953,0.31091332,0.6405005,0.031582043,-0.030453894,0.37980467,-0.37775195,-0.31954873,-0.6249609,-0.63752913,-0.14064714,-0.35310453,0.80570817,-0.09566476,-0.56892645,-0.0878651,-0.29997385,0.41774476,-0.8551917,-0.12354225,0.114799984,-1.2774385,0.21692502,-0.3958809,0.46122038,-0.6481781,1.2256913,0.036815792,-0.8273067,0.12910277,0.32236746,1.2528819,-0.05782135,0.04054819,0.012652636,-0.3727984,0.3674083,-0.49664855,0.98188734,-0.2975881,0.72968066,-0.95615906,-0.6967198,-0.3182872,-0.42438745,-0.64857787,0.23112777,-0.48215023,-0.36943242,-1.3986305,-0.4754191,-0.049811333,-1.5482229,0.06680915,-0.11902557,-0.57710314,-0.57120526,-0.6190431,0.12366111,-0.4784788,-0.1076248,-0.1944929,-0.18043375,-0.40382364,0.06943028,-0.14453639,-0.30511796,-0.9399992,-0.2718014,-0.08324764,-0.4785119,0.3197958,0.10306099
mouse_click,-0.93001235,-0.051711112,0.18368958,-0.73640645,-0.5160325,-1.3547589,0.042285003,-0.3097232,-2.322058,-0.4659769,-0.003602058,-0.1979918,-0.79468274,-0.094049096,-0.09853441,0.16233158,0.2454487,0.11586133,-0.15670584,0.12570968,-0.07078135,0.26313445,-0.041757714,-0.48002723,0.12435129,0.82329595,0.18278514,-0.28881606,0.50076944,0.09434898,0.02121736,0.003517121,0.3209852,0.21904184,0.4118637,-0.15424366,-0.26190424,-1.3537692,-0.66819876,0.28570002,0.46104592,-0.84655684,0.28706154,-0.33030638,0.50516284,-0.25060266,0.19484574,0.021979213,-0.08592239,0.41458613,-0.45688152,-0.3166804,-1.2267284,-0.8188138,0.30406928,-0.37501848,0.25956902,0.24695916,-0.08372852,-0.08044466,0.22160025,-0.48737597,-0.5156526,-0.48918217,-0.35419425,-0.12044403,-0.2570748,0.58573097,0.14006042,-0.41781136,0.031769343,-0.25285435,0.3907227,-1.0016071,0.06587167,0.2511808,-1.0667214,0.35508892,-0.408497,0.40635106,-0.22503367,1.446244,-0.14581034,-0.7908582,0.07195203,0.4228292,0.8532915,-0.10353203,0.08628392,0.2502739,-0.30030587,0.2845494,-0.4592474,0.7440733,-0.14239186,0.53310764,-0.95047414,-0.64965373,-0.13597322,-0.29631674,-0.43681145,0.4113074,-0.33234674,-0.06343603,-1.1616403,-0.77302235,0.04321143,-1.5656242,0.018907487,-0.25352097,-0.4036127,-0.6363727,-0.3304513,-0.28675914,-0.37753057,-0.15394634,0.11263849,-0.13042764,-0.26907855,0.1078443,-0.11331697,-0.11236396,-0.83451974,-0.22064173,-0.24641621,-0.625648,0.22572696,0.4040683
mouse_click,-0.9680532,-0.22898313,-0.002187252,-1.0468532,-0.9890274,-1.8085457,0.35508612,-0.43049568,-2.7617145,-0.56042,0.18275836,-0.5129928,-0.971752,0.019100025,0.020092905,0.5338265,-0.07913489,-0.08551687,-0.1849087,0.32412297,-0.23074247,0.71515644,-0.16960272,-0.54357743,0.031715393,0.6964135,0.38188222,-0.49601865,0.4423285,0.005250648,0.529188,-0.10160813,0.6332507,0.16329905,0.39512044,-0.14945121,0.01722224,-1.480562,-0.49579698,0.25603598,0.55342835,-0.97736233,0.3173138,-0.6522744,0.25521666,0.006444529,-0.13437068,-0.03506565,0.053173423,0.15937224,-0.47941864,-0.47526073,-1.6527375,-0.9601546,0.45740613,-0.4937459,0.2768192,0.7893036,-0.22071362,-0.061544303,0.2010491,-0.5327838,-0.46236986,-0.5116105,-0.6823758,-0.18574734,-0.29326752,0.8065348,0.1559544,-0.74073184,-0.1614873,-0.36506474,0.37573487,-1.3701493,-0.09023726,0.10194863,-1.4919199,0.26978755,-0.3683633,0.31407207,-0.5201063,1.645323,-0.22984216,-1.2175683,0.002963334,0.52264863,1.1089098,-0.15838858,-0.000877008,0.2809591,-0.36343184,0.05534306,-0.45921588,1.2765155,-0.24370444,0.544062,-1.1670064,-0.94807166,-0.45029494,-0.3882941,-0.69919264,0.39010745,-0.46933657,-0.46051976,-1.6541277,-0.76816183,-0.09223497,-1.9706956,0.006776482,0.08980214,-0.5173533,-0.9388164,-0.5205742,0.083142035,-0.51126814,-0.17796448,-0.1439409,-0.18092954,-0.5333122,0.060281314,-0.19341208,-0.2338956,-0.8945295,-0.27756792,-0.01939959,-0.63302326,0.1207798,0.11933789
mouse_click,-0.9121978,-0.2129499,-0.14047346,-1.0860895,-0.8826022,-1.7727011,0.26275617,-0.29000634,-2.8011518,-0.5433606,0.28290612,-0.44641298,-0.9911876,0.18416527,-0.088727795,0.46128002,-0.03369277,0.04278505,-0.23975326,0.39627856,-0.49225658,0.77045286,-0.3753926,-0.38881984,-0.055468082,0.72911406,0.28664345,-0.42475617,0.39427888,0.019533277,0.5881719,-0.035107553,0.6601978,0.054160323,0.45461193,-0.05420831,-0.0749827,-1.6095862,-0.7045179,0.17457616,0.57873404,-1.0710297,0.34527388,-0.75598,0.34926695,-0.02775371,-0.121860325,0.012319952,0.048543155,0.07297835,-0.43380094,-0.47861576,-1.560098,-0.90804785,0.5059315,-0.47299448,0.23555985,0.77145237,-0.19298166,0.06670825,0.22406977,-0.44896567,-0.4423347,-0.623163,-0.68603384,-0.16741608,-0.3906209,0.83244073,0.09533485,-0.73681176,-0.2218504,-0.3961501,0.38595694,-1.1286106,-0.2418403,0.09822046,-1.4875726,0.2065444,-0.4963111,0.42393637,-0.5338841,1.4066083,-0.032853454,-1.0429718,0.13094632,0.32698634,1.3290532,-0.18463168,0.05217485,0.09431866,-0.34116852,0.1263907,-0.47776222,1.2279408,-0.37850088,0.5549577,-1.2202982,-0.89519674,-0.41820183,-0.3554588,-0.7578625,0.20621139,-0.5516432,-0.49239656,-1.5101495,-0.65262383,-0.050549746,-1.9817088,0.055156738,-0.096303776,-0.66546345,-0.94709563,-0.67400527,0.17563677,-0.5424811,-0.050864518,-0.101531476,-0.15571329,-0.43586907,0.09080537,-0.07779728,-0.2321561,-0.9674389,-0.40300512,-0.05557424,-0.57931817,0.18711843,0.202698
mouse_click,-1.078956,-0.26019904,-0.033021778,-1.080989,-0.854709,-1.9200925,0.31424314,-0.3518975,-3.0824742,-0.62142986,0.101086825,-0.5828242,-0.93503064,0.1000641,-0.045944832,0.5615008,-0.052816324,0.060835242,-0.28502178,0.36066514,-0.49829453,0.58315253,-0.4336451,-0.3656307,-0.06577289,0.67395616,0.3284997,-0.428787,0.5606558,-0.13297214,0.6211102,-0.104510754,0.5404534,0.15221591,0.4941639,-0.077610895,-0.12224582,-1.643864,-0.7461628,0.20263235,0.36035955,-1.1722692,0.4327609,-0.8002332,0.33105153,-0.15168998,-0.044282794,0.08904353,0.003488064,0.17198223,-0.40738273,-0.59106815,-1.8070818,-0.996605,0.4942335,-0.47667632,0.2129066,0.85646147,-0.20092955,0.027110573,0.14030938,-0.5657032,-0.68066525,-0.7058715,-0.63502324,-0.15821299,-0.47565657,0.84208083,-0.03480187,-0.8069011,-0.15514605,-0.46438116,0.48944086,-1.2614695,-0.14086622,0.11666502,-1.5918132,0.18946126,-0.42163602,0.36851937,-0.6199446,1.4376438,-0.19168955,-1.2228081,0.09504661,0.34094295,1.2441427,-0.020797528,-0.017691195,0.0914426,-0.49951312,0.19416009,-0.67702454,1.0770618,-0.30195868,0.66053265,-1.136813,-0.9682235,-0.46397513,-0.3901611,-0.648598,0.28495508,-0.5374062,-0.48360315,-1.5059131,-0.77826387,-0.1734128,-1.8679781,0.16846398,-0.12421718,-0.5440969,-0.8234459,-0.6271323,0.10606911,-0.5622503,-0.07738978,-0.1954127,-0.2052175,-0.55423987,0.006220289,-0.22921588,-0.3063907,-0.9720309,-0.36898774,-0.10393945,-0.7625425,0.27563936,0.18646562
mouse_click,-0.7714366,-0.15720919,0.06019777,-0.8477732,-0.84580445,-1.466626,0.18238649,-0.15972313,-2.5018086,-0.4201808,0.33351922,-0.47501987,-0.77160966,0.33447918,-0.022833362,0.52488214,-0.023438433,0.01974085,-0.22744195,0.45857754,-0.44617552,0.582183,-0.5309095,-0.22125825,-0.054632187,0.63301265,0.20442897,-0.23010796,0.26774532,-0.18844761,0.47789267,-0.07671359,0.57443196,0.08932083,0.43077335,-0.070294544,-0.06344417,-1.3023677,-0.6544333,0.24527381,0.57669073,-0.974724,0.30354103,-0.66133016,0.27121457,-0.020731956,-0.05502236,0.07628173,0.19575903,0.023228914,-0.30473745,-0.5396389,-1.2195385,-0.6372055,0.5684725,-0.37559384,0.367608,0.9142398,-0.07281998,0.029093277,0.2965324,-0.3694188,-0.26069763,-0.6872521,-0.5681186,-0.13711946,-0.43021148,0.7840472,-0.13523969,-0.6870905,-0.13181487,-0.30804396,0.34590584,-0.9776404,-0.13261253,0.080955535,-1.2377757,0.3029234,-0.3225368,0.43986523,-0.5257195,1.3426912,0.013411969,-0.96793675,0.2162689,0.27801692,1.1896423,-0.19990498,-0.058958694,0.15660842,-0.42198604,0.19154248,-0.4601357,1.024326,-0.23252249,0.6193944,-1.0177724,-0.6625597,-0.24886626,-0.3208952,-0.6570249,0.22170638,-0.5352658,-0.38909772,-1.3721473,-0.6301779,0.007007182,-1.623863,0.05632505,-0.22222699,-0.62086725,-0.55429864,-0.48928297,0.09770068,-0.37288362,0.07056399,-0.18258694,-0.27343133,-0.44627002,0.021105839,-0.091934815,-0.30992156,-0.86104035,-0.2696696,-0.029576488,-0.46076456,0.21742128,0.10985345
mouse_click,-0.994468,-0.2162579,-0.010510802,-1.1679345,-1.0164313,-1.898609,0.38397157,-0.38251913,-3.0486293,-0.5558356,0.13924524,-0.46424782,-1.0442866,0.142659,0.017855681,0.560166,-0.1341672,0.012405098,-0.33744252,0.3602934,-0.4495741,0.85272366,-0.312632,-0.5137893,-0.006515831,0.7201593,0.2428733,-0.5122741,0.47599727,-0.010306582,0.6122648,-0.09315553,0.576614,0.15805182,0.43846712,-0.1068746,-0.110156536,-1.6625656,-0.7492613,0.23679939,0.398451,-1.1166073,0.24474807,-0.7879746,0.3656563,-0.11644557,-0.1063264,-0.055461466,-0.017781913,0.13246933,-0.4308442,-0.5464396,-1.8230915,-1.1073401,0.5626665,-0.39557883,0.21780398,0.9756884,-0.33420417,0.08102313,0.1461457,-0.55222315,-0.635085,-0.6286086,-0.6064185,-0.18057732,-0.4929629,0.7958366,0.19155654,-0.834097,-0.19670856,-0.44361365,0.3279612,-1.4318782,-0.1797486,0.12807418,-1.6083137,0.23050293,-0.4734018,0.40397272,-0.5519546,1.5067039,-0.2765772,-1.2643363,0.05663921,0.37264156,1.2203026,-0.19915664,0.008539945,0.17755155,-0.42150363,-0.001388103,-0.4941665,1.1846722,-0.27312148,0.49517292,-1.2538859,-1.0248652,-0.5346098,-0.32094508,-0.77182674,0.2590428,-0.5258349,-0.52600384,-1.5985223,-0.80207837,-0.10808703,-2.0925438,0.04040304,-0.0874688,-0.6494619,-1.0399581,-0.61031735,0.07231652,-0.56250125,-0.079573065,-0.1613945,-0.2030757,-0.6632049,0.02240242,-0.1573929,-0.23782629,-0.923213,-0.44253093,-0.028270975,-0.6948948,0.1304975,0.21007407
mouse_click,-0.9442558,-0.2834132,-0.1509487,-1.1840154,-1.1006812,-1.9732541,0.23649386,-0.6030547,-3.0920708,-0.75678056,0.04619515,-0.72677153,-0.98413855,0.023220494,-0.07777431,0.6366731,-0.049268655,0.006333709,-0.14762928,0.25368708,-0.43018377,0.66727436,-0.33318365,-0.52825665,0.027071089,0.6669483,0.41343734,-0.5905328,0.4389249,0.031386867,0.62741697,-0.09078887,0.7115335,0.12178568,0.45215377,-0.20882113,-0.0730699,-1.7265017,-0.6417294,0.20495725,0.51354474,-1.1658791,0.40803143,-0.72587126,0.26026747,-0.18305433,-0.1219632,0.014031887,0.084514335,0.26924938,-0.43750978,-0.5114667,-1.880819,-1.2119915,0.3176176,-0.599276,0.18940285,0.7029173,-0.2701538,-0.009604003,0.18991253,-0.6449248,-0.6400629,-0.6200108,-0.7876895,-0.17625181,-0.379584,0.901348,0.07285633,-0.82595634,-0.21594355,-0.44765627,0.38747,-1.4323871,-0.11484754,0.09673758,-1.624692,0.32661617,-0.490055,0.34026498,-0.7274653,1.5287983,-0.3355159,-1.3178116,0.036154836,0.3845722,1.2657292,0.002412818,0.03561616,0.1212087,-0.45520845,0.2281667,-0.6776448,1.1911149,-0.28273517,0.5271216,-1.2211504,-1.0606437,-0.575141,-0.5329309,-0.83076227,0.39377898,-0.63038296,-0.41231248,-1.729155,-0.7565382,-0.14777905,-1.9514475,0.11881393,0.013503863,-0.61267793,-0.967922,-0.68784463,0.12593067,-0.67466027,-0.28473797,-0.23612842,-0.15577348,-0.6139481,0.026522662,-0.29677725,-0.3366822,-1.0262995,-0.34288895,-0.12418299,-0.7367759,0.18788491,0.110181466
mouse_click,-0.9272548,-0.18004805,0.036435306,-0.9768553,-0.8756038,-1.6796883,0.329058,-0.23054704,-2.850092,-0.45602095,0.25187668,-0.513126,-0.8145087,0.27095416,-0.002585366,0.5495067,-0.000936965,0.041446894,-0.33220905,0.42606777,-0.49689198,0.6060854,-0.566747,-0.27062136,-0.09446895,0.6822767,0.22755416,-0.20394099,0.43703604,-0.19317214,0.5703331,-0.0738872,0.59234804,0.12042216,0.49905673,-0.037283152,-0.10393265,-1.5003186,-0.8374178,0.20230705,0.39402092,-1.0909427,0.33264187,-0.71976686,0.3759642,-0.072718635,-0.06762266,0.039196223,0.10771313,0.039410412,-0.32582247,-0.5621606,-1.4499234,-0.7863648,0.57450753,-0.49364302,0.22893551,0.8716985,-0.114652455,0.12035793,0.2685538,-0.45964885,-0.39583492,-0.7128342,-0.5112204,-0.1339867,-0.5793038,0.8700179,-0.07654182,-0.70291996,-0.16368358,-0.4041689,0.4611802,-1.0122977,-0.17950383,0.061840285,-1.4338806,0.14884645,-0.44672784,0.49004304,-0.6285766,1.3370936,-0.0433971,-1.0293108,0.22909525,0.33068237,1.2838408,-0.12421174,-0.07948406,0.01298821,-0.5259541,0.23931606,-0.48892277,1.1327972,-0.3075056,0.67835355,-1.1228038,-0.85287195,-0.32454073,-0.42387575,-0.7516251,0.17165089,-0.46639305,-0.49286357,-1.4100596,-0.7055995,-0.12675029,-1.8135054,0.061677128,-0.09927103,-0.6143276,-0.6465833,-0.58976364,0.039283,-0.5435334,0.019905433,-0.2404693,-0.28224277,-0.5374459,-0.005732292,-0.12473516,-0.32860154,-0.920395,-0.41779488,-0.019066997,-0.6274705,0.3399461,0.16142009
mouse_click,-1.005629,-0.11747694,-0.020498544,-1.0458947,-0.91521716,-1.8563999,0.12479342,-0.2629981,-3.0984783,-0.5492867,0.23727836,-0.39991635,-0.9795997,0.28992158,-0.10461267,0.49446845,-0.16014923,0.1287908,-0.33578545,0.47167724,-0.62743855,0.77093196,-0.5552642,-0.3360579,-0.09302133,0.683025,0.21028908,-0.36540037,0.50106597,-0.11854462,0.5779813,-0.011027575,0.5573692,0.118488744,0.4853541,0.045740515,-0.19626105,-1.7294285,-1.0493149,0.18153478,0.28186992,-1.3011653,0.33968174,-0.9276083,0.46256647,-0.2068983,0.024631977,0.1344598,-0.010924995,-0.05495894,-0.40636837,-0.6575581,-1.6131822,-1.0228947,0.7532126,-0.5114773,0.25513694,0.8900847,-0.22505131,0.037237022,0.23753549,-0.45338547,-0.54834735,-0.8858592,-0.5036975,-0.13806161,-0.5910969,0.7238356,0.08279843,-0.74497473,-0.21920948,-0.49073523,0.39413056,-1.1383151,-0.2903419,0.16107988,-1.7000749,0.102513015,-0.52472854,0.5359151,-0.6598676,1.2619624,-0.002432257,-1.0283558,0.12351197,0.20318094,1.3247783,-0.12833488,0.16979365,-0.07261419,-0.43541232,0.054488152,-0.6178403,0.95156527,-0.35273826,0.623498,-1.2600894,-0.8770513,-0.3621016,-0.357206,-0.824804,0.042114615,-0.59182507,-0.58187234,-1.5406102,-0.7650119,-0.10061717,-2.037371,-0.044370472,-0.31263605,-0.7569966,-0.9014797,-0.6846467,0.04129585,-0.51798433,0.025439605,-0.14497933,-0.21256721,-0.5745785,-0.025819914,-0.0751466,-0.2924809,-1.0353471,-0.5271603,-0.009311773,-0.7687073,0.2850405,0.27062866
mouse_click,-0.92401946,-0.17461893,-0.008041561,-1.0343913,-0.8525139,-1.727916,0.26721582,-0.22243881,-2.9451513,-0.5977962,0.21489406,-0.44313085,-0.98443085,0.18194641,-0.06390553,0.5139931,-0.15040594,0.08430576,-0.3600024,0.4115558,-0.5080575,0.72691715,-0.56269693,-0.31001583,-0.121717215,0.6968167,0.29315746,-0.40341753,0.44891006,-0.1422861,0.61975104,0.002465725,0.55044043,0.10040041,0.5157462,0.009091497,-0.13046864,-1.5213555,-0.823106,0.17079277,0.39933205,-1.1840411,0.369356,-0.8457679,0.3049776,-0.11211023,-0.050364614,0.040988207,0.046545,-0.008777201,-0.39171696,-0.52920413,-1.513275,-0.91743,0.5662863,-0.42434034,0.2554676,0.89613014,-0.22810069,0.019630928,0.16272022,-0.46248132,-0.4225071,-0.69353116,-0.5908582,-0.15093176,-0.5262706,0.78124046,0.0855579,-0.76218414,-0.2195737,-0.44199258,0.4188906,-1.0890766,-0.26828492,0.024489433,-1.49453,0.13716531,-0.466229,0.39317483,-0.53884643,1.3356862,-0.000869483,-1.0391657,0.15830885,0.35692745,1.2756052,-0.14742737,0.026157543,0.015386879,-0.42322347,0.14076106,-0.5325391,1.1348999,-0.33391744,0.530335,-1.1660436,-0.9218132,-0.3641959,-0.2889918,-0.7564618,0.15968776,-0.5303234,-0.50635266,-1.4259603,-0.7950589,-0.13266557,-1.8802836,0.08431217,-0.14756775,-0.65068996,-0.8462424,-0.659915,0.16772225,-0.5212508,0.053859085,-0.1649585,-0.21003899,-0.40362445,-0.000755226,-0.07669185,-0.28509566,-0.90200734,-0.42974222,0.06334813,-0.6519245,0.26921076,0.18238614
mouse_click,-0.97258615,-0.1463727,-0.03720191,-1.1060148,-0.8727921,-1.8335432,0.18491113,-0.2240513,-3.0986855,-0.5379501,0.2624705,-0.32983387,-1.053839,0.25165695,-0.1656242,0.46563175,-0.1442001,0.17959212,-0.40705645,0.41420048,-0.6894405,0.89688575,-0.5837833,-0.3651448,-0.17920107,0.7825008,0.19600709,-0.45117626,0.51306957,-0.017434403,0.5697281,0.09449704,0.50855184,0.09987619,0.5535989,0.044177085,-0.22055376,-1.7495987,-1.0677699,0.15979679,0.27618295,-1.3101459,0.26885572,-0.9583152,0.4463838,-0.22447047,0.036782682,0.049417943,-0.12274882,-0.07568166,-0.3901052,-0.5695379,-1.5815336,-1.0623078,0.71181864,-0.4572796,0.20969778,0.9132813,-0.3532426,0.05192623,0.18810579,-0.41471946,-0.5042495,-0.78467166,-0.47058672,-0.13636297,-0.63597906,0.709057,0.19633344,-0.76265347,-0.32585832,-0.50736713,0.40432507,-1.110096,-0.41313088,0.11166998,-1.6984357,0.093844175,-0.58226967,0.51843596,-0.59660363,1.1976639,0.051389024,-1.0119861,0.12929828,0.24415609,1.308266,-0.16553846,0.16514283,-0.17090696,-0.37554148,-0.013597757,-0.5933393,1.0421823,-0.38063455,0.50078636,-1.3147213,-0.93162936,-0.37728524,-0.27587855,-0.8537088,0.007023484,-0.5905386,-0.6028439,-1.383753,-0.8286614,-0.1338517,-2.074171,-0.028659195,-0.32108527,-0.7604097,-0.98362577,-0.7611579,0.09382375,-0.5254785,0.14157209,-0.058754295,-0.16826002,-0.4607487,-0.064860426,-0.022211567,-0.2400743,-0.97075486,-0.5622351,0.07775764,-0.691656,0.24417685,0.34426153
mouse_click,-0.9554361,-0.17218032,-0.01211381,-1.2704772,-1.0207044,-1.9759365,0.3696944,-0.3530465,-3.3017392,-0.41818738,0.27495742,-0.38155872,-0.9889565,0.43464905,-0.019840442,0.5379346,-0.1653552,0.17436168,-0.43551642,0.4023131,-0.72931737,1.121809,-0.5407442,-0.49854073,-0.141069,0.79640484,0.02654475,-0.40134954,0.41856915,0.020742431,0.77933174,-0.10483986,0.5505332,0.14981595,0.47963127,-0.07797715,-0.11903447,-1.8868616,-0.93657345,0.14309213,0.14020571,-1.348576,0.17573147,-0.8845797,0.47298175,-0.20381361,-0.122476995,0.009783059,-0.06488639,-0.05405715,-0.31915402,-0.5723008,-1.925798,-1.1521808,0.7090987,-0.46163604,0.14424816,1.1635125,-0.4635872,0.14408547,0.16516623,-0.5104674,-0.58617246,-0.7529053,-0.47208023,-0.16036662,-0.6972847,0.7696941,0.22886352,-0.8881881,-0.2575307,-0.53928417,0.37074113,-1.3040727,-0.34961355,0.11212464,-1.7606295,0.17150587,-0.52694285,0.52851367,-0.62958276,1.31179,-0.19360867,-1.1861352,0.20941177,0.107658684,1.3320718,-0.22519913,0.13463087,-0.045248985,-0.46691933,-0.102979064,-0.5010994,1.1477888,-0.36257863,0.46065006,-1.3911349,-0.97512156,-0.5699975,-0.38252795,-0.97251076,-0.018941253,-0.6557011,-0.6882932,-1.5021361,-0.7636768,-0.11575836,-2.203687,-0.1139476,-0.25962096,-0.7724178,-0.98385453,-0.6064122,0.06111332,-0.580897,0.14699784,-0.124275774,-0.26563132,-0.8076141,-0.09371547,-0.12951164,-0.2830168,-0.9230435,-0.58372843,0.0728652,-0.7254945,0.22595485,0.24151035
mouse_click,-0.919732,-0.2520491,-0.03504479,-1.134079,-0.98229194,-1.783185,0.39823657,-0.23460203,-2.847024,-0.51188,0.3232986,-0.5618443,-0.923795,0.35976774,-0.01796002,0.7067614,-0.0931747,0.09846997,-0.36202127,0.47752202,-0.61887735,0.74366504,-0.65806013,-0.29971775,-0.15482843,0.6953731,0.22511595,-0.30366307,0.33044875,-0.1318114,0.65614015,-0.08899814,0.62008804,0.11445161,0.41245452,-0.06707378,-0.06370196,-1.6201787,-0.6773087,0.1293968,0.49392676,-1.0934964,0.31295046,-0.8435581,0.2948289,-0.101620585,-0.14847171,0.14484417,0.09552419,-0.015131474,-0.27276468,-0.64983654,-1.6148806,-0.83240753,0.5938832,-0.45696852,0.21963418,1.1633915,-0.1969747,0.089647144,0.15473945,-0.44876695,-0.5041696,-0.6569095,-0.61860436,-0.14903921,-0.598003,0.7596522,-0.20196508,-0.8402152,-0.20662478,-0.42871493,0.3970735,-1.1999809,-0.22610664,0.11562933,-1.5413419,0.33056092,-0.40192804,0.45521188,-0.67535126,1.3040855,-0.19798481,-1.2934353,0.23592538,0.15112966,1.2985337,-0.13271363,-0.05033447,0.035751373,-0.4259062,0.18373291,-0.56113625,1.0804921,-0.31531554,0.62254584,-1.1264359,-0.9132607,-0.48787877,-0.35174698,-0.7659362,0.14804977,-0.70245534,-0.6058068,-1.3683364,-0.61658,-0.08526608,-1.9106054,0.13571349,-0.2182272,-0.607613,-0.7532568,-0.61599755,0.21055317,-0.5250953,0.08303584,-0.29497072,-0.2606407,-0.62387514,-0.10424759,-0.17714791,-0.37164542,-0.90548646,-0.35009092,-0.043519847,-0.6085088,0.23145245,0.12874655
mouse_click,-0.9565258,-0.19173509,0.008695036,-0.9253342,-0.7148505,-1.6360611,0.14371672,-0.2615966,-2.9017541,-0.5150737,0.26773688,-0.36950213,-0.92833143,0.29628962,-0.11777025,0.38670722,0.07394358,0.09074855,-0.29330552,0.50644064,-0.6494592,0.5553687,-0.50317764,-0.28786752,-0.11098194,0.75840974,0.21044028,-0.3391057,0.47581667,-0.24880184,0.5485847,-0.08518195,0.4223282,0.036882132,0.54874915,-0.07811606,-0.22407457,-1.6009569,-1.0741698,0.24574962,0.35346738,-1.3243533,0.37810835,-0.8171377,0.3970516,-0.059184358,0.07248396,0.077575624,-0.06576055,0.049402624,-0.32271224,-0.6192695,-1.425816,-0.87696207,0.5987226,-0.35353068,0.36340916,0.8098958,-0.20719174,0.10955584,0.25597203,-0.4373629,-0.52178186,-0.847005,-0.57590526,-0.12156104,-0.53123343,0.8974249,-0.07519977,-0.7232319,-0.059546687,-0.42866957,0.45852256,-1.0136824,-0.18657818,0.08190036,-1.4269971,0.024275243,-0.4642565,0.5947409,-0.5056282,1.2978439,0.044432163,-0.7989162,0.16915655,0.28403345,1.3388627,-0.15363306,-0.11555846,-0.027005136,-0.5307448,0.13133076,-0.54696643,0.8128164,-0.3653528,0.74282765,-1.0897768,-0.7378449,-0.24753727,-0.24329185,-0.5941777,0.1673922,-0.4334263,-0.44483325,-1.2156417,-0.7562409,-0.08414495,-1.7429016,0.10427523,-0.45469755,-0.6685628,-0.78023803,-0.64176667,-0.058773067,-0.42427093,0.05906765,-0.11241299,-0.2652551,-0.4415234,0.0631903,-0.045681477,-0.23914525,-1.112413,-0.4771973,-0.061213426,-0.54834926,0.36382127,0.31774104
mouse_click,-0.9900485,-0.1398395,-0.004861236,-1.1174784,-0.8089659,-1.7033806,0.41410297,-0.22233528,-2.8621776,-0.56044436,0.32682195,-0.34219873,-1.0189943,0.22859402,-0.06123162,0.5954087,-0.10798857,0.15361653,-0.3575316,0.44959557,-0.6520848,0.7946059,-0.5358283,-0.3852183,-0.15277433,0.7759248,0.27541363,-0.46369103,0.50938356,-0.052136377,0.66019195,0.033021078,0.4838296,0.10005666,0.5504361,-0.025007382,-0.09041521,-1.680729,-0.75854033,0.115601346,0.34489638,-1.1780859,0.37711278,-0.84717745,0.24009784,-0.08223939,-0.12187487,0.045793623,-0.09607348,-0.02911669,-0.33750272,-0.47397462,-1.596366,-0.8393729,0.58727735,-0.40210402,0.21824995,0.9670964,-0.27479354,0.0809952,0.17173241,-0.42273223,-0.49551767,-0.55191135,-0.5786641,-0.15107398,-0.5905497,0.7489692,0.14544748,-0.7828822,-0.11998665,-0.40989655,0.43710852,-1.1224867,-0.22810611,0.023229286,-1.5622588,0.1111055,-0.5170829,0.48825777,-0.5583334,1.1788743,-0.06518492,-1.031415,0.1384119,0.30950552,1.3160822,-0.20762545,-0.00389652,-0.08417004,-0.36183313,0.13961297,-0.47741824,0.9798527,-0.36266118,0.50031793,-1.1292875,-0.8866758,-0.45742068,-0.3153326,-0.68077284,0.0804742,-0.49415374,-0.5775615,-1.2539994,-0.7448148,-0.17794436,-1.9732543,0.047281504,-0.24900083,-0.6490449,-0.89913964,-0.69101393,0.212944,-0.47496665,0.1452533,-0.15088543,-0.22538596,-0.46954313,-0.023455238,-0.11223157,-0.26377106,-0.87865305,-0.42155737,0.07954273,-0.64112365,0.3126545,0.26938754
mouse_click,-0.98771644,-0.16021466,-0.071211934,-1.3450674,-1.2191726,-2.0432856,0.3151078,-0.52237964,-3.2187507,-0.6634463,0.32137048,-0.47023904,-1.1662724,0.25000677,-0.047494702,0.6794283,-0.13839114,0.10098648,-0.32129318,0.4150088,-0.60046166,0.9436381,-0.47955152,-0.6573211,-0.13596737,0.72436094,0.30623502,-0.45905033,0.3809544,0.029687524,0.67669076,-0.039251387,0.6886668,0.068606004,0.4338971,-0.09918703,-0.035457373,-1.971984,-0.8744405,0.110905394,0.4082171,-1.3092695,0.28490514,-0.8599281,0.36203095,-0.1256868,-0.20148432,0.057280064,-0.042464346,-0.07595143,-0.37003404,-0.68814194,-1.7993302,-1.1681268,0.62762654,-0.6136017,0.1398932,0.9649216,-0.34637013,0.11007485,0.2158268,-0.546414,-0.5458815,-0.6870082,-0.65607095,-0.16570313,-0.63517636,0.80151045,0.12167438,-0.8725178,-0.28127694,-0.4744352,0.3120638,-1.4761398,-0.24167329,0.110547334,-1.8353512,0.1853528,-0.5911058,0.5886814,-0.76274943,1.4006906,-0.30315462,-1.3270944,0.11581124,0.28902814,1.4311926,-0.21076289,0.10463391,-0.020055234,-0.46646097,0.05243361,-0.46700007,1.1293033,-0.34285212,0.48850113,-1.3326223,-1.12432,-0.5972676,-0.4892584,-0.9754191,0.1290853,-0.6809073,-0.6902815,-1.6882756,-0.737759,-0.15480697,-2.4087749,-0.1220772,-0.1371014,-0.7844107,-1.2235625,-0.7505734,0.045033403,-0.67020166,-0.11246404,-0.28003225,-0.2137877,-0.7016214,-0.07169113,-0.1678405,-0.34373266,-1.0456722,-0.4896465,0.050265364,-0.7622744,0.25395304,0.18133122
mouse_click,-0.9157102,-0.18171188,-0.045387983,-0.8540505,-0.81116307,-1.5565087,0.20170936,-0.16216403,-2.4237576,-0.4474343,0.32944354,-0.48037863,-0.84016675,0.14941697,-0.10131087,0.4702081,-0.0687423,0.012229353,-0.18725018,0.4413252,-0.42002827,0.52749646,-0.3812125,-0.28894866,-0.05520785,0.6653938,0.35357583,-0.31357944,0.4112245,-0.08506715,0.4806061,-0.003712565,0.5740647,0.10127539,0.38174132,-0.004796356,-0.034622118,-1.3445611,-0.5150901,0.18557763,0.60409546,-0.89953184,0.3543046,-0.701017,0.27022392,0.001984298,-0.029797673,0.10317102,0.14483511,0.108170986,-0.37573498,-0.5124097,-1.3278066,-0.6775792,0.58235335,-0.4462656,0.34775615,0.75886554,-0.06574303,-0.044909503,0.2519958,-0.3690902,-0.32470316,-0.5963473,-0.6010304,-0.15313989,-0.29886508,0.75013196,-0.09202921,-0.600634,-0.14880426,-0.341168,0.39092326,-1.0208697,-0.13364363,0.12900802,-1.3711071,0.29450732,-0.303412,0.3619412,-0.53098595,1.3221381,0.03875634,-1.0686743,0.0962199,0.35132766,1.127423,-0.15615042,0.04281728,0.17325935,-0.29618505,0.14571905,-0.56007314,1.1014516,-0.24435985,0.6838524,-1.0017015,-0.72478265,-0.30476046,-0.28381002,-0.5829703,0.2510425,-0.51816875,-0.3875433,-1.3963932,-0.5957952,-0.011742234,-1.7128266,0.08544502,-0.09354131,-0.5407142,-0.6347201,-0.56777585,0.12156149,-0.3621186,0.016105488,-0.113627166,-0.16110209,-0.402961,0.035127174,-0.08945207,-0.23804247,-0.85612744,-0.22620937,-0.071087435,-0.5483234,0.22626422,0.18198757
mouse_click,-1.0740135,-0.3237286,-0.039571047,-1.1361498,-1.3004875,-1.8440294,0.40591788,-0.56280804,-2.7285728,-0.85381836,0.19688442,-0.6624546,-1.0376347,-0.20206797,-0.073092155,0.97720695,-0.15394357,-0.07442114,-0.05170721,0.25797373,-0.2969911,0.5756273,-0.2715186,-0.6891203,-0.022002429,0.73553073,0.5009037,-0.70202374,0.38314247,0.17640276,0.37854743,-0.0699704,0.7809131,0.07456595,0.4947041,-0.24934141,0.27949232,-1.6561968,-0.45658368,0.14159104,0.70929825,-0.9526573,0.46534482,-0.6855157,-0.011904717,-0.12753019,-0.17888087,-0.091754735,-0.12743464,0.19384193,-0.6363172,-0.3521215,-1.422028,-1.0423915,0.1883564,-0.61543024,0.20613524,0.6749963,-0.29554072,0.000880804,0.10664511,-0.502038,-0.40593088,-0.3329106,-0.8368011,-0.16606425,-0.2792862,0.7152787,0.13977735,-0.83593094,-0.22810107,-0.32893908,0.25388288,-1.5359404,-0.13667455,0.022626974,-1.754358,0.37250745,-0.5775671,0.30725676,-0.7669892,1.6801312,-0.27787724,-1.4853554,0.004725605,0.60535717,1.1639844,-0.03822577,-0.256523,0.20903578,-0.31312573,0.20700382,-0.64631456,1.2905476,-0.31009775,0.28162634,-1.2950413,-1.0376937,-0.3174717,-0.63824356,-0.83733374,0.3712473,-0.5645039,-0.43944374,-1.8531202,-1.0956572,-0.15920758,-2.1243606,0.071801275,0.123488925,-0.6795361,-0.9625051,-0.6173888,0.39315936,-0.536024,-0.20833659,-0.24744216,-0.12795761,-0.39009127,-0.12395667,-0.23644786,-0.28008044,-1.0579858,-0.16309851,0.09193343,-0.80188906,-0.03271289,0.15867545
mouse_click,-0.8232416,-0.11859581,0.001226097,-0.91563,-0.8514869,-1.5628663,0.30037862,-0.2787221,-2.4473634,-0.6650611,0.19367662,-0.595653,-0.8363198,-0.000865832,0.05679214,0.73253876,-0.070377894,-0.003177911,-0.084570915,0.33132488,-0.24582593,0.53982234,-0.36746222,-0.3442822,0.07367048,0.5311132,0.4389302,-0.37154746,0.34957325,-0.15948291,0.46584156,-0.05866137,0.6328849,0.07272568,0.48376802,-0.09846209,0.10561447,-1.2641649,-0.47835642,0.2101634,0.61338496,-0.86660683,0.4705654,-0.580455,0.13081181,0.033002645,-0.15882176,-0.04863739,0.18727458,0.15093955,-0.42587376,-0.42000312,-1.3797537,-0.66530454,0.28943676,-0.44739082,0.23181349,0.7283098,0.007642299,0.08814201,0.24194324,-0.45242363,-0.29694736,-0.48431963,-0.68658066,-0.14215389,-0.32682312,0.84683764,0.056343503,-0.6834314,-0.07608863,-0.27412513,0.34821233,-1.0924978,0.013976693,0.007163011,-1.2628083,0.20117486,-0.41348752,0.34348208,-0.6052525,1.5076144,-0.105755776,-1.1192034,0.17087543,0.53202,1.2417299,-0.094554484,-0.16706125,0.25889778,-0.44502643,0.34801972,-0.47011697,1.16437,-0.23041016,0.4892336,-0.9569935,-0.8669979,-0.28259516,-0.50914246,-0.5801202,0.365242,-0.43707025,-0.32813653,-1.635509,-0.782153,-0.15175706,-1.6507196,0.13512585,0.071679205,-0.57994694,-0.6046623,-0.5785078,0.21595559,-0.53217834,-0.12462774,-0.26376554,-0.20644367,-0.25894138,0.07554728,-0.15525599,-0.3333463,-0.8233592,-0.20962316,0.05140943,-0.6546372,0.26926297,0.018240854
mouse_click,-0.91314507,-0.25904638,-0.16884696,-1.307102,-1.1768503,-1.9860502,0.50008297,-0.52693486,-3.0572271,-0.61840725,0.15401603,-0.5979752,-1.0444491,0.12559046,-0.08880358,0.7370023,-0.035267033,-0.021025479,-0.29029423,0.35449585,-0.5441937,0.9557192,-0.3288829,-0.5020714,-0.033997834,0.7637774,0.35020977,-0.64207834,0.49932122,0.059130102,0.84131515,-0.01753965,0.62358946,-0.002185248,0.44675758,-0.14222838,-0.04976462,-1.7063103,-0.6588286,0.24258377,0.51487815,-1.01883,0.31007436,-0.7903368,0.24866647,-0.09352715,-0.24270022,-0.08454943,-0.016323805,0.1540612,-0.36165446,-0.43489832,-1.9864461,-1.2119086,0.4767885,-0.41458508,0.17726016,0.88294107,-0.4371759,0.11133805,0.11477442,-0.5518292,-0.59005535,-0.54028165,-0.7538761,-0.18832164,-0.45612532,0.93138254,0.20203121,-0.9004084,-0.26198483,-0.48679227,0.21072476,-1.549157,-0.30129814,0.014871366,-1.6733353,0.23175022,-0.5486212,0.32150087,-0.61279196,1.4977031,-0.33255073,-1.3774303,-0.035491377,0.44637874,1.291053,-0.18521675,-0.054503307,0.100142,-0.3745393,0.10080445,-0.47829616,1.2948983,-0.39113867,0.47768292,-1.2897137,-1.1259602,-0.7184035,-0.3748783,-0.802054,0.33282965,-0.5116859,-0.6263826,-1.9020761,-0.72681123,-0.1776213,-2.0247424,0.11157331,0.028631179,-0.75408,-1.1422086,-0.7151394,0.30623597,-0.60238594,-0.13538262,-0.18622592,-0.11825256,-0.70306075,0.05261945,-0.2011695,-0.29733542,-0.97590196,-0.4575492,-0.000220619,-0.65672326,0.015414938,0.11862576
mouse_click,-0.843001,-0.13427803,-0.04482615,-0.9103427,-0.7682764,-1.6257198,0.2849555,-0.27334657,-2.5636547,-0.5664917,0.14001383,-0.50474,-0.7752694,0.06890494,0.08140786,0.5162923,-0.027290413,0.014999509,-0.10288851,0.34832698,-0.2917465,0.5009697,-0.30129147,-0.2839352,0.073378086,0.5463799,0.32665795,-0.36936176,0.3868644,-0.11710234,0.4583136,-0.1063329,0.63559765,0.16143753,0.47382936,-0.0809153,-0.021179736,-1.3251483,-0.49034762,0.24213988,0.51336,-0.918577,0.42973843,-0.5767407,0.24435697,-0.022493944,-0.09104228,-0.012548804,0.18311176,0.21938194,-0.42071182,-0.41354686,-1.4780912,-0.7121018,0.35416582,-0.3984159,0.24968836,0.7668224,0.021744862,0.070822224,0.24137641,-0.47648162,-0.4907347,-0.5137298,-0.6550356,-0.15849112,-0.32049906,0.822539,0.05192595,-0.6703937,-0.031521082,-0.2620093,0.39890355,-1.0465306,0.042568803,0.13712656,-1.2776805,0.2236082,-0.39084992,0.31583154,-0.5675875,1.4141757,-0.1431647,-1.034695,0.14071748,0.39965233,1.2524467,-0.078777015,-0.023485988,0.23133597,-0.41490015,0.2811345,-0.48568678,1.0653359,-0.2132448,0.6004919,-0.9522329,-0.77999693,-0.3367949,-0.4128635,-0.53676724,0.3486318,-0.43908364,-0.26443955,-1.4519542,-0.6718864,-0.05908674,-1.6341513,0.12804797,-0.042255566,-0.50931066,-0.61554134,-0.5563435,0.16296226,-0.51933223,-0.10873616,-0.18845001,-0.22026524,-0.4094542,0.09138099,-0.16118945,-0.2753596,-0.8182939,-0.25611395,-0.07650108,-0.6079967,0.330993,0.09057507
mouse_click,-0.79832435,-0.2309413,-0.041952908,-1.1068405,-1.014209,-1.795277,0.21025905,-0.40937063,-2.6732953,-0.64982605,0.16464627,-0.6996986,-0.8869725,-0.014184207,-0.05234354,0.7605962,-0.03827288,0.06321114,-0.022330351,0.26268613,-0.29641253,0.6904259,-0.26673743,-0.5454985,0.087216794,0.5842077,0.4043457,-0.4649892,0.30388412,0.084260374,0.43153182,-0.053623676,0.7134013,0.05327386,0.4142348,-0.22925185,0.13333905,-1.5158937,-0.57431954,0.21272051,0.6945047,-0.94935375,0.41407454,-0.6365959,0.22482124,-0.06701961,-0.17510355,0.026711047,0.10612151,0.12844598,-0.47055215,-0.48446393,-1.5922561,-0.90021306,0.324041,-0.60451144,0.1570167,0.66217697,-0.13896692,-0.005102415,0.24257156,-0.49472034,-0.44545162,-0.5629401,-0.721774,-0.156351,-0.29880017,0.77858174,0.08471035,-0.76224446,-0.21614043,-0.35672462,0.28816473,-1.2684245,-0.121763736,0.0751411,-1.4232346,0.38365027,-0.46309075,0.39625242,-0.68510854,1.5581751,-0.18812326,-1.2496809,0.12564898,0.45201355,1.1079477,-0.058936357,-0.07407917,0.25316095,-0.4165291,0.25867242,-0.59239256,1.2845222,-0.2663762,0.42091927,-1.1810116,-0.9983004,-0.44175702,-0.5604342,-0.73713404,0.38387847,-0.57940435,-0.44505462,-1.8568655,-0.7660032,-0.14120013,-1.8507849,0.026075512,0.070527874,-0.6759405,-0.81953764,-0.5316477,0.16140398,-0.57339203,-0.26552397,-0.18848065,-0.1381728,-0.38302103,0.010168295,-0.21601619,-0.33457386,-0.9656826,-0.23262584,-0.002987072,-0.7044064,0.03487684,0.07477355
mouse_click,-0.9138005,-0.118885666,0.045961663,-0.85459894,-0.74669814,-1.5277592,0.28392333,-0.25198483,-2.4805248,-0.44946182,0.2829012,-0.4897464,-0.6843808,0.24310392,-0.008935072,0.5581824,0.07203356,0.059462547,-0.18464695,0.4130772,-0.3329562,0.42691427,-0.48459175,-0.280683,-0.07294011,0.70546806,0.2351072,-0.20496418,0.3077826,-0.18007152,0.47221175,-0.10831851,0.58044034,0.1422439,0.38257208,-0.10996391,0.033857748,-1.345018,-0.4397354,0.19569622,0.50278354,-0.92660195,0.44336402,-0.49901104,0.17767508,-0.06387721,-0.09158158,0.15560526,0.16264611,0.13469794,-0.29692578,-0.3789581,-1.2980515,-0.57654166,0.40222743,-0.4575437,0.30357945,0.81346345,-0.023128808,-0.012334,0.20016043,-0.44535232,-0.28912133,-0.56255746,-0.59892225,-0.12739497,-0.38728034,0.7780984,-0.19267787,-0.6604538,-0.0430957,-0.2625294,0.4066102,-0.95922107,-0.010506272,0.10112862,-1.2516769,0.34201777,-0.31200698,0.38430744,-0.54735935,1.2474642,-0.10893878,-1.047246,0.21543023,0.24733916,1.1355569,-0.07816513,-0.08186494,0.08726221,-0.37400222,0.3530272,-0.42592096,0.8972199,-0.24811614,0.61152995,-0.8939165,-0.61167294,-0.28765887,-0.40376556,-0.5469343,0.26712632,-0.5135895,-0.36330304,-1.2895871,-0.6085072,-0.01810038,-1.6244483,0.0991976,-0.17596416,-0.4805091,-0.45492348,-0.40719938,0.11844934,-0.42813557,0.04873842,-0.21298614,-0.2828023,-0.4561616,-0.057453185,-0.17768155,-0.34855074,-0.8346208,-0.21942347,-0.043139473,-0.5977943,0.2923674,0.08110577
mouse_click,-0.99224484,-0.28159627,-0.17279199,-1.0930724,-0.9870622,-1.7250067,0.42104143,-0.1796911,-2.6216943,-0.5453421,0.34965092,-0.3667028,-1.0084268,0.26877737,-0.21476242,0.564742,0.018122694,0.043524384,-0.23371683,0.4223181,-0.5857147,0.6682528,-0.4609667,-0.33065182,-0.16695988,0.8011154,0.27469844,-0.42771327,0.4092009,0.05357775,0.6992062,0.006808341,0.5352219,-0.024129085,0.39216706,-0.01964365,-0.06842971,-1.5628697,-0.55224854,0.12745814,0.7127807,-0.9268101,0.40856987,-0.8110633,0.21122593,-0.063004404,-0.15549815,0.054881305,-0.011526227,0.000739247,-0.3446297,-0.3949702,-1.661975,-0.8706319,0.53870386,-0.31283998,0.3152187,0.78476566,-0.30490616,0.010162342,0.12719592,-0.41040665,-0.41369063,-0.4548272,-0.67920774,-0.17440952,-0.3626261,0.7595235,-0.062377952,-0.7369505,-0.036410004,-0.43052918,0.2289906,-1.1812928,-0.36075807,0.031125434,-1.5468273,0.30579785,-0.47690508,0.28101522,-0.46155813,1.3432865,0.012112021,-1.2257994,0.12121275,0.3337208,1.2435882,-0.24556577,-0.000754923,0.122819915,-0.23760492,0.20788695,-0.5834014,1.1141266,-0.40505725,0.6353333,-1.1059532,-0.8301346,-0.5004286,-0.18445575,-0.6177708,0.16125396,-0.51218593,-0.5463419,-1.6741215,-0.60250074,-0.09459847,-1.8414683,0.09097299,-0.1434549,-0.73361623,-0.80491483,-0.58049566,0.39561427,-0.3070938,0.03644395,-0.11245066,-0.14828241,-0.5493752,0.06913812,-0.08904065,-0.21062398,-0.9609084,-0.3158121,-0.02039358,-0.5130826,0.11237754,0.2222289
mouse_click,-1.0791614,-0.19179407,0.30590972,-0.6110493,-0.6390857,-1.5530288,-0.00871538,-0.3679387,-2.4154568,-0.6579431,-0.13806334,-0.44381976,-0.7586526,-0.24325949,-0.17197779,0.29728204,-0.022447819,0.12697065,-0.11970036,0.07544094,0.07340164,0.22503218,-0.16737829,-0.50375366,0.026102185,0.7246916,0.32643163,-0.3749767,0.5024606,-0.07176544,0.110350825,-0.01325202,0.4388008,0.16480497,0.5029144,-0.24573638,-0.31707624,-1.3345071,-0.7180359,0.3493353,0.6047127,-0.92714024,0.28881216,-0.45825398,0.432046,-0.24979886,0.2564916,0.08290899,-0.15765217,0.35534838,-0.51014674,-0.49805325,-1.4429196,-0.92961067,0.2884093,-0.48497143,0.23011595,0.2673015,-0.15923506,-0.15614872,0.10001761,-0.4953966,-0.56212735,-0.6471054,-0.34638435,-0.12810653,-0.24957085,0.6112599,0.026626786,-0.5804192,-0.07256915,-0.31017423,0.22853488,-1.2641816,0.044291973,0.23381385,-1.2514244,0.29796028,-0.3974848,0.31205577,-0.30387074,1.7455816,-0.20960757,-1.1453584,-0.006532431,0.64846563,0.6620028,0.027371489,0.092975795,0.35464832,-0.40325478,0.2104901,-0.6080425,0.7137457,-0.14776784,0.57436705,-1.0829742,-0.8397483,-0.07800535,-0.2533731,-0.4127871,0.51209635,-0.342148,-0.060655504,-1.422354,-0.94642323,-0.044918388,-1.6324592,0.30543035,-0.24146228,-0.44410944,-0.70793617,-0.45275077,-0.1852538,-0.28468627,-0.22384703,0.05868624,0.020482043,-0.15933743,-0.006169142,-0.17628543,-0.21713826,-0.892011,-0.18457466,-0.18701842,-0.83920264,0.12409808,0.33725017
mouse_click,-0.88824415,-0.18727878,-0.14091435,-1.0495831,-0.8184678,-1.7637609,0.47101316,-0.22298476,-2.4966083,-0.5263139,0.15250099,-0.44447666,-0.961745,-0.03479749,0.03605049,0.6099677,-0.11409385,0.008729726,-0.16115226,0.3526901,-0.3019216,0.7480314,-0.16174816,-0.36100072,0.047052175,0.6973232,0.38785478,-0.5954912,0.51718915,0.10558134,0.58014345,-0.006266832,0.6639107,0.1100269,0.4643232,-0.055522993,0.006486088,-1.364612,-0.29168433,0.2122768,0.5617388,-0.7292304,0.3940032,-0.6986123,0.2088545,-0.03630981,-0.16819715,-0.049093187,0.012769192,0.22569953,-0.50063217,-0.3098271,-1.6732577,-0.8104517,0.3987796,-0.28744784,0.20276874,0.85151744,-0.14948815,0.06398116,0.061756194,-0.41836417,-0.54862815,-0.37228167,-0.744661,-0.18398121,-0.25374132,0.7380779,0.18966907,-0.7719425,-0.17479607,-0.34913862,0.2823552,-1.2762852,-0.12038487,0.11338114,-1.4060649,0.28893253,-0.4422237,0.18901528,-0.45255324,1.4878685,-0.18899181,-1.2214091,-0.021682411,0.43450266,1.1948228,-0.17018189,-0.002261177,0.27399084,-0.16975357,0.09477696,-0.46698964,1.2742858,-0.31251097,0.45484218,-1.1282523,-0.92405087,-0.4892326,-0.26867718,-0.51400095,0.39126348,-0.49310702,-0.43883523,-1.6160752,-0.68020135,-0.06314218,-1.81403,0.17366315,0.030547453,-0.5367711,-0.93514204,-0.6370107,0.4660438,-0.48059475,-0.03910035,-0.07223722,-0.0752465,-0.3489106,0.09885883,-0.11032091,-0.20521584,-0.7589558,-0.27076215,-0.06070395,-0.59434104,0.086925656,0.20620112
mouse_click,-0.9608896,-0.24600396,-0.14994904,-1.132475,-1.1149365,-1.8331546,0.31172264,-0.39863613,-2.7666378,-0.6672151,0.10585359,-0.60761124,-1.0658966,0.019184366,-0.09202384,0.6377487,-0.16481844,-0.011801332,-0.18643428,0.31659016,-0.44018203,0.7419467,-0.2838521,-0.47554454,0.05050963,0.6693603,0.41251874,-0.56928754,0.45106852,0.048404917,0.63744754,-0.033388942,0.6364919,0.048664283,0.3924772,-0.10005467,-0.06600393,-1.5692326,-0.6201347,0.19640443,0.6350587,-0.9690751,0.33322117,-0.78097767,0.2849667,-0.08586864,-0.14074504,-0.07873392,0.096936956,0.23774552,-0.47022128,-0.50236034,-1.8007596,-1.1090938,0.41905886,-0.41203588,0.2249406,0.7036032,-0.27387854,0.07046099,0.16992426,-0.539738,-0.5494566,-0.53742003,-0.74660593,-0.18375093,-0.31398857,0.84966147,0.13776815,-0.7388439,-0.17700727,-0.4521079,0.22930397,-1.4504724,-0.18060175,0.058578342,-1.5645255,0.30040777,-0.48913237,0.2954579,-0.59653825,1.5782478,-0.21184891,-1.365111,0.04446958,0.47304025,1.227573,-0.17918631,0.000173703,0.2786479,-0.35404155,0.14571686,-0.62326574,1.2997656,-0.2939852,0.53285295,-1.2081298,-1.0597329,-0.5242271,-0.38139886,-0.74920374,0.35962856,-0.5471491,-0.42568716,-1.8508717,-0.77115077,-0.123334706,-1.9481034,0.13306293,0.064237334,-0.7188109,-0.95682263,-0.69597465,0.22203398,-0.54107255,-0.21628228,-0.17595375,-0.13697928,-0.56348026,0.10607823,-0.14967929,-0.24505094,-0.9614341,-0.35362238,-0.08325989,-0.7008594,0.08574282,0.14833368
mouse_click,-0.9141507,-0.23172796,-0.17293352,-1.2067107,-0.97914064,-1.8791333,0.3222127,-0.4300594,-2.892092,-0.6720224,0.16811454,-0.60444915,-1.0052938,0.07946787,-0.089283146,0.64183426,-0.04343752,0.10129744,-0.21715106,0.28009894,-0.46760362,0.7714662,-0.43274206,-0.4773455,-0.057024658,0.7661647,0.3569421,-0.55645,0.39704967,0.13589992,0.59957945,0.013656557,0.7714715,0.1064595,0.48167464,-0.1512164,-0.04621005,-1.7147,-0.55764467,0.12093443,0.5586851,-1.0700266,0.40690294,-0.7274023,0.24349174,-0.18021455,-0.18076074,0.029612064,0.0378049,0.17388114,-0.4294582,-0.38208288,-1.7074766,-1.0261261,0.32249165,-0.5824083,0.11955941,0.7601551,-0.24709558,0.031672534,0.1517835,-0.5436848,-0.502508,-0.5201636,-0.76907766,-0.1665401,-0.43928266,0.8079659,0.08124042,-0.81694376,-0.29479486,-0.41404992,0.38082123,-1.2564778,-0.20993167,0.073652744,-1.5512992,0.35898954,-0.5659714,0.38019973,-0.67569596,1.347861,-0.2207939,-1.2286409,0.12270865,0.289917,1.2963474,-0.06407046,0.051937982,-0.01339826,-0.29382706,0.25564033,-0.5556377,1.2463669,-0.36329013,0.3932778,-1.2548443,-1.0188549,-0.54949754,-0.48136997,-0.8418427,0.27399492,-0.68485934,-0.48461863,-1.5179576,-0.6898793,-0.12676615,-2.0357754,0.11249539,-0.03372389,-0.6276084,-0.9852629,-0.73148066,0.29230884,-0.6753867,-0.12081599,-0.18773386,-0.13972837,-0.4402618,-0.0264937,-0.20628537,-0.3223164,-0.9387639,-0.36933112,-0.06933122,-0.67812276,0.16427444,0.18506788
mouse_click,-1.0651841,-0.24182612,-0.16670156,-1.1426576,-0.93845534,-1.9893161,0.3183931,-0.37490654,-3.1291971,-0.7649379,0.051171213,-0.73890585,-0.9173539,-0.004145205,-0.026890002,0.64909834,-0.02756604,0.018963784,-0.1690893,0.2875862,-0.4038399,0.5677985,-0.3444067,-0.4131091,0.031206608,0.5443522,0.37154108,-0.49272764,0.49532408,-0.10795206,0.6685455,-0.12989664,0.682114,0.15020111,0.47530067,-0.10453315,-0.030577973,-1.6324583,-0.511945,0.1949242,0.48612544,-1.0658679,0.5321756,-0.6898661,0.19064248,-0.13335308,-0.19341028,-0.045747876,0.1529427,0.2845153,-0.4487595,-0.46830678,-1.9927567,-1.0146412,0.35130334,-0.52663666,0.17591947,0.82888865,-0.13898042,0.02542824,0.14023674,-0.6588575,-0.69260836,-0.6369506,-0.75980955,-0.18799038,-0.35751858,0.91350573,0.02855069,-0.87581134,-0.113136515,-0.4172045,0.3999592,-1.3119572,-0.036304176,0.14882773,-1.5904156,0.258244,-0.45718792,0.24318334,-0.68957144,1.4474051,-0.27165976,-1.389935,0.043381482,0.36206996,1.3083642,0.015253849,0.012948483,0.21888027,-0.45137718,0.2785555,-0.72000873,1.1776562,-0.28180647,0.54765135,-1.0658767,-1.0067189,-0.6027217,-0.4861846,-0.6301044,0.34634024,-0.5791696,-0.38946953,-1.7884654,-0.72041446,-0.16873246,-1.8916563,0.1907863,0.011518879,-0.58995855,-0.83677876,-0.6571817,0.20502329,-0.63253134,-0.21657524,-0.27048066,-0.14772017,-0.58332825,0.08733058,-0.2989465,-0.34548688,-0.92003363,-0.3150872,-0.13404268,-0.85066664,0.2800007,0.05179563
mouse_click,-1.6892331,-0.3444741,0.76058435,-0.6670315,-1.0022779,-2.1575487,-0.97781676,-0.12263397,-4.412545,-1.2567068,-0.85544467,-1.441047,-0.33818465,-0.42224205,-0.6343619,0.6516175,0.09809239,0.37197015,-0.4034304,-0.089485735,0.029754713,-0.7163161,-0.8204968,-0.3520069,0.519521,0.25625747,0.08561295,0.06275715,0.45232785,-0.6247648,0.08638787,-0.36930472,0.6160122,0.5257431,0.21131183,-0.30104095,-0.7571685,-1.3361821,-1.7503814,0.33295882,0.8015219,-1.2959296,0.81095177,-0.72025174,0.45032036,-1.1552585,0.64194345,0.69688773,0.16290751,0.3130632,-0.5645415,-1.1398311,-1.8961675,-1.6569209,0.4357159,-0.7520995,0.2852286,-0.100478485,-0.259485,-0.4775614,0.3010239,-0.9142673,-1.0973971,-2.0766282,-0.10228677,-0.13615705,-0.61622465,0.7986412,-0.70435995,-0.89567506,-0.072763786,-0.87967354,-0.28399837,-0.9315315,-0.13658169,0.34721324,-1.258789,0.5021482,-0.20826647,0.63171107,-0.49621436,0.9741995,0.09828976,-1.7985886,0.30503848,0.06748259,0.08140665,0.4791487,-0.39212912,0.62460834,-1.2787256,0.76099527,-1.8761842,0.38361296,0.09516096,0.76458466,-0.9114381,-0.9488431,-0.014527876,-0.5734718,-0.5316931,0.21073198,-0.5363326,0.001586855,-2.5641625,-1.3164513,-0.2624178,-1.6630727,0.2971885,-0.4927113,-0.93026143,-0.14639843,0.48776895,-1.216803,-0.5190383,-0.6956464,-0.52344716,-0.051800676,-0.9761933,-0.02055533,-0.5149336,-0.39340264,-1.2845434,-0.45222265,-0.05846768,-1.8463821,-0.2942254,-0.04371667
mouse_click,-1.9987621,-0.16856986,0.8724457,-0.54214483,-1.0956088,-1.562676,-0.5933242,-0.14362416,-2.945365,-0.887902,-0.37920412,-0.996615,-0.64460295,-0.43153757,-0.40108863,0.46029142,-0.06460163,0.13675153,-0.73480827,-0.03043583,0.06656006,-0.41938663,-0.42839128,-0.7026402,0.2604284,0.60108453,0.075936794,-0.4110831,0.6127125,-0.42165798,0.003094796,-0.29303932,0.5373606,0.33613938,0.15598096,-0.3786856,-0.68918455,-1.3098136,-1.2886013,0.13993405,0.7876189,-1.0756929,0.6323408,-0.46223706,0.33155608,-0.6874014,0.51295704,0.20178854,0.03821498,0.514347,-0.48959237,-0.92217946,-1.5484396,-1.0817603,0.4870615,-0.5126222,0.36208764,-0.028159246,-0.2955577,-0.0980775,0.26427007,-0.6440769,-0.61775166,-1.3137549,-0.12560856,-0.18562882,-0.5033355,0.64913976,-0.32992986,-0.5599189,0.16433252,-0.5704905,-0.17633738,-1.376185,0.10790741,0.4495309,-1.2153709,0.34502453,-0.23298922,0.49433994,-0.42866552,1.3795526,-0.1273916,-1.5396094,0.42949042,0.3425268,0.114821166,0.2487448,-0.35111564,0.9578067,-0.7080308,0.757348,-1.1535618,0.4589244,0.10284829,0.8461355,-0.7409396,-0.8440829,0.09482488,-0.41217178,-0.3897137,0.36073962,-0.49121818,0.03766659,-1.9145154,-1.3320793,-0.23581988,-1.9327681,0.31608713,-0.63929427,-0.5983954,-0.37061653,0.26063427,-0.7038356,-0.06523186,-0.40771702,-0.036508292,-0.19422852,-0.77023244,-0.100181036,-0.42420274,-0.21265244,-1.1175152,-0.27045918,-0.17255124,-1.803303,-0.23000334,0.022226706
mouse_click,-1.3985366,-0.19990787,0.59384817,-0.273634,-0.74863297,-1.4610144,-0.7987014,-0.087192334,-3.0134144,-0.7061555,-0.38942012,-0.94799095,-0.4364971,-0.15308276,-0.40657067,0.34645584,0.06721992,0.17729202,-0.35003167,0.027094364,0.03870944,-0.31141192,-0.4509757,-0.5027473,0.38919544,0.4391976,0.100241184,-0.116649345,0.5468877,-0.362893,0.03087713,-0.19786257,0.38025203,0.34204555,0.13615389,-0.23050325,-0.53126323,-1.1139833,-1.2100441,0.23333718,0.5124669,-1.0008408,0.5270555,-0.39606112,0.378532,-0.81026685,0.73723745,0.44026193,0.1290276,0.48503983,-0.39607584,-0.6874435,-1.4073764,-1.143195,0.552534,-0.46971568,0.54531634,0.009618282,-0.19279116,-0.3418124,0.20248078,-0.6081255,-0.5873243,-1.4632378,-0.026194923,-0.11623809,-0.35795268,0.6822002,-0.4000416,-0.5346856,0.07237839,-0.53305835,-0.07552387,-0.87338126,0.051154062,0.4070735,-1.0075389,0.5344489,-0.08269343,0.51972467,-0.48517385,0.8927808,0.12643129,-1.1754874,0.2989724,0.14915195,0.08077635,0.452995,-0.078818515,0.7756894,-0.7215067,0.53848994,-1.2470261,0.2888424,0.27867627,0.7135767,-0.58253837,-0.46704495,0.015953785,-0.2542838,-0.35075825,0.33470935,-0.47801712,0.10940394,-1.7849104,-1.0181453,-0.10289079,-1.3640436,0.33618408,-0.54081297,-0.59482783,-0.13488662,0.3326488,-0.76265645,-0.122712806,-0.3718321,-0.044572055,-0.012153352,-0.7312666,0.060216248,-0.34520608,-0.22255546,-0.9594761,-0.2697296,-0.21552667,-1.3484937,-0.20126383,0.1846089
mouse_click,-1.107524,-0.14556393,0.62688965,-0.12820467,-0.6053235,-1.2605354,-0.718037,-0.28704226,-2.5769866,-0.8531851,-0.43476287,-0.53719306,-0.40307453,-0.26551473,-0.21824992,0.29022872,-0.19633442,0.15415591,-0.434911,-0.08993125,0.034308635,-0.5194769,-0.51219,-0.19280326,0.49077326,0.2281088,0.14039709,-0.21482804,0.37737453,-0.29531533,0.2060045,-0.4990738,0.5585988,0.5857122,0.047302645,-0.18755518,-0.5197282,-0.720261,-0.85114455,0.002263427,0.6989291,-0.6756608,0.62366873,-0.2411468,0.4138252,-0.67831373,0.6244622,0.48680055,-0.032114476,0.49785736,-0.26772016,-0.57868224,-1.3031999,-0.95574194,0.42548522,-0.39118454,0.3400399,-0.053436324,4.83E-05,-0.27436343,0.20109679,-0.48485905,-0.71897435,-1.0311978,0.031971373,-0.1439906,-0.48657155,0.4688543,-0.5790458,-0.54820895,0.116804965,-0.47948563,-0.06638686,-0.717475,0.0867978,0.052389063,-0.76456773,0.16510132,0.007920772,0.5469931,-0.18391252,0.87226176,0.18709,-0.9881729,0.73441535,0.09716679,0.03857167,0.4596331,-0.1349201,0.63176465,-0.65876114,0.36752868,-1.0177587,0.26733506,0.11036417,0.6031465,-0.23872103,-0.76596797,0.06372364,-0.3124984,-0.2622621,0.18064052,-0.42293924,0.27663082,-1.1509632,-1.0519745,-0.09682706,-1.2821021,0.43349424,-0.5692608,-0.35509816,-0.2049329,0.48108143,-0.34272578,-0.28162783,-0.31282362,-0.24377528,-0.11621168,-0.5734141,0.23257089,-0.3244326,-0.16355026,-0.69701725,-0.12524256,-0.013126906,-1.2228452,-0.22579126,-0.0626812
mouse_click,-1.2046945,-0.0911302,0.41107845,-0.41356716,-0.6826073,-1.5170467,-0.7309949,-0.113914035,-2.8101614,-0.7455045,-0.27549514,-0.80156904,-0.3772214,-0.1878568,-0.315237,0.2852943,0.12295892,0.14947873,-0.40560055,0.053269625,-0.016304128,-0.29909867,-0.35892966,-0.5642036,0.4601435,0.35069662,0.023799479,-0.14027151,0.5462145,-0.30577523,0.037538692,-0.25669152,0.4886938,0.35092008,-0.021010796,-0.16936944,-0.5178387,-0.9151529,-1.0555795,0.13581654,0.45365867,-0.7292131,0.51485825,-0.38220006,0.38765436,-0.8243121,0.7495543,0.46961308,0.13555774,0.45444936,-0.37569922,-0.73900986,-1.4048238,-1.1524915,0.5328558,-0.393086,0.4900424,-0.004545704,-0.13663176,-0.30184153,0.07147996,-0.58137137,-0.83309335,-1.3973421,-0.11137241,-0.09246236,-0.28029248,0.6203597,-0.40597802,-0.45988163,0.19411656,-0.53855747,-0.022725865,-0.9218628,0.08591908,0.5371291,-0.79437685,0.5440705,-0.028844446,0.5409114,-0.48839548,0.6408194,0.07793154,-1.0847158,0.3432059,-0.04579103,0.20992114,0.6464907,-0.060317233,0.6944437,-0.6145009,0.41983694,-1.3227931,0.57398367,0.16530937,0.77646893,-0.5099948,-0.57178783,-0.21282415,-0.21078265,-0.15426604,0.33024633,-0.3952157,0.18509339,-1.5804052,-0.7921537,0.028984964,-1.1429819,0.39405772,-0.66705763,-0.53804284,-0.2181072,0.30311728,-0.5976512,-0.1605099,-0.2709803,0.032113492,0.1161731,-0.8651289,-0.013030732,-0.2745772,-0.27761787,-0.8239929,-0.28850645,-0.21823114,-1.2949007,-0.0912876,0.16295117
mouse_click,-1.8282416,-0.12690985,0.85981566,-0.64091766,-0.9227618,-1.3646029,-0.06532261,-0.26733977,-2.3229277,-1.0829133,-0.30042252,-0.509188,-0.5037634,-0.41790372,-0.12930688,0.39437887,-0.067455575,0.26590282,-0.82203305,-0.18289825,-0.007633716,-0.35309523,-0.2432498,-0.75012565,0.16676669,0.8190048,0.07564142,-0.43251845,0.56365144,-0.1358938,0.14815721,-0.12033889,0.279093,0.48833928,0.029125718,-0.28448373,-0.48565465,-1.3100767,-0.97537607,0.009228408,0.8918227,-0.96703565,0.60988754,-0.1889585,0.18226004,-0.3418659,0.48187432,-0.07548964,-0.26951104,0.5267044,-0.2084799,-0.84320927,-1.4935346,-0.8961897,0.26166308,-0.33492598,0.37840396,0.07839291,-0.26673788,0.037540454,0.15174912,-0.4035554,-0.57339835,-0.6940353,-0.06868026,-0.23480885,-0.39723188,0.4248436,-0.026206037,-0.49068138,0.44730845,-0.39105433,-0.16364364,-1.2788043,0.29017574,0.08190187,-1.1680549,0.20256281,-0.3106152,0.59558797,-0.20851716,1.294922,-0.27219638,-1.3388107,0.38191152,0.35385257,0.28946576,0.22837722,-0.31246787,0.93614954,-0.51973164,0.67496467,-0.54260546,0.4056279,-0.017774075,0.80907226,-0.4161651,-0.69294876,-0.10259878,-0.35461962,-0.40656266,0.33528075,-0.24502198,0.110210374,-1.6269207,-1.2996837,-0.040863782,-1.8189334,0.25778782,-0.35820177,-0.29315835,-0.49484047,0.13228697,-0.49307925,-0.108446985,-0.38693425,-0.07444668,-0.20138748,-0.8534279,-0.13596128,-0.18684761,0.1371961,-0.9094023,-0.040740877,-0.25264013,-1.5793637,-0.1064989,0.016745046
mouse_click,-1.6622759,-0.10366225,0.7715873,-0.38754386,-0.9241991,-1.478732,-0.5391958,-0.12531719,-2.8301601,-0.7468033,-0.3016536,-0.83400023,-0.5005305,-0.34995073,-0.26166412,0.49978405,-0.036976047,0.15726113,-0.696113,0.03245923,0.078535795,-0.38825655,-0.48448184,-0.68154764,0.27838653,0.5275323,-0.010609597,-0.31893057,0.48964727,-0.31003833,0.007185297,-0.42026448,0.6704012,0.4079771,0.13596907,-0.38182437,-0.6210171,-0.924104,-1.0575962,0.12336114,0.5794787,-0.8442562,0.55629545,-0.32559884,0.20219836,-0.7448802,0.581258,0.3559935,0.006898075,0.5316809,-0.52190876,-0.7346083,-1.4173406,-1.0450451,0.47260883,-0.2674985,0.48251268,0.15069227,-0.2260074,-0.16032505,0.116576344,-0.6134368,-0.685382,-1.3063248,-0.15041052,-0.14500184,-0.37859747,0.6223829,-0.3595608,-0.58112,0.32105604,-0.5721891,-0.092500225,-1.3064957,0.18919116,0.5432179,-0.96624714,0.57215935,-0.18529674,0.48670408,-0.4278334,1.0959879,-0.031257898,-1.412933,0.40493494,0.16577812,0.19645555,0.35809714,-0.33444393,0.79273784,-0.6527842,0.5091319,-1.1400874,0.41759482,0.17775416,0.6938491,-0.71215075,-0.7807935,-0.17424597,-0.3133307,-0.2261824,0.3720152,-0.39672112,0.107322976,-1.6652365,-1.0616854,-0.014136672,-1.6059047,0.40384436,-0.70546883,-0.51317245,-0.26974782,0.30725482,-0.53672063,-0.060811907,-0.2607793,-0.002000868,-0.16744432,-0.8632891,-0.082814306,-0.37910384,-0.32418993,-0.8026394,-0.2591598,-0.1326884,-1.5408072,-0.1934707,0.11857
mouse_click,-1.8455701,-0.41661122,0.84061223,-0.5477039,-1.1580237,-2.0230353,-1.2714717,-0.23739639,-3.9392762,-1.2724352,-0.77343905,-1.4981868,-0.49229783,-0.4563654,-0.5578374,0.46944556,-0.055899024,0.20560311,-0.74377906,-0.14819592,0.10074159,-0.6899955,-0.82102543,-0.77458894,0.32813153,0.34852237,0.13538961,-0.17764986,0.4974755,-0.5967356,0.15195012,-0.3869549,0.7597721,0.5232039,0.15472507,-0.4097529,-0.98401076,-1.3688649,-1.9075752,0.11150205,0.8658653,-1.3870729,0.70447713,-0.67953575,0.46144974,-1.1641197,0.7668113,0.7087067,0.10062298,0.3742059,-0.5407646,-1.2793653,-1.8554094,-1.6516709,0.48539346,-0.72694004,0.32739043,-0.205132,-0.20126167,-0.4839133,0.20712835,-0.9148357,-1.1204519,-2.1316106,-0.23589483,-0.17595963,-0.56223667,0.86756724,-0.72160155,-0.84628284,0.03432406,-0.8874659,-0.24755402,-1.1997807,-0.112161696,0.50942236,-1.0248839,0.32381824,-0.1821303,0.74398416,-0.5938588,1.1148535,0.1407822,-1.6619613,0.39583513,0.09186311,0.003218502,0.76987886,-0.30747718,0.9171797,-1.1493198,0.5693126,-1.8758426,0.2507102,0.08363357,0.8600465,-0.75324494,-1.057246,-0.10218884,-0.51714736,-0.54164505,0.2862119,-0.7336009,0.19145352,-2.3118644,-1.4951847,-0.15720218,-1.7252066,0.449278,-0.9139475,-0.83464766,-0.4331002,0.40363503,-0.9284969,-0.35834688,-0.6963978,-0.281913,0.031395912,-1.1050149,-0.09603846,-0.5220357,-0.48401272,-1.3794649,-0.41175342,-0.24995309,-2.1284573,-0.39850324,-0.14177936
mouse_click,-2.5538323,-0.49462804,1.1127136,-0.7620258,-1.1296852,-1.8552825,-0.7518833,-0.2018004,-3.6486423,-1.3797274,-0.6714934,-1.3065344,-0.53763866,-0.6814335,-0.5914999,0.38652867,-0.18386286,-0.010947049,-1.0432607,-0.10094789,0.022706006,-0.7795956,-0.71966493,-0.88712394,0.16391595,0.57698774,0.17420977,-0.40174183,0.5678663,-0.58803684,-0.09535687,-0.41729093,0.61293846,0.48939756,0.1966723,-0.50942415,-1.085149,-1.7668818,-1.8748128,-0.016732007,0.94979596,-1.378199,0.5745849,-0.58060765,0.3406693,-0.7360213,0.37413526,0.40083686,-0.11169729,0.58479434,-0.65247416,-1.1141675,-2.1726394,-1.4380977,0.5594227,-1.0252986,0.32164443,-0.1069646,-0.14069727,-0.3247959,0.1836037,-0.8648697,-1.114156,-1.8549018,-0.4751022,-0.19846015,-0.55311537,0.8733999,-0.31832734,-0.80929124,0.27200052,-0.9007353,0.22365054,-1.6396713,0.050073013,0.34819776,-1.3369948,0.28928688,-0.35169008,1.0171685,-0.68913704,1.5580709,0.17286287,-1.8612627,0.423614,0.26555082,0.045773774,0.7783116,-0.41913915,0.8235127,-0.9562936,0.8225415,-1.5536801,0.5195437,-0.14200956,0.8273721,-0.9707551,-1.2944767,-0.3668116,-0.7101332,-0.50953233,0.2334795,-0.6527928,-0.041395873,-1.7844745,-1.7538753,-0.30226076,-2.2311814,0.5239124,-0.915799,-0.562401,-0.61798847,0.17822754,-0.6582174,-0.2704512,-0.7231804,-0.10823712,-0.1415082,-1.0755742,-0.25613192,-0.5846095,-0.39374116,-1.3751487,-0.4075752,-0.38887048,-2.4543314,-0.3504333,-0.11355677
mouse_click,-1.6755238,-0.40465876,0.8306676,-0.57275856,-1.0030115,-1.9660643,-1.207188,-0.20729133,-3.9037743,-1.1935881,-0.88891256,-1.3940301,-0.16512276,-0.52382994,-0.60293263,0.48801225,-0.005267372,0.2112095,-0.7481121,-0.14592853,-0.022738427,-0.78578866,-0.9481062,-0.45758232,0.354347,0.1943579,-0.01790008,-0.3927582,0.4325474,-0.45593834,0.23069835,-0.5935386,0.98088694,0.3066192,0.18730375,-0.51280785,-1.0137055,-1.0282815,-1.9766527,0.17148507,0.6645764,-1.4508203,0.8210179,-0.7072289,0.4652608,-1.1607143,0.8837398,0.6555786,0.057307035,0.314013,-0.50451285,-1.269882,-1.7857496,-1.6937859,0.61648285,-0.71798545,0.33181727,-0.24432357,-0.21376538,-0.32968923,0.20637155,-0.8064276,-1.1669011,-2.2119782,-0.2482869,-0.09084975,-0.397228,0.76536024,-0.6902939,-0.8266418,0.08716408,-0.8774753,-0.022175148,-1.0731791,-0.06591827,0.4956465,-0.9780967,0.25394425,-0.2316719,0.7784214,-0.7368816,0.8624557,0.32663068,-1.4817663,0.5500531,-0.1471582,0.071302414,0.99641585,-0.32463533,0.5444718,-1.1178676,0.47748888,-1.9181924,0.6396396,0.12197268,0.9549234,-0.6748041,-1.2290591,-0.26289913,-0.504969,-0.51662606,0.2238745,-0.6446706,0.11230901,-1.9706205,-1.2884015,-0.18132067,-1.5081114,0.39450145,-0.9775211,-0.9535388,-0.40691832,0.34765694,-0.79472095,-0.44156116,-0.72840655,-0.26038614,-0.003373332,-0.92896533,-0.2073884,-0.38771623,-0.49244332,-1.271417,-0.47944987,-0.27087927,-2.0239139,-0.33998203,-0.12050122
mouse_click,-1.7028041,-0.13931909,0.6956342,-0.57632804,-0.8694525,-1.4881228,-0.2244581,-0.109199844,-2.9550323,-0.77651614,-0.1889725,-0.5462646,-0.6931762,-0.2233533,-0.09753301,0.38629428,0.17996262,0.00779739,-0.5008901,-0.07195011,0.21290186,-0.14835757,-0.22596502,-0.89343655,0.31647408,0.70628023,0.06985307,-0.28902698,0.64299613,-0.08802414,0.15763661,-0.34104234,0.3537678,0.38179535,0.13627079,-0.28790373,-0.43563157,-1.3333796,-0.952035,0.080845535,0.6772944,-0.93488806,0.62995625,-0.16701493,0.17934473,-0.52579534,0.4893969,-0.055761516,-0.18093646,0.4663534,-0.39964205,-0.5362496,-1.6167328,-0.8722574,0.2789328,-0.34506813,0.35517615,0.0829954,-0.35528657,-0.03539707,0.16933627,-0.6255722,-0.5068798,-0.90620285,-0.033395626,-0.1775296,-0.5679588,0.709708,-0.021571508,-0.73202884,0.34883955,-0.40604264,0.018218473,-1.0933917,0.13006723,0.27874744,-1.0429251,0.19726712,-0.27468416,0.53735304,-0.18179145,1.0486405,-0.19574055,-1.2317556,0.3747732,0.4036525,0.32194585,0.22706312,-0.29888672,1.0502384,-0.61067045,0.5991774,-0.69137365,0.47878712,0.14850311,0.62474555,-0.5849273,-0.6813274,0.016321601,-0.331989,-0.30674514,0.30047262,-0.30206472,0.08669475,-1.6525168,-1.0480242,-0.17628527,-1.9609994,0.11059311,-0.33524185,-0.47389048,-0.42383876,0.36357105,-0.63040984,-0.13543682,-0.26774782,-0.027498782,-0.07108034,-0.7152858,0.14185943,-0.27021068,-0.021805458,-0.81170106,-0.27764386,-0.020984389,-1.3487636,-0.14945854,0.19551568
mouse_click,-1.5607364,-0.20546702,0.99788165,-0.5665511,-0.85060716,-1.4840518,-0.7246174,-0.21752095,-2.9579513,-0.9598162,-0.4597936,-0.97609407,-0.34142166,-0.30832964,-0.3128691,0.4025632,-0.099010624,0.30874524,-0.76538354,-0.11290842,0.05015631,-0.5590854,-0.55720615,-0.57516325,0.34020126,0.4175874,-0.1212056,-0.32457334,0.60683346,-0.47816765,-0.044075307,-0.27245486,0.5435639,0.62335974,0.10809313,-0.2552747,-0.6985045,-1.0152956,-1.1334018,0.13699232,0.8171512,-0.9606638,0.44780138,-0.4029013,0.29514423,-0.8651924,0.54895735,0.46449786,-0.003541589,0.53314894,-0.38166147,-0.976706,-1.5028298,-1.142961,0.47887832,-0.45590124,0.45283908,0.13056462,-0.11054808,-0.17634659,0.08194704,-0.6649074,-0.87245494,-1.3727039,-0.082997546,-0.18982123,-0.5179678,0.5265227,-0.28254464,-0.64500034,0.114388525,-0.514548,-0.1441892,-1.2228526,0.22100955,0.24675325,-0.95859885,0.30345088,-0.1555703,0.61790967,-0.2664538,1.0831108,-0.13268498,-1.1907525,0.47290456,0.26300567,0.07527432,0.43328035,-0.25542676,0.7929347,-0.76528263,0.43302798,-1.2106466,0.23170769,-0.0397484,0.67074037,-0.4995349,-0.8287542,-0.07334189,-0.3376398,-0.364974,0.38312072,-0.3765733,0.22414821,-1.7653536,-1.2869729,-0.024836272,-1.5472215,0.5213929,-0.6076792,-0.47057912,-0.3825694,0.40779665,-0.66044366,-0.13638428,-0.32621565,-0.14798084,-0.07548796,-0.7961618,-0.15546148,-0.3807423,-0.09955589,-0.90798473,-0.27254206,-0.12818116,-1.7545793,-0.20023976,-0.004941911
